<?xml version="1.0"?>
<MethodSetup Method="BDT::BDT">
  <GeneralInfo>
    <Info name="TMVA Release" value="4.1.4 [262404]"/>
    <Info name="ROOT Release" value="5.34/10 [336394]"/>
    <Info name="Creator" value="sachikot"/>
    <Info name="Date" value="Mon Apr 14 04:25:29 2014"/>
    <Info name="Host" value="Linux lxbuild168.cern.ch 2.6.18-348.1.1.el5 #1 SMP Thu Jan 24 13:25:42 CET 2013 x86_64 x86_64 x86_64 GNU/Linux"/>
    <Info name="Dir" value="/uscms_data/d3/sachikot/tmp/PF/NEW_TOCHECK/TMVA_Cat1"/>
    <Info name="Training events" value="1553464"/>
    <Info name="TrainingTime" value="3.79953851e+03"/>
    <Info name="AnalysisType" value="Classification"/>
  </GeneralInfo>
  <Options>
    <Option name="V" modified="Yes">False</Option>
    <Option name="VerbosityLevel" modified="No">Default</Option>
    <Option name="VarTransform" modified="No">None</Option>
    <Option name="H" modified="Yes">False</Option>
    <Option name="CreateMVAPdfs" modified="No">False</Option>
    <Option name="IgnoreNegWeightsInTraining" modified="No">False</Option>
    <Option name="NTrees" modified="Yes">2000</Option>
    <Option name="RenormByClass" modified="No">False</Option>
    <Option name="BoostType" modified="Yes">Grad</Option>
    <Option name="AdaBoostR2Loss" modified="No">quadratic</Option>
    <Option name="UseBaggedGrad" modified="Yes">False</Option>
    <Option name="GradBaggingFraction" modified="No">6.000000e-01</Option>
    <Option name="Shrinkage" modified="Yes">1.000000e-01</Option>
    <Option name="AdaBoostBeta" modified="No">1.000000e+00</Option>
    <Option name="UseRandomisedTrees" modified="No">False</Option>
    <Option name="UseNvars" modified="Yes">4</Option>
    <Option name="UsePoissonNvars" modified="No">True</Option>
    <Option name="UseNTrainEvents" modified="No">1553464</Option>
    <Option name="UseWeightedTrees" modified="No">True</Option>
    <Option name="UseYesNoLeaf" modified="No">True</Option>
    <Option name="NodePurityLimit" modified="No">5.000000e-01</Option>
    <Option name="SeparationType" modified="No">giniindex</Option>
    <Option name="nEventsMin" modified="Yes">100</Option>
    <Option name="nCuts" modified="Yes">2000</Option>
    <Option name="UseFisherCuts" modified="No">False</Option>
    <Option name="MinLinCorrForFisher" modified="No">8.000000e-01</Option>
    <Option name="UseExclusiveVars" modified="No">False</Option>
    <Option name="PruneStrength" modified="Yes">5.000000e+00</Option>
    <Option name="PruneMethod" modified="Yes">costcomplexity</Option>
    <Option name="PruneBeforeBoost" modified="No">False</Option>
    <Option name="PruningValFraction" modified="No">5.000000e-01</Option>
    <Option name="NNodesMax" modified="Yes">5</Option>
    <Option name="MaxDepth" modified="Yes">6</Option>
    <Option name="DoBoostMonitor" modified="No">False</Option>
    <Option name="NegWeightTreatment" modified="Yes">ignorenegweights</Option>
  </Options>
  <Variables NVar="10">
    <Variable VarIndex="0" Expression="NHits" Label="NHits" Title="NHits" Unit="" Internal="NHits" Type="F" Min="3.00000000e+00" Max="2.50000000e+01"/>
    <Variable VarIndex="1" Expression="NormChi" Label="NormChi" Title="NormChi" Unit="" Internal="NormChi" Type="F" Min="-3.04950541e-03" Max="3.26832578e+04"/>
    <Variable VarIndex="2" Expression="dPtGSF" Label="dPtGSF" Title="dPtGSF" Unit="" Internal="dPtGSF" Type="F" Min="1.54550651e-06" Max="1.00000000e+03"/>
    <Variable VarIndex="3" Expression="EoP" Label="EoP" Title="EoP" Unit="" Internal="EoP" Type="F" Min="0.00000000e+00" Max="2.99999785e+00"/>
    <Variable VarIndex="4" Expression="ChiRatio" Label="ChiRatio" Title="ChiRatio" Unit="" Internal="ChiRatio" Type="F" Min="1.26701426e-02" Max="1.19927030e+07"/>
    <Variable VarIndex="5" Expression="RedChi" Label="RedChi" Title="RedChi" Unit="" Internal="RedChi" Type="F" Min="-6.81708241e+00" Max="1.25609050e+07"/>
    <Variable VarIndex="6" Expression="EcalDEta" Label="EcalDEta" Title="EcalDEta" Unit="" Internal="EcalDEta" Type="F" Min="5.36439941e-08" Max="1.00000000e+03"/>
    <Variable VarIndex="7" Expression="EcalDPhi" Label="EcalDPhi" Title="EcalDPhi" Unit="" Internal="EcalDPhi" Type="F" Min="1.79911865e-07" Max="1.00000000e+03"/>
    <Variable VarIndex="8" Expression="pt" Label="pt" Title="pt" Unit="" Internal="pt" Type="F" Min="2.00000095e+00" Max="5.99999857e+00"/>
    <Variable VarIndex="9" Expression="eta" Label="eta" Title="eta" Unit="" Internal="eta" Type="F" Min="-7.99999952e-01" Max="7.99999416e-01"/>
  </Variables>
  <Spectators NSpec="0"/>
  <Classes NClass="2">
    <Class Name="Signal" Index="0"/>
    <Class Name="Background" Index="1"/>
  </Classes>
  <Transformations NTransformations="0"/>
  <MVAPdfs/>
  <Weights NTrees="2000" AnalysisType="1">
    <BinaryTree type="DecisionTree" boostWeight="1.0000000000000000e+00" itree="0">
      <Node pos="s" depth="0" NCoef="0" IVar="3" Cut="4.9925002455711365e-01" cType="0" res="-4.4211250543594360e-01" rms="2.3353058099746704e-01" purity="5.7887498289346695e-02" nType="0">
        <Node pos="l" depth="1" NCoef="0" IVar="-1" Cut="0.0000000000000000e+00" cType="1" res="-5.7023476809263229e-02" rms="2.7611151337623596e-01" purity="8.3151794970035553e-02" nType="-99"/>
        <Node pos="r" depth="1" NCoef="0" IVar="0" Cut="7.0089955329895020e+00" cType="1" res="-4.8029723763465881e-01" rms="1.3897679746150970e-01" purity="1.9702749326825142e-02" nType="0">
          <Node pos="l" depth="2" NCoef="0" IVar="-1" Cut="0.0000000000000000e+00" cType="1" res="-7.1741335093975067e-02" rms="2.0219923555850983e-01" purity="4.2708549648523331e-02" nType="-99"/>
          <Node pos="r" depth="2" NCoef="0" IVar="-1" Cut="0.0000000000000000e+00" cType="1" res="-7.6297752559185028e-02" rms="1.0092478245496750e-01" purity="1.0291731916368008e-02" nType="-99"/>
        </Node>
      </Node>
    </BinaryTree>
    <BinaryTree type="DecisionTree" boostWeight="1.0000000000000000e+00" itree="1">
      <Node pos="s" depth="0" NCoef="0" IVar="3" Cut="4.7226354479789734e-01" cType="0" res="-4.1007331013679504e-01" rms="2.3296415805816650e-01" purity="5.7887498289346695e-02" nType="0">
        <Node pos="l" depth="1" NCoef="0" IVar="-1" Cut="0.0000000000000000e+00" cType="1" res="-5.3614798933267593e-02" rms="2.7397227287292480e-01" purity="8.1770405173301697e-02" nType="-99"/>
        <Node pos="r" depth="1" NCoef="0" IVar="0" Cut="7.0089955329895020e+00" cType="1" res="-4.4489273428916931e-01" rms="1.3173083961009979e-01" purity="1.7693217843770981e-02" nType="0">
          <Node pos="l" depth="2" NCoef="0" IVar="-1" Cut="0.0000000000000000e+00" cType="1" res="-6.7276999354362488e-02" rms="1.9368435442447662e-01" purity="3.9037559181451797e-02" nType="-99"/>
          <Node pos="r" depth="2" NCoef="0" IVar="-1" Cut="0.0000000000000000e+00" cType="1" res="-7.1248069405555725e-02" rms="9.3930520117282867e-02" purity="8.9021902531385422e-03" nType="-99"/>
        </Node>
      </Node>
    </BinaryTree>
    <BinaryTree type="DecisionTree" boostWeight="1.0000000000000000e+00" itree="2">
      <Node pos="s" depth="0" NCoef="0" IVar="0" Cut="1.0003498077392578e+01" cType="1" res="-3.8048171997070312e-01" rms="2.3253349959850311e-01" purity="5.7887498289346695e-02" nType="0">
        <Node pos="l" depth="1" NCoef="0" IVar="-1" Cut="0.0000000000000000e+00" cType="1" res="-5.2612703293561935e-02" rms="2.6935419440269470e-01" purity="7.9458303749561310e-02" nType="-99"/>
        <Node pos="r" depth="1" NCoef="0" IVar="4" Cut="5.1241391897201538e-01" cType="1" res="-4.1259229183197021e-01" rms="1.5595661103725433e-01" purity="2.5159025564789772e-02" nType="0">
          <Node pos="l" depth="2" NCoef="0" IVar="-1" Cut="0.0000000000000000e+00" cType="1" res="-5.7129207998514175e-02" rms="2.2259704768657684e-01" purity="5.2879717200994492e-02" nType="-99"/>
          <Node pos="r" depth="2" NCoef="0" IVar="-1" Cut="0.0000000000000000e+00" cType="1" res="-6.0498248785734177e-02" rms="1.4351685345172882e-01" purity="2.1202707663178444e-02" nType="-99"/>
        </Node>
      </Node>
    </BinaryTree>
    <BinaryTree type="DecisionTree" boostWeight="1.0000000000000000e+00" itree="3">
      <Node pos="s" depth="0" NCoef="0" IVar="0" Cut="1.0003498077392578e+01" cType="1" res="-3.5333803296089172e-01" rms="2.3234659433364868e-01" purity="5.7887498289346695e-02" nType="0">
        <Node pos="l" depth="1" NCoef="0" IVar="-1" Cut="0.0000000000000000e+00" cType="1" res="-4.9609579145908356e-02" rms="2.6936995983123779e-01" purity="7.9458303749561310e-02" nType="-99"/>
        <Node pos="r" depth="1" NCoef="0" IVar="4" Cut="5.1241391897201538e-01" cType="1" res="-3.8328272104263306e-01" rms="1.5592899918556213e-01" purity="2.5159025564789772e-02" nType="0">
          <Node pos="l" depth="2" NCoef="0" IVar="-1" Cut="0.0000000000000000e+00" cType="1" res="-5.3914334625005722e-02" rms="2.2261525690555573e-01" purity="5.2879717200994492e-02" nType="-99"/>
          <Node pos="r" depth="2" NCoef="0" IVar="-1" Cut="0.0000000000000000e+00" cType="1" res="-5.7261463254690170e-02" rms="1.4352218806743622e-01" purity="2.1202707663178444e-02" nType="-99"/>
        </Node>
      </Node>
    </BinaryTree>
    <BinaryTree type="DecisionTree" boostWeight="1.0000000000000000e+00" itree="4">
      <Node pos="s" depth="0" NCoef="0" IVar="3" Cut="4.5877027511596680e-01" cType="0" res="-3.2819342613220215e-01" rms="2.3218977451324463e-01" purity="5.7887498289346695e-02" nType="0">
        <Node pos="l" depth="1" NCoef="0" IVar="-1" Cut="0.0000000000000000e+00" cType="1" res="-4.4815961271524429e-02" rms="2.7229663729667664e-01" purity="8.0990679562091827e-02" nType="-99"/>
        <Node pos="r" depth="1" NCoef="0" IVar="0" Cut="7.0089955329895020e+00" cType="1" res="-3.5928279161453247e-01" rms="1.2800434231758118e-01" purity="1.6761478036642075e-02" nType="0">
          <Node pos="l" depth="2" NCoef="0" IVar="-1" Cut="0.0000000000000000e+00" cType="1" res="-5.7471539825201035e-02" rms="1.9006185233592987e-01" purity="3.7532173097133636e-02" nType="-99"/>
          <Node pos="r" depth="2" NCoef="0" IVar="-1" Cut="0.0000000000000000e+00" cType="1" res="-6.1176389455795288e-02" rms="8.9901067316532135e-02" purity="8.1656323745846748e-03" nType="-99"/>
        </Node>
      </Node>
    </BinaryTree>
    <BinaryTree type="DecisionTree" boostWeight="1.0000000000000000e+00" itree="5">
      <Node pos="s" depth="0" NCoef="0" IVar="0" Cut="8.0024986267089844e+00" cType="1" res="-3.0467981100082397e-01" rms="2.3189127445220947e-01" purity="5.7887498289346695e-02" nType="0">
        <Node pos="l" depth="1" NCoef="0" IVar="-1" Cut="0.0000000000000000e+00" cType="1" res="-4.2894307523965836e-02" rms="2.8596314787864685e-01" purity="9.0792238712310791e-02" nType="-99"/>
        <Node pos="r" depth="1" NCoef="0" IVar="0" Cut="1.0007495880126953e+01" cType="1" res="-3.2255694270133972e-01" rms="1.8928323686122894e-01" purity="3.7790056318044662e-02" nType="0">
          <Node pos="l" depth="2" NCoef="0" IVar="-1" Cut="0.0000000000000000e+00" cType="1" res="-4.7178283333778381e-02" rms="2.3638878762722015e-01" purity="6.0234848409891129e-02" nType="-99"/>
          <Node pos="r" depth="2" NCoef="0" IVar="-1" Cut="0.0000000000000000e+00" cType="1" res="-5.1859028637409210e-02" rms="1.5578226745128632e-01" purity="2.5159025564789772e-02" nType="-99"/>
        </Node>
      </Node>
    </BinaryTree>
    <BinaryTree type="DecisionTree" boostWeight="1.0000000000000000e+00" itree="6">
      <Node pos="s" depth="0" NCoef="0" IVar="0" Cut="8.0024986267089844e+00" cType="1" res="-2.8308621048927307e-01" rms="2.3174166679382324e-01" purity="5.7887498289346695e-02" nType="0">
        <Node pos="l" depth="1" NCoef="0" IVar="-1" Cut="0.0000000000000000e+00" cType="1" res="-4.0820445865392685e-02" rms="2.8599265217781067e-01" purity="9.0792238712310791e-02" nType="-99"/>
        <Node pos="r" depth="1" NCoef="0" IVar="3" Cut="5.4422652721405029e-01" cType="0" res="-2.9978573322296143e-01" rms="1.8924450874328613e-01" purity="3.7790056318044662e-02" nType="0">
          <Node pos="l" depth="2" NCoef="0" IVar="-1" Cut="0.0000000000000000e+00" cType="1" res="-4.3082781136035919e-02" rms="2.3454934358596802e-01" purity="5.8673571795225143e-02" nType="-99"/>
          <Node pos="r" depth="2" NCoef="0" IVar="-1" Cut="0.0000000000000000e+00" cType="1" res="-5.5543605238199234e-02" rms="1.0413603484630585e-01" purity="1.1076451279222965e-02" nType="-99"/>
        </Node>
      </Node>
    </BinaryTree>
    <BinaryTree type="DecisionTree" boostWeight="1.0000000000000000e+00" itree="7">
      <Node pos="s" depth="0" NCoef="0" IVar="0" Cut="1.0003498077392578e+01" cType="1" res="-2.6294931769371033e-01" rms="2.3155333101749420e-01" purity="5.7887498289346695e-02" nType="0">
        <Node pos="l" depth="1" NCoef="0" IVar="-1" Cut="0.0000000000000000e+00" cType="1" res="-4.0437784045934677e-02" rms="2.6887461543083191e-01" purity="7.9458303749561310e-02" nType="-99"/>
        <Node pos="r" depth="1" NCoef="0" IVar="4" Cut="5.1241391897201538e-01" cType="1" res="-2.8783151507377625e-01" rms="1.5573224425315857e-01" purity="2.5159025564789772e-02" nType="0">
          <Node pos="l" depth="2" NCoef="0" IVar="-1" Cut="0.0000000000000000e+00" cType="1" res="-4.4404853135347366e-02" rms="2.2206418216228485e-01" purity="5.2879717200994492e-02" nType="-99"/>
          <Node pos="r" depth="2" NCoef="0" IVar="-1" Cut="0.0000000000000000e+00" cType="1" res="-4.8441257327795029e-02" rms="1.4343281090259552e-01" purity="2.1202707663178444e-02" nType="-99"/>
        </Node>
      </Node>
    </BinaryTree>
    <BinaryTree type="DecisionTree" boostWeight="1.0000000000000000e+00" itree="8">
      <Node pos="s" depth="0" NCoef="0" IVar="3" Cut="4.9925002455711365e-01" cType="0" res="-2.4436613917350769e-01" rms="2.3146349191665649e-01" purity="5.7887498289346695e-02" nType="0">
        <Node pos="l" depth="1" NCoef="0" IVar="-1" Cut="0.0000000000000000e+00" cType="1" res="-3.6409255117177963e-02" rms="2.7522632479667664e-01" purity="8.3151794970035553e-02" nType="-99"/>
        <Node pos="r" depth="1" NCoef="0" IVar="3" Cut="3.4954985976219177e-01" cType="0" res="-2.6876568794250488e-01" rms="1.3810069859027863e-01" purity="1.9702749326825142e-02" nType="0">
          <Node pos="l" depth="2" NCoef="0" IVar="-1" Cut="0.0000000000000000e+00" cType="1" res="-4.7105226665735245e-02" rms="1.7962481081485748e-01" purity="3.3853463828563690e-02" nType="-99"/>
          <Node pos="r" depth="2" NCoef="0" IVar="-1" Cut="0.0000000000000000e+00" cType="1" res="-5.3745321929454803e-02" rms="1.0386633127927780e-01" purity="1.0997824370861053e-02" nType="-99"/>
        </Node>
      </Node>
    </BinaryTree>
    <BinaryTree type="DecisionTree" boostWeight="1.0000000000000000e+00" itree="9">
      <Node pos="s" depth="0" NCoef="0" IVar="0" Cut="8.0024986267089844e+00" cType="1" res="-2.2692172229290009e-01" rms="2.3126091063022614e-01" purity="5.7887498289346695e-02" nType="0">
        <Node pos="l" depth="1" NCoef="0" IVar="-1" Cut="0.0000000000000000e+00" cType="1" res="-3.5259291529655457e-02" rms="2.8571259975433350e-01" purity="9.0792238712310791e-02" nType="-99"/>
        <Node pos="r" depth="1" NCoef="0" IVar="0" Cut="1.0007495880126953e+01" cType="1" res="-2.4205960333347321e-01" rms="1.8890170753002167e-01" purity="3.7790056318044662e-02" nType="0">
          <Node pos="l" depth="2" NCoef="0" IVar="-1" Cut="0.0000000000000000e+00" cType="1" res="-3.9756316691637039e-02" rms="2.3596513271331787e-01" purity="6.0234848409891129e-02" nType="-99"/>
          <Node pos="r" depth="2" NCoef="0" IVar="-1" Cut="0.0000000000000000e+00" cType="1" res="-4.4916003942489624e-02" rms="1.5567368268966675e-01" purity="2.5159025564789772e-02" nType="-99"/>
        </Node>
      </Node>
    </BinaryTree>
    <BinaryTree type="DecisionTree" boostWeight="1.0000000000000000e+00" itree="10">
      <Node pos="s" depth="0" NCoef="0" IVar="0" Cut="8.0024986267089844e+00" cType="1" res="-2.1092317998409271e-01" rms="2.3117020726203918e-01" purity="5.7887498289346695e-02" nType="0">
        <Node pos="l" depth="1" NCoef="0" IVar="-1" Cut="0.0000000000000000e+00" cType="1" res="-3.3750992268323898e-02" rms="2.8575402498245239e-01" purity="9.0792238712310791e-02" nType="-99"/>
        <Node pos="r" depth="1" NCoef="0" IVar="4" Cut="5.1241391897201538e-01" cType="1" res="-2.2507283091545105e-01" rms="1.8888662755489349e-01" purity="3.7790056318044662e-02" nType="0">
          <Node pos="l" depth="2" NCoef="0" IVar="-1" Cut="0.0000000000000000e+00" cType="1" res="-3.5979982465505600e-02" rms="2.5697040557861328e-01" purity="7.2837717831134796e-02" nType="-99"/>
          <Node pos="r" depth="2" NCoef="0" IVar="-1" Cut="0.0000000000000000e+00" cType="1" res="-4.2178332805633545e-02" rms="1.7996557056903839e-01" purity="3.4148398786783218e-02" nType="-99"/>
        </Node>
      </Node>
    </BinaryTree>
    <BinaryTree type="DecisionTree" boostWeight="1.0000000000000000e+00" itree="11">
      <Node pos="s" depth="0" NCoef="0" IVar="3" Cut="4.4677630066871643e-01" cType="0" res="-1.9606536626815796e-01" rms="2.3110339045524597e-01" purity="5.7887498289346695e-02" nType="0">
        <Node pos="l" depth="1" NCoef="0" IVar="-1" Cut="0.0000000000000000e+00" cType="1" res="-3.2453410327434540e-02" rms="2.7034544944763184e-01" purity="8.0240376293659210e-02" nType="-99"/>
        <Node pos="r" depth="1" NCoef="0" IVar="3" Cut="3.0119946599006653e-01" cType="0" res="-2.2122427821159363e-01" rms="1.2474615871906281e-01" purity="1.5998117625713348e-02" nType="0">
          <Node pos="l" depth="2" NCoef="0" IVar="-1" Cut="0.0000000000000000e+00" cType="1" res="-4.5383933931589127e-02" rms="1.5364545583724976e-01" purity="2.4543415755033493e-02" nType="-99"/>
          <Node pos="r" depth="2" NCoef="0" IVar="-1" Cut="0.0000000000000000e+00" cType="1" res="-5.0331614911556244e-02" rms="9.4696849584579468e-02" purity="9.1019999235868454e-03" nType="-99"/>
        </Node>
      </Node>
    </BinaryTree>
    <BinaryTree type="DecisionTree" boostWeight="1.0000000000000000e+00" itree="12">
      <Node pos="s" depth="0" NCoef="0" IVar="0" Cut="1.0003498077392578e+01" cType="1" res="-1.8209518492221832e-01" rms="2.3095931112766266e-01" purity="5.7887498289346695e-02" nType="0">
        <Node pos="l" depth="1" NCoef="0" IVar="-1" Cut="0.0000000000000000e+00" cType="1" res="-3.2458879053592682e-02" rms="2.6835799217224121e-01" purity="7.9458303749561310e-02" nType="-99"/>
        <Node pos="r" depth="1" NCoef="0" IVar="4" Cut="5.1241391897201538e-01" cType="1" res="-2.0387320220470428e-01" rms="1.5563529729843140e-01" purity="2.5159025564789772e-02" nType="0">
          <Node pos="l" depth="2" NCoef="0" IVar="-1" Cut="0.0000000000000000e+00" cType="1" res="-3.6895826458930969e-02" rms="2.2181499004364014e-01" purity="5.2879717200994492e-02" nType="-99"/>
          <Node pos="r" depth="2" NCoef="0" IVar="-1" Cut="0.0000000000000000e+00" cType="1" res="-4.1938859969377518e-02" rms="1.4344240725040436e-01" purity="2.1202707663178444e-02" nType="-99"/>
        </Node>
      </Node>
    </BinaryTree>
    <BinaryTree type="DecisionTree" boostWeight="1.0000000000000000e+00" itree="13">
      <Node pos="s" depth="0" NCoef="0" IVar="3" Cut="5.0974476337432861e-01" cType="0" res="-1.6928645968437195e-01" rms="2.3090681433677673e-01" purity="5.7887498289346695e-02" nType="0">
        <Node pos="l" depth="1" NCoef="0" IVar="-1" Cut="0.0000000000000000e+00" cType="1" res="-2.9177980497479439e-02" rms="2.7541348338127136e-01" purity="8.3523243665695190e-02" nType="-99"/>
        <Node pos="r" depth="1" NCoef="0" IVar="3" Cut="3.4594357013702393e-01" cType="0" res="-1.8978008627891541e-01" rms="1.4096312224864960e-01" purity="2.0643923431634903e-02" nType="0">
          <Node pos="l" depth="2" NCoef="0" IVar="-1" Cut="0.0000000000000000e+00" cType="1" res="-4.0444348007440567e-02" rms="1.8233458697795868e-01" purity="3.5035226494073868e-02" nType="-99"/>
          <Node pos="r" depth="2" NCoef="0" IVar="-1" Cut="0.0000000000000000e+00" cType="1" res="-4.7616776078939438e-02" rms="1.0321575403213501e-01" purity="1.0851232334971428e-02" nType="-99"/>
        </Node>
      </Node>
    </BinaryTree>
    <BinaryTree type="DecisionTree" boostWeight="1.0000000000000000e+00" itree="14">
      <Node pos="s" depth="0" NCoef="0" IVar="0" Cut="8.0024986267089844e+00" cType="1" res="-1.5721677243709564e-01" rms="2.3078535497188568e-01" purity="5.7887498289346695e-02" nType="0">
        <Node pos="l" depth="1" NCoef="0" IVar="-1" Cut="0.0000000000000000e+00" cType="1" res="-2.7921283617615700e-02" rms="2.8532019257545471e-01" purity="9.0792238712310791e-02" nType="-99"/>
        <Node pos="r" depth="1" NCoef="0" IVar="4" Cut="5.1241391897201538e-01" cType="1" res="-1.7054767906665802e-01" rms="1.8868610262870789e-01" purity="3.7790056318044662e-02" nType="0">
          <Node pos="l" depth="2" NCoef="0" IVar="-1" Cut="0.0000000000000000e+00" cType="1" res="-3.0416421592235565e-02" rms="2.5661867856979370e-01" purity="7.2837717831134796e-02" nType="-99"/>
          <Node pos="r" depth="2" NCoef="0" IVar="-1" Cut="0.0000000000000000e+00" cType="1" res="-3.7682116031646729e-02" rms="1.7983689904212952e-01" purity="3.4148398786783218e-02" nType="-99"/>
        </Node>
      </Node>
    </BinaryTree>
    <BinaryTree type="DecisionTree" boostWeight="1.0000000000000000e+00" itree="15">
      <Node pos="s" depth="0" NCoef="0" IVar="0" Cut="1.0003498077392578e+01" cType="1" res="-1.4617557823657990e-01" rms="2.3073418438434601e-01" purity="5.7887498289346695e-02" nType="0">
        <Node pos="l" depth="1" NCoef="0" IVar="-1" Cut="0.0000000000000000e+00" cType="1" res="-2.8589308261871338e-02" rms="2.6819214224815369e-01" purity="7.9458303749561310e-02" nType="-99"/>
        <Node pos="r" depth="1" NCoef="0" IVar="4" Cut="5.1241391897201538e-01" cType="1" res="-1.6641311347484589e-01" rms="1.5557353198528290e-01" purity="2.5159025564789772e-02" nType="0">
          <Node pos="l" depth="2" NCoef="0" IVar="-1" Cut="0.0000000000000000e+00" cType="1" res="-3.3489104360342026e-02" rms="2.2175775468349457e-01" purity="5.2879717200994492e-02" nType="-99"/>
          <Node pos="r" depth="2" NCoef="0" IVar="-1" Cut="0.0000000000000000e+00" cType="1" res="-3.9132118225097656e-02" rms="1.4344437420368195e-01" purity="2.1202707663178444e-02" nType="-99"/>
        </Node>
      </Node>
    </BinaryTree>
    <BinaryTree type="DecisionTree" boostWeight="1.0000000000000000e+00" itree="16">
      <Node pos="s" depth="0" NCoef="0" IVar="3" Cut="5.1124399900436401e-01" cType="0" res="-1.3590995967388153e-01" rms="2.3069642484188080e-01" purity="5.7887498289346695e-02" nType="0">
        <Node pos="l" depth="1" NCoef="0" IVar="-1" Cut="0.0000000000000000e+00" cType="1" res="-2.5576949119567871e-02" rms="2.7527678012847900e-01" purity="8.3567805588245392e-02" nType="-99"/>
        <Node pos="r" depth="1" NCoef="0" IVar="3" Cut="3.6739966273307800e-01" cType="0" res="-1.5542525053024292e-01" rms="1.4137011766433716e-01" purity="2.0783083513379097e-02" nType="0">
          <Node pos="l" depth="2" NCoef="0" IVar="-1" Cut="0.0000000000000000e+00" cType="1" res="-3.6741834133863449e-02" rms="1.8788440525531769e-01" purity="3.7307761609554291e-02" nType="-99"/>
          <Node pos="r" depth="2" NCoef="0" IVar="-1" Cut="0.0000000000000000e+00" cType="1" res="-4.4783663004636765e-02" rms="1.0778852552175522e-01" purity="1.1859620921313763e-02" nType="-99"/>
        </Node>
      </Node>
    </BinaryTree>
    <BinaryTree type="DecisionTree" boostWeight="1.0000000000000000e+00" itree="17">
      <Node pos="s" depth="0" NCoef="0" IVar="0" Cut="8.0024986267089844e+00" cType="1" res="-1.2621144950389862e-01" rms="2.3059786856174469e-01" purity="5.7887498289346695e-02" nType="0">
        <Node pos="l" depth="1" NCoef="0" IVar="-1" Cut="0.0000000000000000e+00" cType="1" res="-2.4187788367271423e-02" rms="2.8520852327346802e-01" purity="9.0792238712310791e-02" nType="-99"/>
        <Node pos="r" depth="1" NCoef="0" IVar="4" Cut="5.1241391897201538e-01" cType="1" res="-1.3856679201126099e-01" rms="1.8859510123729706e-01" purity="3.7790056318044662e-02" nType="0">
          <Node pos="l" depth="2" NCoef="0" IVar="-1" Cut="0.0000000000000000e+00" cType="1" res="-2.6764165610074997e-02" rms="2.5652828812599182e-01" purity="7.2837717831134796e-02" nType="-99"/>
          <Node pos="r" depth="2" NCoef="0" IVar="-1" Cut="0.0000000000000000e+00" cType="1" res="-3.4881256520748138e-02" rms="1.7978815734386444e-01" purity="3.4148398786783218e-02" nType="-99"/>
        </Node>
      </Node>
    </BinaryTree>
    <BinaryTree type="DecisionTree" boostWeight="1.0000000000000000e+00" itree="18">
      <Node pos="s" depth="0" NCoef="0" IVar="0" Cut="1.0003498077392578e+01" cType="1" res="-1.1735951155424118e-01" rms="2.3055981099605560e-01" purity="5.7887498289346695e-02" nType="0">
        <Node pos="l" depth="1" NCoef="0" IVar="-1" Cut="0.0000000000000000e+00" cType="1" res="-2.5089966133236885e-02" rms="2.6806509494781494e-01" purity="7.9458303749561310e-02" nType="-99"/>
        <Node pos="r" depth="1" NCoef="0" IVar="4" Cut="5.1241391897201538e-01" cType="1" res="-1.3630007207393646e-01" rms="1.5552586317062378e-01" purity="2.5159025564789772e-02" nType="0">
          <Node pos="l" depth="2" NCoef="0" IVar="-1" Cut="0.0000000000000000e+00" cType="1" res="-3.0466770753264427e-02" rms="2.2172124683856964e-01" purity="5.2879717200994492e-02" nType="-99"/>
          <Node pos="r" depth="2" NCoef="0" IVar="-1" Cut="0.0000000000000000e+00" cType="1" res="-3.6780953407287598e-02" rms="1.4344307780265808e-01" purity="2.1202707663178444e-02" nType="-99"/>
        </Node>
      </Node>
    </BinaryTree>
    <BinaryTree type="DecisionTree" boostWeight="1.0000000000000000e+00" itree="19">
      <Node pos="s" depth="0" NCoef="0" IVar="3" Cut="4.7975978255271912e-01" cType="0" res="-1.0912664234638214e-01" rms="2.3053184151649475e-01" purity="5.7887498289346695e-02" nType="0">
        <Node pos="l" depth="1" NCoef="0" IVar="-1" Cut="0.0000000000000000e+00" cType="1" res="-2.2607443854212761e-02" rms="2.7295565605163574e-01" purity="8.2184627652168274e-02" nType="-99"/>
        <Node pos="r" depth="1" NCoef="0" IVar="2" Cut="1.7450310289859772e-01" cType="0" res="-1.2926502525806427e-01" rms="1.3281036913394928e-01" purity="1.8242631107568741e-02" nType="0">
          <Node pos="l" depth="2" NCoef="0" IVar="-1" Cut="0.0000000000000000e+00" cType="1" res="-3.3053111284971237e-02" rms="1.7560741305351257e-01" purity="3.2537791877985001e-02" nType="-99"/>
          <Node pos="r" depth="2" NCoef="0" IVar="-1" Cut="0.0000000000000000e+00" cType="1" res="-4.1504342108964920e-02" rms="1.2437821924686432e-01" purity="1.5955965965986252e-02" nType="-99"/>
        </Node>
      </Node>
    </BinaryTree>
    <BinaryTree type="DecisionTree" boostWeight="1.0000000000000000e+00" itree="20">
      <Node pos="s" depth="0" NCoef="0" IVar="0" Cut="1.0003498077392578e+01" cType="1" res="-1.0132971405982971e-01" rms="2.3045237362384796e-01" purity="5.7887498289346695e-02" nType="0">
        <Node pos="l" depth="1" NCoef="0" IVar="-1" Cut="0.0000000000000000e+00" cType="1" res="-2.2882305085659027e-02" rms="2.6796847581863403e-01" purity="7.9458303749561310e-02" nType="-99"/>
        <Node pos="r" depth="1" NCoef="0" IVar="4" Cut="5.1241391897201538e-01" cType="1" res="-1.1961264163255692e-01" rms="1.5550823509693146e-01" purity="2.5159025564789772e-02" nType="0">
          <Node pos="l" depth="2" NCoef="0" IVar="-1" Cut="0.0000000000000000e+00" cType="1" res="-2.8498485684394836e-02" rms="2.2164586186408997e-01" purity="5.2879717200994492e-02" nType="-99"/>
          <Node pos="r" depth="2" NCoef="0" IVar="-1" Cut="0.0000000000000000e+00" cType="1" res="-3.5389505326747894e-02" rms="1.4344912767410278e-01" purity="2.1202707663178444e-02" nType="-99"/>
        </Node>
      </Node>
    </BinaryTree>
    <BinaryTree type="DecisionTree" boostWeight="1.0000000000000000e+00" itree="21">
      <Node pos="s" depth="0" NCoef="0" IVar="3" Cut="4.1978979110717773e-01" cType="0" res="-9.4227053225040436e-02" rms="2.3042719066143036e-01" purity="5.7887498289346695e-02" nType="0">
        <Node pos="l" depth="1" NCoef="0" IVar="-1" Cut="0.0000000000000000e+00" cType="1" res="-2.1349731832742691e-02" rms="2.6687872409820557e-01" purity="7.8429818153381348e-02" nType="-99"/>
        <Node pos="r" depth="1" NCoef="0" IVar="3" Cut="3.0020907521247864e-01" cType="0" res="-1.1588587611913681e-01" rms="1.1827541142702103e-01" purity="1.4352838508784771e-02" nType="0">
          <Node pos="l" depth="2" NCoef="0" IVar="-1" Cut="0.0000000000000000e+00" cType="1" res="-3.7186805158853531e-02" rms="1.4618328213691711e-01" purity="2.2172939032316208e-02" nType="-99"/>
          <Node pos="r" depth="2" NCoef="0" IVar="-1" Cut="0.0000000000000000e+00" cType="1" res="-4.2681515216827393e-02" rms="9.4675265252590179e-02" purity="9.0762740001082420e-03" nType="-99"/>
        </Node>
      </Node>
    </BinaryTree>
    <BinaryTree type="DecisionTree" boostWeight="1.0000000000000000e+00" itree="22">
      <Node pos="s" depth="0" NCoef="0" IVar="0" Cut="8.0024986267089844e+00" cType="1" res="-8.7498009204864502e-02" rms="2.3036544024944305e-01" purity="5.7887498289346695e-02" nType="0">
        <Node pos="l" depth="1" NCoef="0" IVar="-1" Cut="0.0000000000000000e+00" cType="1" res="-1.8462978303432465e-02" rms="2.8501141071319580e-01" purity="9.0792238712310791e-02" nType="-99"/>
        <Node pos="r" depth="1" NCoef="0" IVar="4" Cut="5.1241391897201538e-01" cType="1" res="-9.8984017968177795e-02" rms="1.8846444785594940e-01" purity="3.7790056318044662e-02" nType="0">
          <Node pos="l" depth="2" NCoef="0" IVar="-1" Cut="0.0000000000000000e+00" cType="1" res="-2.1096277981996536e-02" rms="2.5636440515518188e-01" purity="7.2837717831134796e-02" nType="-99"/>
          <Node pos="r" depth="2" NCoef="0" IVar="-1" Cut="0.0000000000000000e+00" cType="1" res="-3.0888637527823448e-02" rms="1.7969867587089539e-01" purity="3.4148398786783218e-02" nType="-99"/>
        </Node>
      </Node>
    </BinaryTree>
    <BinaryTree type="DecisionTree" boostWeight="1.0000000000000000e+00" itree="23">
      <Node pos="s" depth="0" NCoef="0" IVar="3" Cut="5.2623653411865234e-01" cType="0" res="-8.1371448934078217e-02" rms="2.3033456504344940e-01" purity="5.7887498289346695e-02" nType="0">
        <Node pos="l" depth="1" NCoef="0" IVar="-1" Cut="0.0000000000000000e+00" cType="1" res="-1.8188932910561562e-02" rms="2.7566155791282654e-01" purity="8.4005676209926605e-02" nType="-99"/>
        <Node pos="r" depth="1" NCoef="0" IVar="2" Cut="1.2691177427768707e-01" cType="0" res="-9.8185643553733826e-02" rms="1.4571145176887512e-01" purity="2.2206712514162064e-02" nType="0">
          <Node pos="l" depth="2" NCoef="0" IVar="-1" Cut="0.0000000000000000e+00" cType="1" res="-3.1948097050189972e-02" rms="1.6974301636219025e-01" purity="3.0546352267265320e-02" nType="-99"/>
          <Node pos="r" depth="2" NCoef="0" IVar="-1" Cut="0.0000000000000000e+00" cType="1" res="-3.9143260568380356e-02" rms="1.2605047225952148e-01" purity="1.6449296846985817e-02" nType="-99"/>
        </Node>
      </Node>
    </BinaryTree>
    <BinaryTree type="DecisionTree" boostWeight="1.0000000000000000e+00" itree="24">
      <Node pos="s" depth="0" NCoef="0" IVar="0" Cut="1.0003498077392578e+01" cType="1" res="-7.5540080666542053e-02" rms="2.3027631640434265e-01" purity="5.7887498289346695e-02" nType="0">
        <Node pos="l" depth="1" NCoef="0" IVar="-1" Cut="0.0000000000000000e+00" cType="1" res="-1.8667045980691910e-02" rms="2.6776698231697083e-01" purity="7.9458303749561310e-02" nType="-99"/>
        <Node pos="r" depth="1" NCoef="0" IVar="4" Cut="5.1241391897201538e-01" cType="1" res="-9.3359820544719696e-02" rms="1.5546752512454987e-01" purity="2.5159025564789772e-02" nType="0">
          <Node pos="l" depth="2" NCoef="0" IVar="-1" Cut="0.0000000000000000e+00" cType="1" res="-2.4979643523693085e-02" rms="2.2153764963150024e-01" purity="5.2879717200994492e-02" nType="-99"/>
          <Node pos="r" depth="2" NCoef="0" IVar="-1" Cut="0.0000000000000000e+00" cType="1" res="-3.2923948019742966e-02" rms="1.4345027506351471e-01" purity="2.1202707663178444e-02" nType="-99"/>
        </Node>
      </Node>
    </BinaryTree>
    <BinaryTree type="DecisionTree" boostWeight="1.0000000000000000e+00" itree="25">
      <Node pos="s" depth="0" NCoef="0" IVar="3" Cut="1.1844069957733154e+00" cType="1" res="-7.0252306759357452e-02" rms="2.3025019466876984e-01" purity="5.7887498289346695e-02" nType="0">
        <Node pos="l" depth="1" NCoef="0" IVar="-1" Cut="0.0000000000000000e+00" cType="1" res="-2.1518561989068985e-02" rms="2.3529297113418579e-01" purity="6.1220038682222366e-02" nType="-99"/>
        <Node pos="r" depth="1" NCoef="0" IVar="6" Cut="6.7963353358209133e-03" cType="1" res="-9.5569528639316559e-02" rms="2.1046794950962067e-01" purity="4.6692125499248505e-02" nType="0">
          <Node pos="l" depth="2" NCoef="0" IVar="-1" Cut="0.0000000000000000e+00" cType="1" res="-6.2976758927106857e-03" rms="3.2156890630722046e-01" purity="1.1843409389257431e-01" nType="-99"/>
          <Node pos="r" depth="2" NCoef="0" IVar="-1" Cut="0.0000000000000000e+00" cType="1" res="-2.7024706825613976e-02" rms="1.9641095399856567e-01" purity="4.0329672396183014e-02" nType="-99"/>
        </Node>
      </Node>
    </BinaryTree>
    <BinaryTree type="DecisionTree" boostWeight="1.0000000000000000e+00" itree="26">
      <Node pos="s" depth="0" NCoef="0" IVar="3" Cut="4.9925002455711365e-01" cType="0" res="-6.5337762236595154e-02" rms="2.3026940226554871e-01" purity="5.7887498289346695e-02" nType="0">
        <Node pos="l" depth="1" NCoef="0" IVar="-1" Cut="0.0000000000000000e+00" cType="1" res="-1.5564619563519955e-02" rms="2.7424469590187073e-01" purity="8.3151794970035553e-02" nType="-99"/>
        <Node pos="r" depth="1" NCoef="0" IVar="3" Cut="3.2385134696960449e-01" cType="0" res="-8.3054721355438232e-02" rms="1.3773171603679657e-01" purity="1.9702749326825142e-02" nType="0">
          <Node pos="l" depth="2" NCoef="0" IVar="-1" Cut="0.0000000000000000e+00" cType="1" res="-3.0099339783191681e-02" rms="1.7299015820026398e-01" purity="3.1464185565710068e-02" nType="-99"/>
          <Node pos="r" depth="2" NCoef="0" IVar="-1" Cut="0.0000000000000000e+00" cType="1" res="-3.9891518652439117e-02" rms="9.9231936037540436e-02" purity="1.0006606578826904e-02" nType="-99"/>
        </Node>
      </Node>
    </BinaryTree>
    <BinaryTree type="DecisionTree" boostWeight="1.0000000000000000e+00" itree="27">
      <Node pos="s" depth="0" NCoef="0" IVar="0" Cut="8.0024986267089844e+00" cType="1" res="-6.0639981180429459e-02" rms="2.3021088540554047e-01" purity="5.7887498289346695e-02" nType="0">
        <Node pos="l" depth="1" NCoef="0" IVar="-1" Cut="0.0000000000000000e+00" cType="1" res="-1.3144233264029026e-02" rms="2.8480243682861328e-01" purity="9.0792238712310791e-02" nType="-99"/>
        <Node pos="r" depth="1" NCoef="0" IVar="4" Cut="5.1241391897201538e-01" cType="1" res="-7.1970812976360321e-02" rms="1.8837794661521912e-01" purity="3.7790056318044662e-02" nType="0">
          <Node pos="l" depth="2" NCoef="0" IVar="-1" Cut="0.0000000000000000e+00" cType="1" res="-1.5872133895754814e-02" rms="2.5623962283134460e-01" purity="7.2837717831134796e-02" nType="-99"/>
          <Node pos="r" depth="2" NCoef="0" IVar="-1" Cut="0.0000000000000000e+00" cType="1" res="-2.7403675019741058e-02" rms="1.7963723838329315e-01" purity="3.4148398786783218e-02" nType="-99"/>
        </Node>
      </Node>
    </BinaryTree>
    <BinaryTree type="DecisionTree" boostWeight="1.0000000000000000e+00" itree="28">
      <Node pos="s" depth="0" NCoef="0" IVar="0" Cut="1.0003498077392578e+01" cType="1" res="-5.6399919092655182e-02" rms="2.3017735779285431e-01" purity="5.7887498289346695e-02" nType="0">
        <Node pos="l" depth="1" NCoef="0" IVar="-1" Cut="0.0000000000000000e+00" cType="1" res="-1.4828886836767197e-02" rms="2.6768586039543152e-01" purity="7.9458303749561310e-02" nType="-99"/>
        <Node pos="r" depth="1" NCoef="0" IVar="4" Cut="5.1241391897201538e-01" cType="1" res="-7.3636271059513092e-02" rms="1.5541973710060120e-01" purity="2.5159025564789772e-02" nType="0">
          <Node pos="l" depth="2" NCoef="0" IVar="-1" Cut="0.0000000000000000e+00" cType="1" res="-2.1775463595986366e-02" rms="2.2157780826091766e-01" purity="5.2879717200994492e-02" nType="-99"/>
          <Node pos="r" depth="2" NCoef="0" IVar="-1" Cut="0.0000000000000000e+00" cType="1" res="-3.0688526108860970e-02" rms="1.4340634644031525e-01" purity="2.1202707663178444e-02" nType="-99"/>
        </Node>
      </Node>
    </BinaryTree>
    <BinaryTree type="DecisionTree" boostWeight="1.0000000000000000e+00" itree="29">
      <Node pos="s" depth="0" NCoef="0" IVar="3" Cut="4.6026954054832458e-01" cType="0" res="-5.2453320473432541e-02" rms="2.3015198111534119e-01" purity="5.7887498289346695e-02" nType="0">
        <Node pos="l" depth="1" NCoef="0" IVar="-1" Cut="0.0000000000000000e+00" cType="1" res="-1.3342824764549732e-02" rms="2.7086016535758972e-01" purity="8.1081949174404144e-02" nType="-99"/>
        <Node pos="r" depth="1" NCoef="0" IVar="3" Cut="3.0109554529190063e-01" cType="0" res="-7.1413762867450714e-02" rms="1.2780095636844635e-01" purity="1.6862396150827408e-02" nType="0">
          <Node pos="l" depth="2" NCoef="0" IVar="-1" Cut="0.0000000000000000e+00" cType="1" res="-3.0418450012803078e-02" rms="1.5698175132274628e-01" purity="2.5714343413710594e-02" nType="-99"/>
          <Node pos="r" depth="2" NCoef="0" IVar="-1" Cut="0.0000000000000000e+00" cType="1" res="-3.9125930517911911e-02" rms="9.4769217073917389e-02" purity="9.1004576534032822e-03" nType="-99"/>
        </Node>
      </Node>
    </BinaryTree>
    <BinaryTree type="DecisionTree" boostWeight="1.0000000000000000e+00" itree="30">
      <Node pos="s" depth="0" NCoef="0" IVar="3" Cut="1.1844069957733154e+00" cType="1" res="-4.8670724034309387e-02" rms="2.3009786009788513e-01" purity="5.7887498289346695e-02" nType="0">
        <Node pos="l" depth="1" NCoef="0" IVar="-1" Cut="0.0000000000000000e+00" cType="1" res="-1.6675034537911415e-02" rms="2.3514032363891602e-01" purity="6.1220038682222366e-02" nType="-99"/>
        <Node pos="r" depth="1" NCoef="0" IVar="6" Cut="7.4959509074687958e-03" cType="1" res="-7.3925696313381195e-02" rms="2.1032439172267914e-01" purity="4.6692125499248505e-02" nType="0">
          <Node pos="l" depth="2" NCoef="0" IVar="-1" Cut="0.0000000000000000e+00" cType="1" res="-3.0477410182356834e-03" rms="3.1727227568626404e-01" purity="1.1492531001567841e-01" nType="-99"/>
          <Node pos="r" depth="2" NCoef="0" IVar="-1" Cut="0.0000000000000000e+00" cType="1" res="-2.4555573239922523e-02" rms="1.9566406309604645e-01" purity="4.0010772645473480e-02" nType="-99"/>
        </Node>
      </Node>
    </BinaryTree>
    <BinaryTree type="DecisionTree" boostWeight="1.0000000000000000e+00" itree="31">
      <Node pos="s" depth="0" NCoef="0" IVar="0" Cut="1.0003498077392578e+01" cType="1" res="-4.5278605073690414e-02" rms="2.3010136187076569e-01" purity="5.7887498289346695e-02" nType="0">
        <Node pos="l" depth="1" NCoef="0" IVar="-1" Cut="0.0000000000000000e+00" cType="1" res="-1.2136040255427361e-02" rms="2.6759758591651917e-01" purity="7.9458303749561310e-02" nType="-99"/>
        <Node pos="r" depth="1" NCoef="0" IVar="4" Cut="5.1241391897201538e-01" cType="1" res="-6.2313333153724670e-02" rms="1.5540398657321930e-01" purity="2.5159025564789772e-02" nType="0">
          <Node pos="l" depth="2" NCoef="0" IVar="-1" Cut="0.0000000000000000e+00" cType="1" res="-1.9367486238479614e-02" rms="2.2160033881664276e-01" purity="5.2879717200994492e-02" nType="-99"/>
          <Node pos="r" depth="2" NCoef="0" IVar="-1" Cut="0.0000000000000000e+00" cType="1" res="-2.9157929122447968e-02" rms="1.4338119328022003e-01" purity="2.1202707663178444e-02" nType="-99"/>
        </Node>
      </Node>
    </BinaryTree>
    <BinaryTree type="DecisionTree" boostWeight="1.0000000000000000e+00" itree="32">
      <Node pos="s" depth="0" NCoef="0" IVar="3" Cut="4.9925002455711365e-01" cType="0" res="-4.2111720889806747e-02" rms="2.3007340729236603e-01" purity="5.7887498289346695e-02" nType="0">
        <Node pos="l" depth="1" NCoef="0" IVar="-1" Cut="0.0000000000000000e+00" cType="1" res="-1.0397378355264664e-02" rms="2.7399471402168274e-01" purity="8.3151794970035553e-02" nType="-99"/>
        <Node pos="r" depth="1" NCoef="0" IVar="2" Cut="1.5863932669162750e-01" cType="0" res="-5.9617791324853897e-02" rms="1.3770586252212524e-01" purity="1.9702749326825142e-02" nType="0">
          <Node pos="l" depth="2" NCoef="0" IVar="-1" Cut="0.0000000000000000e+00" cType="1" res="-2.3788657039403915e-02" rms="1.7299629747867584e-01" purity="3.1638652086257935e-02" nType="-99"/>
          <Node pos="r" depth="2" NCoef="0" IVar="-1" Cut="0.0000000000000000e+00" cType="1" res="-3.4119863063097000e-02" rms="1.2675000727176666e-01" purity="1.6612710431218147e-02" nType="-99"/>
        </Node>
      </Node>
    </BinaryTree>
    <BinaryTree type="DecisionTree" boostWeight="1.0000000000000000e+00" itree="33">
      <Node pos="s" depth="0" NCoef="0" IVar="0" Cut="8.0024986267089844e+00" cType="1" res="-3.9056301116943359e-02" rms="2.3002023994922638e-01" purity="5.7887498289346695e-02" nType="0">
        <Node pos="l" depth="1" NCoef="0" IVar="-1" Cut="0.0000000000000000e+00" cType="1" res="-7.7792718075215816e-03" rms="2.8462651371955872e-01" purity="9.0792238712310791e-02" nType="-99"/>
        <Node pos="r" depth="1" NCoef="0" IVar="4" Cut="5.1241391897201538e-01" cType="1" res="-4.9722656607627869e-02" rms="1.8826749920845032e-01" purity="3.7790056318044662e-02" nType="0">
          <Node pos="l" depth="2" NCoef="0" IVar="-1" Cut="0.0000000000000000e+00" cType="1" res="-1.0151947848498821e-02" rms="2.5612348318099976e-01" purity="7.2837717831134796e-02" nType="-99"/>
          <Node pos="r" depth="2" NCoef="0" IVar="-1" Cut="0.0000000000000000e+00" cType="1" res="-2.3537006229162216e-02" rms="1.7954987287521362e-01" purity="3.4148398786783218e-02" nType="-99"/>
        </Node>
      </Node>
    </BinaryTree>
    <BinaryTree type="DecisionTree" boostWeight="1.0000000000000000e+00" itree="34">
      <Node pos="s" depth="0" NCoef="0" IVar="3" Cut="4.4677630066871643e-01" cType="0" res="-3.6329202353954315e-02" rms="2.2998645901679993e-01" purity="5.7887498289346695e-02" nType="0">
        <Node pos="l" depth="1" NCoef="0" IVar="-1" Cut="0.0000000000000000e+00" cType="1" res="-9.5635186880826950e-03" rms="2.6935863494873047e-01" purity="8.0240376293659210e-02" nType="-99"/>
        <Node pos="r" depth="1" NCoef="0" IVar="3" Cut="3.0119946599006653e-01" cType="0" res="-5.4956283420324326e-02" rms="1.2457194924354553e-01" purity="1.5998117625713348e-02" nType="0">
          <Node pos="l" depth="2" NCoef="0" IVar="-1" Cut="0.0000000000000000e+00" cType="1" res="-2.7789924293756485e-02" rms="1.5349590778350830e-01" purity="2.4543415755033493e-02" nType="-99"/>
          <Node pos="r" depth="2" NCoef="0" IVar="-1" Cut="0.0000000000000000e+00" cType="1" res="-3.7278741598129272e-02" rms="9.4734936952590942e-02" purity="9.1019999235868454e-03" nType="-99"/>
        </Node>
      </Node>
    </BinaryTree>
    <BinaryTree type="DecisionTree" boostWeight="1.0000000000000000e+00" itree="35">
      <Node pos="s" depth="0" NCoef="0" IVar="3" Cut="1.1844069957733154e+00" cType="1" res="-3.3691011369228363e-02" rms="2.2993840277194977e-01" purity="5.7887498289346695e-02" nType="0">
        <Node pos="l" depth="1" NCoef="0" IVar="-1" Cut="0.0000000000000000e+00" cType="1" res="-1.2237751856446266e-02" rms="2.3497974872589111e-01" purity="6.1220038682222366e-02" nType="-99"/>
        <Node pos="r" depth="1" NCoef="0" IVar="6" Cut="4.8973793163895607e-03" cType="1" res="-5.8709226548671722e-02" rms="2.1020376682281494e-01" purity="4.6692125499248505e-02" nType="0">
          <Node pos="l" depth="2" NCoef="0" IVar="-1" Cut="0.0000000000000000e+00" cType="1" res="4.7448212280869484e-03" rms="3.3477911353111267e-01" purity="1.3032440841197968e-01" nType="-99"/>
          <Node pos="r" depth="2" NCoef="0" IVar="-1" Cut="0.0000000000000000e+00" cType="1" res="-2.1887827664613724e-02" rms="1.9870378077030182e-01" purity="4.1361842304468155e-02" nType="-99"/>
        </Node>
      </Node>
    </BinaryTree>
    <BinaryTree type="DecisionTree" boostWeight="1.0000000000000000e+00" itree="36">
      <Node pos="s" depth="0" NCoef="0" IVar="0" Cut="1.0003498077392578e+01" cType="1" res="-3.1356945633888245e-02" rms="2.2992618381977081e-01" purity="5.7887498289346695e-02" nType="0">
        <Node pos="l" depth="1" NCoef="0" IVar="-1" Cut="0.0000000000000000e+00" cType="1" res="-8.1022297963500023e-03" rms="2.6738086342811584e-01" purity="7.9458303749561310e-02" nType="-99"/>
        <Node pos="r" depth="1" NCoef="0" IVar="4" Cut="5.1241391897201538e-01" cType="1" res="-4.8119213432073593e-02" rms="1.5536643564701080e-01" purity="2.5159025564789772e-02" nType="0">
          <Node pos="l" depth="2" NCoef="0" IVar="-1" Cut="0.0000000000000000e+00" cType="1" res="-1.5994623303413391e-02" rms="2.2155471146106720e-01" purity="5.2879717200994492e-02" nType="-99"/>
          <Node pos="r" depth="2" NCoef="0" IVar="-1" Cut="0.0000000000000000e+00" cType="1" res="-2.6751926168799400e-02" rms="1.4336089789867401e-01" purity="2.1202707663178444e-02" nType="-99"/>
        </Node>
      </Node>
    </BinaryTree>
    <BinaryTree type="DecisionTree" boostWeight="1.0000000000000000e+00" itree="37">
      <Node pos="s" depth="0" NCoef="0" IVar="3" Cut="5.2773576974868774e-01" cType="0" res="-2.9167244210839272e-02" rms="2.2989235818386078e-01" purity="5.7887498289346695e-02" nType="0">
        <Node pos="l" depth="1" NCoef="0" IVar="-1" Cut="0.0000000000000000e+00" cType="1" res="-6.5613202750682831e-03" rms="2.7516427636146545e-01" purity="8.4039747714996338e-02" nType="-99"/>
        <Node pos="r" depth="1" NCoef="0" IVar="2" Cut="1.2691177427768707e-01" cType="0" res="-4.5039732009172440e-02" rms="1.4609830081462860e-01" purity="2.2352233529090881e-02" nType="0">
          <Node pos="l" depth="2" NCoef="0" IVar="-1" Cut="0.0000000000000000e+00" cType="1" res="-2.1942514926195145e-02" rms="1.7028354108333588e-01" purity="3.0770735815167427e-02" nType="-99"/>
          <Node pos="r" depth="2" NCoef="0" IVar="-1" Cut="0.0000000000000000e+00" cType="1" res="-3.2224874943494797e-02" rms="1.2636978924274445e-01" purity="1.6540233045816422e-02" nType="-99"/>
        </Node>
      </Node>
    </BinaryTree>
    <BinaryTree type="DecisionTree" boostWeight="1.0000000000000000e+00" itree="38">
      <Node pos="s" depth="0" NCoef="0" IVar="3" Cut="1.1919032335281372e+00" cType="1" res="-2.7031050994992256e-02" rms="2.2984342277050018e-01" purity="5.7887498289346695e-02" nType="0">
        <Node pos="l" depth="1" NCoef="0" IVar="-1" Cut="0.0000000000000000e+00" cType="1" res="-9.9081043154001236e-03" rms="2.3492786288261414e-01" purity="6.1224408447742462e-02" nType="-99"/>
        <Node pos="r" depth="1" NCoef="0" IVar="6" Cut="6.7963353358209133e-03" cType="1" res="-5.1463745534420013e-02" rms="2.0981213450431824e-01" purity="4.6542324125766754e-02" nType="0">
          <Node pos="l" depth="2" NCoef="0" IVar="-1" Cut="0.0000000000000000e+00" cType="1" res="2.1528599318116903e-03" rms="3.1947401165962219e-01" purity="1.1699777841567993e-01" nType="-99"/>
          <Node pos="r" depth="2" NCoef="0" IVar="-1" Cut="0.0000000000000000e+00" cType="1" res="-2.0965334028005600e-02" rms="1.9633227586746216e-01" purity="4.0295399725437164e-02" nType="-99"/>
        </Node>
      </Node>
    </BinaryTree>
    <BinaryTree type="DecisionTree" boostWeight="1.0000000000000000e+00" itree="39">
      <Node pos="s" depth="0" NCoef="0" IVar="0" Cut="8.0024986267089844e+00" cType="1" res="-2.5165574625134468e-02" rms="2.2982594370841980e-01" purity="5.7887498289346695e-02" nType="0">
        <Node pos="l" depth="1" NCoef="0" IVar="-1" Cut="0.0000000000000000e+00" cType="1" res="-3.2354113645851612e-03" rms="2.8435117006301880e-01" purity="9.0792238712310791e-02" nType="-99"/>
        <Node pos="r" depth="1" NCoef="0" IVar="3" Cut="5.6971371173858643e-01" cType="0" res="-3.5635575652122498e-02" rms="1.8816845118999481e-01" purity="3.7790056318044662e-02" nType="0">
          <Node pos="l" depth="2" NCoef="0" IVar="-1" Cut="0.0000000000000000e+00" cType="1" res="-1.1935645714402199e-02" rms="2.3423288762569427e-01" purity="5.9074271470308304e-02" nType="-99"/>
          <Node pos="r" depth="2" NCoef="0" IVar="-1" Cut="0.0000000000000000e+00" cType="1" res="-3.1729623675346375e-02" rms="1.1189303547143936e-01" purity="1.2916041538119316e-02" nType="-99"/>
        </Node>
      </Node>
    </BinaryTree>
    <BinaryTree type="DecisionTree" boostWeight="1.0000000000000000e+00" itree="40">
      <Node pos="s" depth="0" NCoef="0" IVar="3" Cut="4.1978979110717773e-01" cType="0" res="-2.3367701098322868e-02" rms="2.2977125644683838e-01" purity="5.7887498289346695e-02" nType="0">
        <Node pos="l" depth="1" NCoef="0" IVar="-1" Cut="0.0000000000000000e+00" cType="1" res="-5.9159621596336365e-03" rms="2.6620477437973022e-01" purity="7.8429818153381348e-02" nType="-99"/>
        <Node pos="r" depth="1" NCoef="0" IVar="3" Cut="3.0020907521247864e-01" cType="0" res="-4.2427700012922287e-02" rms="1.1817213147878647e-01" purity="1.4352838508784771e-02" nType="0">
          <Node pos="l" depth="2" NCoef="0" IVar="-1" Cut="0.0000000000000000e+00" cType="1" res="-2.5830088183283806e-02" rms="1.4613372087478638e-01" purity="2.2172939032316208e-02" nType="-99"/>
          <Node pos="r" depth="2" NCoef="0" IVar="-1" Cut="0.0000000000000000e+00" cType="1" res="-3.5378955304622650e-02" rms="9.4574719667434692e-02" purity="9.0762740001082420e-03" nType="-99"/>
        </Node>
      </Node>
    </BinaryTree>
    <BinaryTree type="DecisionTree" boostWeight="1.0000000000000000e+00" itree="41">
      <Node pos="s" depth="0" NCoef="0" IVar="3" Cut="1.1844069957733154e+00" cType="1" res="-2.1652633324265480e-02" rms="2.2972555458545685e-01" purity="5.7887498289346695e-02" nType="0">
        <Node pos="l" depth="1" NCoef="0" IVar="-1" Cut="0.0000000000000000e+00" cType="1" res="-7.7070547267794609e-03" rms="2.3479430377483368e-01" purity="6.1220038682222366e-02" nType="-99"/>
        <Node pos="r" depth="1" NCoef="0" IVar="6" Cut="8.7952362373471260e-03" cType="1" res="-4.5678701251745224e-02" rms="2.1003544330596924e-01" purity="4.6692125499248505e-02" nType="0">
          <Node pos="l" depth="2" NCoef="0" IVar="-1" Cut="0.0000000000000000e+00" cType="1" res="1.2992555275559425e-03" rms="3.0937314033508301e-01" purity="1.0889693349599838e-01" nType="-99"/>
          <Node pos="r" depth="2" NCoef="0" IVar="-1" Cut="0.0000000000000000e+00" cType="1" res="-2.0190620794892311e-02" rms="1.9452092051506042e-01" purity="3.9508007466793060e-02" nType="-99"/>
        </Node>
      </Node>
    </BinaryTree>
    <BinaryTree type="DecisionTree" boostWeight="1.0000000000000000e+00" itree="42">
      <Node pos="s" depth="0" NCoef="0" IVar="0" Cut="1.0003498077392578e+01" cType="1" res="-2.0167084410786629e-02" rms="2.2969919443130493e-01" purity="5.7887498289346695e-02" nType="0">
        <Node pos="l" depth="1" NCoef="0" IVar="-1" Cut="0.0000000000000000e+00" cType="1" res="-4.1431598365306854e-03" rms="2.6709252595901489e-01" purity="7.9458303749561310e-02" nType="-99"/>
        <Node pos="r" depth="1" NCoef="0" IVar="4" Cut="5.1241391897201538e-01" cType="1" res="-3.6556262522935867e-02" rms="1.5533980727195740e-01" purity="2.5159025564789772e-02" nType="0">
          <Node pos="l" depth="2" NCoef="0" IVar="-1" Cut="0.0000000000000000e+00" cType="1" res="-1.1896940879523754e-02" rms="2.2148396074771881e-01" purity="5.2879717200994492e-02" nType="-99"/>
          <Node pos="r" depth="2" NCoef="0" IVar="-1" Cut="0.0000000000000000e+00" cType="1" res="-2.4229632690548897e-02" rms="1.4332959055900574e-01" purity="2.1202707663178444e-02" nType="-99"/>
        </Node>
      </Node>
    </BinaryTree>
    <BinaryTree type="DecisionTree" boostWeight="1.0000000000000000e+00" itree="43">
      <Node pos="s" depth="0" NCoef="0" IVar="3" Cut="4.7975978255271912e-01" cType="0" res="-1.8763421103358269e-02" rms="2.2965770959854126e-01" purity="5.7887498289346695e-02" nType="0">
        <Node pos="l" depth="1" NCoef="0" IVar="-1" Cut="0.0000000000000000e+00" cType="1" res="-3.6031794734299183e-03" rms="2.7205866575241089e-01" purity="8.2184627652168274e-02" nType="-99"/>
        <Node pos="r" depth="1" NCoef="0" IVar="3" Cut="3.4956952929496765e-01" cType="0" res="-3.5292383283376694e-02" rms="1.3263146579265594e-01" purity="1.8242631107568741e-02" nType="0">
          <Node pos="l" depth="2" NCoef="0" IVar="-1" Cut="0.0000000000000000e+00" cType="1" res="-1.8715828657150269e-02" rms="1.7342402040958405e-01" purity="3.1627357006072998e-02" nType="-99"/>
          <Node pos="r" depth="2" NCoef="0" IVar="-1" Cut="0.0000000000000000e+00" cType="1" res="-3.2900512218475342e-02" rms="1.0382337123155594e-01" purity="1.0998412035405636e-02" nType="-99"/>
        </Node>
      </Node>
    </BinaryTree>
    <BinaryTree type="DecisionTree" boostWeight="1.0000000000000000e+00" itree="44">
      <Node pos="s" depth="0" NCoef="0" IVar="0" Cut="8.0024986267089844e+00" cType="1" res="-1.7370440065860748e-02" rms="2.2960825264453888e-01" purity="5.7887498289346695e-02" nType="0">
        <Node pos="l" depth="1" NCoef="0" IVar="-1" Cut="0.0000000000000000e+00" cType="1" res="-4.9993547145277262e-04" rms="2.8409770131111145e-01" purity="9.0792238712310791e-02" nType="-99"/>
        <Node pos="r" depth="1" NCoef="0" IVar="4" Cut="5.1241391897201538e-01" cType="1" res="-2.7269421145319939e-02" rms="1.8805567920207977e-01" purity="3.7790056318044662e-02" nType="0">
          <Node pos="l" depth="2" NCoef="0" IVar="-1" Cut="0.0000000000000000e+00" cType="1" res="-1.2415290111675858e-03" rms="2.5579854846000671e-01" purity="7.2837717831134796e-02" nType="-99"/>
          <Node pos="r" depth="2" NCoef="0" IVar="-1" Cut="0.0000000000000000e+00" cType="1" res="-1.7657795920968056e-02" rms="1.7935885488986969e-01" purity="3.4148398786783218e-02" nType="-99"/>
        </Node>
      </Node>
    </BinaryTree>
    <BinaryTree type="DecisionTree" boostWeight="1.0000000000000000e+00" itree="45">
      <Node pos="s" depth="0" NCoef="0" IVar="3" Cut="1.2473753690719604e+00" cType="1" res="-1.6165342181921005e-02" rms="2.2956582903862000e-01" purity="5.7887498289346695e-02" nType="0">
        <Node pos="l" depth="1" NCoef="0" IVar="-1" Cut="0.0000000000000000e+00" cType="1" res="-5.4390379227697849e-03" rms="2.3475490510463715e-01" purity="6.1238192021846771e-02" nType="-99"/>
        <Node pos="r" depth="1" NCoef="0" IVar="6" Cut="4.4975988566875458e-03" cType="1" res="-4.0329087525606155e-02" rms="2.0740374922752380e-01" purity="4.5450698584318161e-02" nType="0">
          <Node pos="l" depth="2" NCoef="0" IVar="-1" Cut="0.0000000000000000e+00" cType="1" res="5.6176697835326195e-03" rms="3.2610413432121277e-01" purity="1.2266939133405685e-01" nType="-99"/>
          <Node pos="r" depth="2" NCoef="0" IVar="-1" Cut="0.0000000000000000e+00" cType="1" res="-1.8211659044027328e-02" rms="1.9781775772571564e-01" purity="4.0963348001241684e-02" nType="-99"/>
        </Node>
      </Node>
    </BinaryTree>
    <BinaryTree type="DecisionTree" boostWeight="1.0000000000000000e+00" itree="46">
      <Node pos="s" depth="0" NCoef="0" IVar="3" Cut="5.0974476337432861e-01" cType="0" res="-1.5066340565681458e-02" rms="2.2953915596008301e-01" purity="5.7887498289346695e-02" nType="0">
        <Node pos="l" depth="1" NCoef="0" IVar="-1" Cut="0.0000000000000000e+00" cType="1" res="-1.9293302902951837e-03" rms="2.7398371696472168e-01" purity="8.3523243665695190e-02" nType="-99"/>
        <Node pos="r" depth="1" NCoef="0" IVar="2" Cut="2.0623065531253815e-01" cType="0" res="-3.0409414321184158e-02" rms="1.4063717424869537e-01" purity="2.0643923431634903e-02" nType="0">
          <Node pos="l" depth="2" NCoef="0" IVar="-1" Cut="0.0000000000000000e+00" cType="1" res="-2.8908397071063519e-03" rms="2.0889063179492950e-01" purity="4.7047089785337448e-02" nType="-99"/>
          <Node pos="r" depth="2" NCoef="0" IVar="-1" Cut="0.0000000000000000e+00" cType="1" res="-2.6049437001347542e-02" rms="1.3474544882774353e-01" purity="1.8903193995356560e-02" nType="-99"/>
        </Node>
      </Node>
    </BinaryTree>
    <BinaryTree type="DecisionTree" boostWeight="1.0000000000000000e+00" itree="47">
      <Node pos="s" depth="0" NCoef="0" IVar="0" Cut="1.0003498077392578e+01" cType="1" res="-1.3937710784375668e-02" rms="2.2949182987213135e-01" purity="5.7887498289346695e-02" nType="0">
        <Node pos="l" depth="1" NCoef="0" IVar="-1" Cut="0.0000000000000000e+00" cType="1" res="-1.7024639528244734e-03" rms="2.6686009764671326e-01" purity="7.9458303749561310e-02" nType="-99"/>
        <Node pos="r" depth="1" NCoef="0" IVar="4" Cut="5.1241391897201538e-01" cType="1" res="-2.9586933553218842e-02" rms="1.5530091524124146e-01" purity="2.5159025564789772e-02" nType="0">
          <Node pos="l" depth="2" NCoef="0" IVar="-1" Cut="0.0000000000000000e+00" cType="1" res="-9.7827659919857979e-03" rms="2.2141942381858826e-01" purity="5.2879717200994492e-02" nType="-99"/>
          <Node pos="r" depth="2" NCoef="0" IVar="-1" Cut="0.0000000000000000e+00" cType="1" res="-2.2193191573023796e-02" rms="1.4331971108913422e-01" purity="2.1202707663178444e-02" nType="-99"/>
        </Node>
      </Node>
    </BinaryTree>
    <BinaryTree type="DecisionTree" boostWeight="1.0000000000000000e+00" itree="48">
      <Node pos="s" depth="0" NCoef="0" IVar="3" Cut="1.1844069957733154e+00" cType="1" res="-1.2971239164471626e-02" rms="2.2944854199886322e-01" purity="5.7887498289346695e-02" nType="0">
        <Node pos="l" depth="1" NCoef="0" IVar="-1" Cut="0.0000000000000000e+00" cType="1" res="-3.7415672559291124e-03" rms="2.3454399406909943e-01" purity="6.1220038682222366e-02" nType="-99"/>
        <Node pos="r" depth="1" NCoef="0" IVar="6" Cut="4.4975988566875458e-03" cType="1" res="-3.5269655287265778e-02" rms="2.0990215241909027e-01" purity="4.6692125499248505e-02" nType="0">
          <Node pos="l" depth="2" NCoef="0" IVar="-1" Cut="0.0000000000000000e+00" cType="1" res="9.4019873067736626e-03" rms="3.3783674240112305e-01" purity="1.3347281515598297e-01" nType="-99"/>
          <Node pos="r" depth="2" NCoef="0" IVar="-1" Cut="0.0000000000000000e+00" cType="1" res="-1.7053630203008652e-02" rms="1.9927924871444702e-01" purity="4.1622389107942581e-02" nType="-99"/>
        </Node>
      </Node>
    </BinaryTree>
    <BinaryTree type="DecisionTree" boostWeight="1.0000000000000000e+00" itree="49">
      <Node pos="s" depth="0" NCoef="0" IVar="3" Cut="4.5577177405357361e-01" cType="0" res="-1.2097842991352081e-02" rms="2.2941163182258606e-01" purity="5.7887498289346695e-02" nType="0">
        <Node pos="l" depth="1" NCoef="0" IVar="-1" Cut="0.0000000000000000e+00" cType="1" res="-1.2618249747902155e-03" rms="2.6959910988807678e-01" purity="8.0803200602531433e-02" nType="-99"/>
        <Node pos="r" depth="1" NCoef="0" IVar="3" Cut="3.1090852618217468e-01" cType="0" res="-2.8874233365058899e-02" rms="1.2662729620933533e-01" purity="1.6570093110203743e-02" nType="0">
          <Node pos="l" depth="2" NCoef="0" IVar="-1" Cut="0.0000000000000000e+00" cType="1" res="-1.8977873027324677e-02" rms="1.5774010121822357e-01" purity="2.5990065187215805e-02" nType="-99"/>
          <Node pos="r" depth="2" NCoef="0" IVar="-1" Cut="0.0000000000000000e+00" cType="1" res="-3.2552413642406464e-02" rms="9.6611060202121735e-02" purity="9.4864182174205780e-03" nType="-99"/>
        </Node>
      </Node>
    </BinaryTree>
    <BinaryTree type="DecisionTree" boostWeight="1.0000000000000000e+00" itree="50">
      <Node pos="s" depth="0" NCoef="0" IVar="0" Cut="1.0003498077392578e+01" cType="1" res="-1.1183088645339012e-02" rms="2.2936242818832397e-01" purity="5.7887498289346695e-02" nType="0">
        <Node pos="l" depth="1" NCoef="0" IVar="-1" Cut="0.0000000000000000e+00" cType="1" res="-6.2588235596194863e-04" rms="2.6671963930130005e-01" purity="7.9458303749561310e-02" nType="-99"/>
        <Node pos="r" depth="1" NCoef="0" IVar="0" Cut="1.2000499725341797e+01" cType="1" res="-2.6181032881140709e-02" rms="1.5529249608516693e-01" purity="2.5159025564789772e-02" nType="0">
          <Node pos="l" depth="2" NCoef="0" IVar="-1" Cut="0.0000000000000000e+00" cType="1" res="-1.6330784186720848e-02" rms="1.6437348723411560e-01" purity="2.8291126713156700e-02" nType="-99"/>
          <Node pos="r" depth="2" NCoef="0" IVar="-1" Cut="0.0000000000000000e+00" cType="1" res="-2.2192060947418213e-02" rms="1.4350076019763947e-01" purity="2.1405827254056931e-02" nType="-99"/>
        </Node>
      </Node>
    </BinaryTree>
    <BinaryTree type="DecisionTree" boostWeight="1.0000000000000000e+00" itree="51">
      <Node pos="s" depth="0" NCoef="0" IVar="3" Cut="5.3972977399826050e-01" cType="0" res="-1.0407263413071632e-02" rms="2.2932222485542297e-01" purity="5.7887498289346695e-02" nType="0">
        <Node pos="l" depth="1" NCoef="0" IVar="-1" Cut="0.0000000000000000e+00" cType="1" res="-2.6508145310799591e-05" rms="2.7488914132118225e-01" purity="8.4278360009193420e-02" nType="-99"/>
        <Node pos="r" depth="1" NCoef="0" IVar="2" Cut="1.7450310289859772e-01" cType="0" res="-2.3866966366767883e-02" rms="1.4960920810699463e-01" purity="2.3559426888823509e-02" nType="0">
          <Node pos="l" depth="2" NCoef="0" IVar="-1" Cut="0.0000000000000000e+00" cType="1" res="-4.0024872869253159e-03" rms="1.9836866855621338e-01" purity="4.2466972023248672e-02" nType="-99"/>
          <Node pos="r" depth="2" NCoef="0" IVar="-1" Cut="0.0000000000000000e+00" cType="1" res="-2.3450920358300209e-02" rms="1.3992756605148315e-01" purity="2.0510325208306313e-02" nType="-99"/>
        </Node>
      </Node>
    </BinaryTree>
    <BinaryTree type="DecisionTree" boostWeight="1.0000000000000000e+00" itree="52">
      <Node pos="s" depth="0" NCoef="0" IVar="3" Cut="1.1844069957733154e+00" cType="1" res="-9.6119455993175507e-03" rms="2.2927744686603546e-01" purity="5.7887498289346695e-02" nType="0">
        <Node pos="l" depth="1" NCoef="0" IVar="-1" Cut="0.0000000000000000e+00" cType="1" res="-1.8408531323075294e-03" rms="2.3433548212051392e-01" purity="6.1220038682222366e-02" nType="-99"/>
        <Node pos="r" depth="1" NCoef="0" IVar="6" Cut="8.7952362373471260e-03" cType="1" res="-3.1917016953229904e-02" rms="2.0986858010292053e-01" purity="4.6692125499248505e-02" nType="0">
          <Node pos="l" depth="2" NCoef="0" IVar="-1" Cut="0.0000000000000000e+00" cType="1" res="4.1171466000378132e-03" rms="3.0889725685119629e-01" purity="1.0889693349599838e-01" nType="-99"/>
          <Node pos="r" depth="2" NCoef="0" IVar="-1" Cut="0.0000000000000000e+00" cType="1" res="-1.7014645040035248e-02" rms="1.9459332525730133e-01" purity="3.9508007466793060e-02" nType="-99"/>
        </Node>
      </Node>
    </BinaryTree>
    <BinaryTree type="DecisionTree" boostWeight="1.0000000000000000e+00" itree="53">
      <Node pos="s" depth="0" NCoef="0" IVar="0" Cut="8.0024986267089844e+00" cType="1" res="-8.9762192219495773e-03" rms="2.2923055291175842e-01" purity="5.7887498289346695e-02" nType="0">
        <Node pos="l" depth="1" NCoef="0" IVar="-1" Cut="0.0000000000000000e+00" cType="1" res="2.8322672005742788e-03" rms="2.8361770510673523e-01" purity="9.0792238712310791e-02" nType="-99"/>
        <Node pos="r" depth="1" NCoef="0" IVar="4" Cut="5.1241391897201538e-01" cType="1" res="-1.8194694072008133e-02" rms="1.8784709274768829e-01" purity="3.7790056318044662e-02" nType="0">
          <Node pos="l" depth="2" NCoef="0" IVar="-1" Cut="0.0000000000000000e+00" cType="1" res="3.7473768461495638e-03" rms="2.5543045997619629e-01" purity="7.2837717831134796e-02" nType="-99"/>
          <Node pos="r" depth="2" NCoef="0" IVar="-1" Cut="0.0000000000000000e+00" cType="1" res="-1.4162412844598293e-02" rms="1.7917700111865997e-01" purity="3.4148398786783218e-02" nType="-99"/>
        </Node>
      </Node>
    </BinaryTree>
    <BinaryTree type="DecisionTree" boostWeight="1.0000000000000000e+00" itree="54">
      <Node pos="s" depth="0" NCoef="0" IVar="3" Cut="4.1679131984710693e-01" cType="0" res="-8.3594433963298798e-03" rms="2.2918415069580078e-01" purity="5.7887498289346695e-02" nType="0">
        <Node pos="l" depth="1" NCoef="0" IVar="-1" Cut="0.0000000000000000e+00" cType="1" res="-1.8607189122121781e-04" rms="2.6522314548492432e-01" purity="7.8217722475528717e-02" nType="-99"/>
        <Node pos="r" depth="1" NCoef="0" IVar="8" Cut="2.8875534534454346e+00" cType="1" res="-2.5496117770671844e-02" rms="1.1744834482669830e-01" purity="1.4186160638928413e-02" nType="0">
          <Node pos="l" depth="2" NCoef="0" IVar="-1" Cut="0.0000000000000000e+00" cType="1" res="-4.8057537525892258e-02" rms="1.4237633347511292e-01" purity="2.1059354767203331e-02" nType="-99"/>
          <Node pos="r" depth="2" NCoef="0" IVar="-1" Cut="0.0000000000000000e+00" cType="1" res="-2.3560091853141785e-02" rms="1.0514085739850998e-01" purity="1.1309457942843437e-02" nType="-99"/>
        </Node>
      </Node>
    </BinaryTree>
    <BinaryTree type="DecisionTree" boostWeight="1.0000000000000000e+00" itree="55">
      <Node pos="s" depth="0" NCoef="0" IVar="3" Cut="1.1664159297943115e+00" cType="1" res="-7.6223388314247131e-03" rms="2.2914285957813263e-01" purity="5.7887498289346695e-02" nType="0">
        <Node pos="l" depth="1" NCoef="0" IVar="-1" Cut="0.0000000000000000e+00" cType="1" res="-7.1760156424716115e-04" rms="2.3407568037509918e-01" purity="6.1158768832683563e-02" nType="-99"/>
        <Node pos="r" depth="1" NCoef="0" IVar="6" Cut="7.4959509074687958e-03" cType="1" res="-2.8821695595979691e-02" rms="2.1085797250270844e-01" purity="4.7209918498992920e-02" nType="0">
          <Node pos="l" depth="2" NCoef="0" IVar="-1" Cut="0.0000000000000000e+00" cType="1" res="6.9912788458168507e-03" rms="3.2182314991950989e-01" purity="1.1944807320833206e-01" nType="-99"/>
          <Node pos="r" depth="2" NCoef="0" IVar="-1" Cut="0.0000000000000000e+00" cType="1" res="-1.6017042100429535e-02" rms="1.9596290588378906e-01" purity="4.0120914578437805e-02" nType="-99"/>
        </Node>
      </Node>
    </BinaryTree>
    <BinaryTree type="DecisionTree" boostWeight="1.0000000000000000e+00" itree="56">
      <Node pos="s" depth="0" NCoef="0" IVar="0" Cut="1.0003498077392578e+01" cType="1" res="-7.1265264414250851e-03" rms="2.2909142076969147e-01" purity="5.7887498289346695e-02" nType="0">
        <Node pos="l" depth="1" NCoef="0" IVar="-1" Cut="0.0000000000000000e+00" cType="1" res="1.1381239164620638e-03" rms="2.6638844609260559e-01" purity="7.9458303749561310e-02" nType="-99"/>
        <Node pos="r" depth="1" NCoef="0" IVar="0" Cut="1.2000499725341797e+01" cType="1" res="-2.1379312500357628e-02" rms="1.5526443719863892e-01" purity="2.5159025564789772e-02" nType="0">
          <Node pos="l" depth="2" NCoef="0" IVar="-1" Cut="0.0000000000000000e+00" cType="1" res="-1.4135397039353848e-02" rms="1.6433390974998474e-01" purity="2.8291126713156700e-02" nType="-99"/>
          <Node pos="r" depth="2" NCoef="0" IVar="-1" Cut="0.0000000000000000e+00" cType="1" res="-2.0421387627720833e-02" rms="1.4350400865077972e-01" purity="2.1405827254056931e-02" nType="-99"/>
        </Node>
      </Node>
    </BinaryTree>
    <BinaryTree type="DecisionTree" boostWeight="1.0000000000000000e+00" itree="57">
      <Node pos="s" depth="0" NCoef="0" IVar="3" Cut="4.9925002455711365e-01" cType="0" res="-6.6357287578284740e-03" rms="2.2904951870441437e-01" purity="5.7887498289346695e-02" nType="0">
        <Node pos="l" depth="1" NCoef="0" IVar="-1" Cut="0.0000000000000000e+00" cType="1" res="1.1642479803413153e-03" rms="2.7285778522491455e-01" purity="8.3151794970035553e-02" nType="-99"/>
        <Node pos="r" depth="1" NCoef="0" IVar="0" Cut="7.0089955329895020e+00" cType="1" res="-2.0441070199012756e-02" rms="1.3753017783164978e-01" purity="1.9702749326825142e-02" nType="0">
          <Node pos="l" depth="2" NCoef="0" IVar="-1" Cut="0.0000000000000000e+00" cType="1" res="-8.4360847249627113e-03" rms="2.0114147663116455e-01" purity="4.2708549648523331e-02" nType="-99"/>
          <Node pos="r" depth="2" NCoef="0" IVar="-1" Cut="0.0000000000000000e+00" cType="1" res="-2.8150936588644981e-02" rms="1.0025266557931900e-01" purity="1.0291731916368008e-02" nType="-99"/>
        </Node>
      </Node>
    </BinaryTree>
    <BinaryTree type="DecisionTree" boostWeight="1.0000000000000000e+00" itree="58">
      <Node pos="s" depth="0" NCoef="0" IVar="3" Cut="1.2473753690719604e+00" cType="1" res="-6.1252382583916187e-03" rms="2.2900357842445374e-01" purity="5.7887498289346695e-02" nType="0">
        <Node pos="l" depth="1" NCoef="0" IVar="-1" Cut="0.0000000000000000e+00" cType="1" res="-1.6186328139156103e-04" rms="2.3417343199253082e-01" purity="6.1238192021846771e-02" nType="-99"/>
        <Node pos="r" depth="1" NCoef="0" IVar="1" Cut="2.9158079624176025e+00" cType="0" res="-2.7924828231334686e-02" rms="2.0724743604660034e-01" purity="4.5450698584318161e-02" nType="0">
          <Node pos="l" depth="2" NCoef="0" IVar="-1" Cut="0.0000000000000000e+00" cType="1" res="1.8940532580018044e-02" rms="3.1442576646804810e-01" purity="1.1181274056434631e-01" nType="-99"/>
          <Node pos="r" depth="2" NCoef="0" IVar="-1" Cut="0.0000000000000000e+00" cType="1" res="-1.4490088447928429e-02" rms="2.0140551030635834e-01" purity="4.2837094515562057e-02" nType="-99"/>
        </Node>
      </Node>
    </BinaryTree>
    <BinaryTree type="DecisionTree" boostWeight="1.0000000000000000e+00" itree="59">
      <Node pos="s" depth="0" NCoef="0" IVar="0" Cut="1.0003498077392578e+01" cType="1" res="-5.7365000247955322e-03" rms="2.2895960509777069e-01" purity="5.7887498289346695e-02" nType="0">
        <Node pos="l" depth="1" NCoef="0" IVar="-1" Cut="0.0000000000000000e+00" cType="1" res="1.5665837563574314e-03" rms="2.6625776290893555e-01" purity="7.9458303749561310e-02" nType="-99"/>
        <Node pos="r" depth="1" NCoef="0" IVar="4" Cut="5.1241391897201538e-01" cType="1" res="-1.9127165898680687e-02" rms="1.5524242818355560e-01" purity="2.5159025564789772e-02" nType="0">
          <Node pos="l" depth="2" NCoef="0" IVar="-1" Cut="0.0000000000000000e+00" cType="1" res="-4.6538054011762142e-03" rms="2.2129978239536285e-01" purity="5.2879717200994492e-02" nType="-99"/>
          <Node pos="r" depth="2" NCoef="0" IVar="-1" Cut="0.0000000000000000e+00" cType="1" res="-1.8193425610661507e-02" rms="1.4327384531497955e-01" purity="2.1202707663178444e-02" nType="-99"/>
        </Node>
      </Node>
    </BinaryTree>
    <BinaryTree type="DecisionTree" boostWeight="1.0000000000000000e+00" itree="60">
      <Node pos="s" depth="0" NCoef="0" IVar="3" Cut="4.4677630066871643e-01" cType="0" res="-5.3447242826223373e-03" rms="2.2891812026500702e-01" purity="5.7887498289346695e-02" nType="0">
        <Node pos="l" depth="1" NCoef="0" IVar="-1" Cut="0.0000000000000000e+00" cType="1" res="1.2601409107446671e-03" rms="2.6817247271537781e-01" purity="8.0240376293659210e-02" nType="-99"/>
        <Node pos="r" depth="1" NCoef="0" IVar="8" Cut="2.8875548839569092e+00" cType="1" res="-2.0224887877702713e-02" rms="1.2448520213365555e-01" purity="1.5998117625713348e-02" nType="0">
          <Node pos="l" depth="2" NCoef="0" IVar="-1" Cut="0.0000000000000000e+00" cType="1" res="-3.6375403404235840e-02" rms="1.4714960753917694e-01" purity="2.2554980590939522e-02" nType="-99"/>
          <Node pos="r" depth="2" NCoef="0" IVar="-1" Cut="0.0000000000000000e+00" cType="1" res="-2.0927736535668373e-02" rms="1.1362540721893311e-01" purity="1.3281608000397682e-02" nType="-99"/>
        </Node>
      </Node>
    </BinaryTree>
    <BinaryTree type="DecisionTree" boostWeight="1.0000000000000000e+00" itree="61">
      <Node pos="s" depth="0" NCoef="0" IVar="3" Cut="1.1604189872741699e+00" cType="1" res="-4.8645427450537682e-03" rms="2.2888091206550598e-01" purity="5.7887498289346695e-02" nType="0">
        <Node pos="l" depth="1" NCoef="0" IVar="-1" Cut="0.0000000000000000e+00" cType="1" res="8.1079098163172603e-04" rms="2.3375412821769714e-01" purity="6.1132665723562241e-02" nType="-99"/>
        <Node pos="r" depth="1" NCoef="0" IVar="6" Cut="1.2892983853816986e-02" cType="1" res="-2.4556949734687805e-02" rms="2.1116788685321808e-01" purity="4.7398783266544342e-02" nType="0">
          <Node pos="l" depth="2" NCoef="0" IVar="-1" Cut="0.0000000000000000e+00" cType="1" res="4.3530119583010674e-03" rms="2.9406461119651794e-01" purity="9.7890764474868774e-02" nType="-99"/>
          <Node pos="r" depth="2" NCoef="0" IVar="-1" Cut="0.0000000000000000e+00" cType="1" res="-1.5692831948399544e-02" rms="1.9190259277820587e-01" purity="3.8360923528671265e-02" nType="-99"/>
        </Node>
      </Node>
    </BinaryTree>
    <BinaryTree type="DecisionTree" boostWeight="1.0000000000000000e+00" itree="62">
      <Node pos="s" depth="0" NCoef="0" IVar="3" Cut="5.5322301387786865e-01" cType="0" res="-4.5597632415592670e-03" rms="2.2882525622844696e-01" purity="5.7887498289346695e-02" nType="0">
        <Node pos="l" depth="1" NCoef="0" IVar="-1" Cut="0.0000000000000000e+00" cType="1" res="2.2632570471614599e-03" rms="2.7451294660568237e-01" purity="8.4442183375358582e-02" nType="-99"/>
        <Node pos="r" depth="1" NCoef="0" IVar="2" Cut="1.2691177427768707e-01" cType="0" res="-1.6193993389606476e-02" rms="1.5360766649246216e-01" purity="2.4953098967671394e-02" nType="0">
          <Node pos="l" depth="2" NCoef="0" IVar="-1" Cut="0.0000000000000000e+00" cType="1" res="-6.2332898378372192e-03" rms="1.7946334183216095e-01" purity="3.4613236784934998e-02" nType="-99"/>
          <Node pos="r" depth="2" NCoef="0" IVar="-1" Cut="0.0000000000000000e+00" cType="1" res="-2.2783033549785614e-02" rms="1.3237506151199341e-01" purity="1.8264528363943100e-02" nType="-99"/>
        </Node>
      </Node>
    </BinaryTree>
    <BinaryTree type="DecisionTree" boostWeight="1.0000000000000000e+00" itree="63">
      <Node pos="s" depth="0" NCoef="0" IVar="3" Cut="1.1439272165298462e+00" cType="1" res="-4.1938377544283867e-03" rms="2.2877991199493408e-01" purity="5.7887498289346695e-02" nType="0">
        <Node pos="l" depth="1" NCoef="0" IVar="-1" Cut="0.0000000000000000e+00" cType="1" res="1.1948798783123493e-03" rms="2.3348283767700195e-01" purity="6.1045501381158829e-02" nType="-99"/>
        <Node pos="r" depth="1" NCoef="0" IVar="6" Cut="4.4975988566875458e-03" cType="1" res="-2.3030737414956093e-02" rms="2.1220207214355469e-01" purity="4.7947172075510025e-02" nType="0">
          <Node pos="l" depth="2" NCoef="0" IVar="-1" Cut="0.0000000000000000e+00" cType="1" res="1.4149813912808895e-02" rms="3.5123616456985474e-01" purity="1.4656907320022583e-01" nType="-99"/>
          <Node pos="r" depth="2" NCoef="0" IVar="-1" Cut="0.0000000000000000e+00" cType="1" res="-1.3617654331028461e-02" rms="2.0038475096225739e-01" purity="4.2146120220422745e-02" nType="-99"/>
        </Node>
      </Node>
    </BinaryTree>
    <BinaryTree type="DecisionTree" boostWeight="1.0000000000000000e+00" itree="64">
      <Node pos="s" depth="0" NCoef="0" IVar="0" Cut="8.0024986267089844e+00" cType="1" res="-3.9371717721223831e-03" rms="2.2872388362884521e-01" purity="5.7887498289346695e-02" nType="0">
        <Node pos="l" depth="1" NCoef="0" IVar="-1" Cut="0.0000000000000000e+00" cType="1" res="4.6412055380642414e-03" rms="2.8296709060668945e-01" purity="9.0792238712310791e-02" nType="-99"/>
        <Node pos="r" depth="1" NCoef="0" IVar="4" Cut="5.1241391897201538e-01" cType="1" res="-1.2235872447490692e-02" rms="1.8756443262100220e-01" purity="3.7790056318044662e-02" nType="0">
          <Node pos="l" depth="2" NCoef="0" IVar="-1" Cut="0.0000000000000000e+00" cType="1" res="7.1968473494052887e-03" rms="2.5486096739768982e-01" purity="7.2837717831134796e-02" nType="-99"/>
          <Node pos="r" depth="2" NCoef="0" IVar="-1" Cut="0.0000000000000000e+00" cType="1" res="-1.1182349175214767e-02" rms="1.7894864082336426e-01" purity="3.4148398786783218e-02" nType="-99"/>
        </Node>
      </Node>
    </BinaryTree>
    <BinaryTree type="DecisionTree" boostWeight="1.0000000000000000e+00" itree="65">
      <Node pos="s" depth="0" NCoef="0" IVar="0" Cut="1.0003498077392578e+01" cType="1" res="-3.6737611517310143e-03" rms="2.2867701947689056e-01" purity="5.7887498289346695e-02" nType="0">
        <Node pos="l" depth="1" NCoef="0" IVar="-1" Cut="0.0000000000000000e+00" cType="1" res="2.3640063591301441e-03" rms="2.6591438055038452e-01" purity="7.9458303749561310e-02" nType="-99"/>
        <Node pos="r" depth="1" NCoef="0" IVar="0" Cut="1.2000499725341797e+01" cType="1" res="-1.6193017363548279e-02" rms="1.5520754456520081e-01" purity="2.5159025564789772e-02" nType="0">
          <Node pos="l" depth="2" NCoef="0" IVar="-1" Cut="0.0000000000000000e+00" cType="1" res="-1.1185565032064915e-02" rms="1.6426993906497955e-01" purity="2.8291126713156700e-02" nType="-99"/>
          <Node pos="r" depth="2" NCoef="0" IVar="-1" Cut="0.0000000000000000e+00" cType="1" res="-1.8206218257546425e-02" rms="1.4346183836460114e-01" purity="2.1405827254056931e-02" nType="-99"/>
        </Node>
      </Node>
    </BinaryTree>
    <BinaryTree type="DecisionTree" boostWeight="1.0000000000000000e+00" itree="66">
      <Node pos="s" depth="0" NCoef="0" IVar="3" Cut="4.1679131984710693e-01" cType="0" res="-3.4241802059113979e-03" rms="2.2863873839378357e-01" purity="5.7887498289346695e-02" nType="0">
        <Node pos="l" depth="1" NCoef="0" IVar="-1" Cut="0.0000000000000000e+00" cType="1" res="1.7987204482778907e-03" rms="2.6460921764373779e-01" purity="7.8217722475528717e-02" nType="-99"/>
        <Node pos="r" depth="1" NCoef="0" IVar="8" Cut="2.8875534534454346e+00" cType="1" res="-1.8429288640618324e-02" rms="1.1750423163175583e-01" purity="1.4186160638928413e-02" nType="0">
          <Node pos="l" depth="2" NCoef="0" IVar="-1" Cut="0.0000000000000000e+00" cType="1" res="-3.2189406454563141e-02" rms="1.4238695800304413e-01" purity="2.1059354767203331e-02" nType="-99"/>
          <Node pos="r" depth="2" NCoef="0" IVar="-1" Cut="0.0000000000000000e+00" cType="1" res="-2.1653039380908012e-02" rms="1.0514707118272781e-01" purity="1.1309457942843437e-02" nType="-99"/>
        </Node>
      </Node>
    </BinaryTree>
    <BinaryTree type="DecisionTree" boostWeight="1.0000000000000000e+00" itree="67">
      <Node pos="s" depth="0" NCoef="0" IVar="3" Cut="1.1844069957733154e+00" cType="1" res="-3.1131382565945387e-03" rms="2.2860164940357208e-01" purity="5.7887498289346695e-02" nType="0">
        <Node pos="l" depth="1" NCoef="0" IVar="-1" Cut="0.0000000000000000e+00" cType="1" res="1.6412896802648902e-03" rms="2.3367726802825928e-01" purity="6.1220038682222366e-02" nType="-99"/>
        <Node pos="r" depth="1" NCoef="0" IVar="1" Cut="2.9158079624176025e+00" cType="0" res="-2.1781420335173607e-02" rms="2.0958076417446136e-01" purity="4.6692125499248505e-02" nType="0">
          <Node pos="l" depth="2" NCoef="0" IVar="-1" Cut="0.0000000000000000e+00" cType="1" res="2.0062524825334549e-02" rms="3.1419485807418823e-01" purity="1.1175402253866196e-01" nType="-99"/>
          <Node pos="r" depth="2" NCoef="0" IVar="-1" Cut="0.0000000000000000e+00" cType="1" res="-1.2320741079747677e-02" rms="2.0399338006973267e-01" purity="4.4137854129076004e-02" nType="-99"/>
        </Node>
      </Node>
    </BinaryTree>
    <BinaryTree type="DecisionTree" boostWeight="1.0000000000000000e+00" itree="68">
      <Node pos="s" depth="0" NCoef="0" IVar="3" Cut="5.4872524738311768e-01" cType="0" res="-2.9338619206100702e-03" rms="2.2855524718761444e-01" purity="5.7887498289346695e-02" nType="0">
        <Node pos="l" depth="1" NCoef="0" IVar="-1" Cut="0.0000000000000000e+00" cType="1" res="2.7599511668086052e-03" rms="2.7411726117134094e-01" purity="8.4394238889217377e-02" nType="-99"/>
        <Node pos="r" depth="1" NCoef="0" IVar="2" Cut="1.4277555048465729e-01" cType="0" res="-1.3924777507781982e-02" rms="1.5222489833831787e-01" purity="2.4499556049704552e-02" nType="0">
          <Node pos="l" depth="2" NCoef="0" IVar="-1" Cut="0.0000000000000000e+00" cType="1" res="-2.4509949143975973e-03" rms="1.8388547003269196e-01" purity="3.6442760378122330e-02" nType="-99"/>
          <Node pos="r" depth="2" NCoef="0" IVar="-1" Cut="0.0000000000000000e+00" cType="1" res="-1.9983861595392227e-02" rms="1.3639333844184875e-01" purity="1.9459772855043411e-02" nType="-99"/>
        </Node>
      </Node>
    </BinaryTree>
    <BinaryTree type="DecisionTree" boostWeight="1.0000000000000000e+00" itree="69">
      <Node pos="s" depth="0" NCoef="0" IVar="3" Cut="1.1439272165298462e+00" cType="1" res="-2.6869305875152349e-03" rms="2.2851310670375824e-01" purity="5.7887498289346695e-02" nType="0">
        <Node pos="l" depth="1" NCoef="0" IVar="-1" Cut="0.0000000000000000e+00" cType="1" res="1.9543820526450872e-03" rms="2.3321388661861420e-01" purity="6.1045501381158829e-02" nType="-99"/>
        <Node pos="r" depth="1" NCoef="0" IVar="6" Cut="7.4959509074687958e-03" cType="1" res="-2.0200353115797043e-02" rms="2.1208995580673218e-01" purity="4.7947172075510025e-02" nType="0">
          <Node pos="l" depth="2" NCoef="0" IVar="-1" Cut="0.0000000000000000e+00" cType="1" res="9.9396836012601852e-03" rms="3.2856872677803040e-01" purity="1.2584507465362549e-01" nType="-99"/>
          <Node pos="r" depth="2" NCoef="0" IVar="-1" Cut="0.0000000000000000e+00" cType="1" res="-1.3360630720853806e-02" rms="1.9628064334392548e-01" purity="4.0274079889059067e-02" nType="-99"/>
        </Node>
      </Node>
    </BinaryTree>
    <BinaryTree type="DecisionTree" boostWeight="1.0000000000000000e+00" itree="70">
      <Node pos="s" depth="0" NCoef="0" IVar="0" Cut="1.0003498077392578e+01" cType="1" res="-2.5330863427370787e-03" rms="2.2845715284347534e-01" purity="5.7887498289346695e-02" nType="0">
        <Node pos="l" depth="1" NCoef="0" IVar="-1" Cut="0.0000000000000000e+00" cType="1" res="2.8039994649589062e-03" rms="2.6563775539398193e-01" purity="7.9458303749561310e-02" nType="-99"/>
        <Node pos="r" depth="1" NCoef="0" IVar="4" Cut="5.1241391897201538e-01" cType="1" res="-1.4530074782669544e-02" rms="1.5517961978912354e-01" purity="2.5159025564789772e-02" nType="0">
          <Node pos="l" depth="2" NCoef="0" IVar="-1" Cut="0.0000000000000000e+00" cType="1" res="-2.7226272504776716e-03" rms="2.2114890813827515e-01" purity="5.2879717200994492e-02" nType="-99"/>
          <Node pos="r" depth="2" NCoef="0" IVar="-1" Cut="0.0000000000000000e+00" cType="1" res="-1.5702554956078529e-02" rms="1.4324666559696198e-01" purity="2.1202707663178444e-02" nType="-99"/>
        </Node>
      </Node>
    </BinaryTree>
    <BinaryTree type="DecisionTree" boostWeight="1.0000000000000000e+00" itree="71">
      <Node pos="s" depth="0" NCoef="0" IVar="3" Cut="3.9880031347274780e-01" cType="0" res="-2.3649032227694988e-03" rms="2.2841751575469971e-01" purity="5.7887498289346695e-02" nType="0">
        <Node pos="l" depth="1" NCoef="0" IVar="-1" Cut="0.0000000000000000e+00" cType="1" res="1.9708923064172268e-03" rms="2.6221674680709839e-01" purity="7.6893121004104614e-02" nType="-99"/>
        <Node pos="r" depth="1" NCoef="0" IVar="8" Cut="2.8875534534454346e+00" cType="1" res="-1.6840819269418716e-02" rms="1.1397363990545273e-01" purity="1.3321179896593094e-02" nType="0">
          <Node pos="l" depth="2" NCoef="0" IVar="-1" Cut="0.0000000000000000e+00" cType="1" res="-2.8160160407423973e-02" rms="1.3980545103549957e-01" purity="2.0273724570870399e-02" nType="-99"/>
          <Node pos="r" depth="2" NCoef="0" IVar="-1" Cut="0.0000000000000000e+00" cType="1" res="-2.1764226257801056e-02" rms="1.0091144591569901e-01" purity="1.0396245867013931e-02" nType="-99"/>
        </Node>
      </Node>
    </BinaryTree>
    <BinaryTree type="DecisionTree" boostWeight="1.0000000000000000e+00" itree="72">
      <Node pos="s" depth="0" NCoef="0" IVar="3" Cut="1.2533724308013916e+00" cType="1" res="-2.1493982058018446e-03" rms="2.2838355600833893e-01" purity="5.7887498289346695e-02" nType="0">
        <Node pos="l" depth="1" NCoef="0" IVar="-1" Cut="0.0000000000000000e+00" cType="1" res="1.8583647906780243e-03" rms="2.3355461657047272e-01" purity="6.1234258115291595e-02" nType="-99"/>
        <Node pos="r" depth="1" NCoef="0" IVar="1" Cut="2.9158079624176025e+00" cType="0" res="-2.0545301958918571e-02" rms="2.0683410763740540e-01" purity="4.5347943902015686e-02" nType="0">
          <Node pos="l" depth="2" NCoef="0" IVar="-1" Cut="0.0000000000000000e+00" cType="1" res="1.8813552334904671e-02" rms="3.1427124142646790e-01" purity="1.1187043040990829e-01" nType="-99"/>
          <Node pos="r" depth="2" NCoef="0" IVar="-1" Cut="0.0000000000000000e+00" cType="1" res="-1.2057190760970116e-02" rms="2.0106475055217743e-01" purity="4.2725466191768646e-02" nType="-99"/>
        </Node>
      </Node>
    </BinaryTree>
    <BinaryTree type="DecisionTree" boostWeight="1.0000000000000000e+00" itree="73">
      <Node pos="s" depth="0" NCoef="0" IVar="0" Cut="8.0024986267089844e+00" cType="1" res="-2.0343505311757326e-03" rms="2.2834004461765289e-01" purity="5.7887498289346695e-02" nType="0">
        <Node pos="l" depth="1" NCoef="0" IVar="-1" Cut="0.0000000000000000e+00" cType="1" res="4.8196846619248390e-03" rms="2.8249984979629517e-01" purity="9.0792238712310791e-02" nType="-99"/>
        <Node pos="r" depth="1" NCoef="0" IVar="4" Cut="5.1241391897201538e-01" cType="1" res="-9.3686105683445930e-03" rms="1.8734717369079590e-01" purity="3.7790056318044662e-02" nType="0">
          <Node pos="l" depth="2" NCoef="0" IVar="-1" Cut="0.0000000000000000e+00" cType="1" res="8.0565288662910461e-03" rms="2.5431686639785767e-01" purity="7.2837717831134796e-02" nType="-99"/>
          <Node pos="r" depth="2" NCoef="0" IVar="-1" Cut="0.0000000000000000e+00" cType="1" res="-9.4283260405063629e-03" rms="1.7880295217037201e-01" purity="3.4148398786783218e-02" nType="-99"/>
        </Node>
      </Node>
    </BinaryTree>
    <BinaryTree type="DecisionTree" boostWeight="1.0000000000000000e+00" itree="74">
      <Node pos="s" depth="0" NCoef="0" IVar="3" Cut="5.5772072076797485e-01" cType="0" res="-1.9026176305487752e-03" rms="2.2829866409301758e-01" purity="5.7887498289346695e-02" nType="0">
        <Node pos="l" depth="1" NCoef="0" IVar="-1" Cut="0.0000000000000000e+00" cType="1" res="3.0468537006527185e-03" rms="2.7391520142555237e-01" purity="8.4475718438625336e-02" nType="-99"/>
        <Node pos="r" depth="1" NCoef="0" IVar="2" Cut="2.0623065531253815e-01" cType="0" res="-1.1981623247265816e-02" rms="1.5475879609584808e-01" purity="2.5408135727047920e-02" nType="0">
          <Node pos="l" depth="2" NCoef="0" IVar="-1" Cut="0.0000000000000000e+00" cType="1" res="1.6428407281637192e-02" rms="2.2894081473350525e-01" purity="5.8009427040815353e-02" nType="-99"/>
          <Node pos="r" depth="2" NCoef="0" IVar="-1" Cut="0.0000000000000000e+00" cType="1" res="-1.5063241124153137e-02" rms="1.4831590652465820e-01" purity="2.3242395371198654e-02" nType="-99"/>
        </Node>
      </Node>
    </BinaryTree>
    <BinaryTree type="DecisionTree" boostWeight="1.0000000000000000e+00" itree="75">
      <Node pos="s" depth="0" NCoef="0" IVar="3" Cut="1.1439272165298462e+00" cType="1" res="-1.7341168131679296e-03" rms="2.2825916111469269e-01" purity="5.7887498289346695e-02" nType="0">
        <Node pos="l" depth="1" NCoef="0" IVar="-1" Cut="0.0000000000000000e+00" cType="1" res="2.3659577127546072e-03" rms="2.3296050727367401e-01" purity="6.1045501381158829e-02" nType="-99"/>
        <Node pos="r" depth="1" NCoef="0" IVar="6" Cut="1.3592599891126156e-02" cType="1" res="-1.8042933195829391e-02" rms="2.1195881068706512e-01" purity="4.7947172075510025e-02" nType="0">
          <Node pos="l" depth="2" NCoef="0" IVar="-1" Cut="0.0000000000000000e+00" cType="1" res="6.0729086399078369e-03" rms="2.9508879780769348e-01" purity="9.9209778010845184e-02" nType="-99"/>
          <Node pos="r" depth="2" NCoef="0" IVar="-1" Cut="0.0000000000000000e+00" cType="1" res="-1.3634978793561459e-02" rms="1.9140964746475220e-01" purity="3.8167934864759445e-02" nType="-99"/>
        </Node>
      </Node>
    </BinaryTree>
    <BinaryTree type="DecisionTree" boostWeight="1.0000000000000000e+00" itree="76">
      <Node pos="s" depth="0" NCoef="0" IVar="0" Cut="1.0003498077392578e+01" cType="1" res="-1.6435395227745175e-03" rms="2.2820490598678589e-01" purity="5.7887498289346695e-02" nType="0">
        <Node pos="l" depth="1" NCoef="0" IVar="-1" Cut="0.0000000000000000e+00" cType="1" res="2.9704028274863958e-03" rms="2.6534011960029602e-01" purity="7.9458303749561310e-02" nType="-99"/>
        <Node pos="r" depth="1" NCoef="0" IVar="0" Cut="1.2000499725341797e+01" cType="1" res="-1.2733434326946735e-02" rms="1.5512992441654205e-01" purity="2.5159025564789772e-02" nType="0">
          <Node pos="l" depth="2" NCoef="0" IVar="-1" Cut="0.0000000000000000e+00" cType="1" res="-8.7787220254540443e-03" rms="1.6418595612049103e-01" purity="2.8291126713156700e-02" nType="-99"/>
          <Node pos="r" depth="2" NCoef="0" IVar="-1" Cut="0.0000000000000000e+00" cType="1" res="-1.6463696956634521e-02" rms="1.4339324831962585e-01" purity="2.1405827254056931e-02" nType="-99"/>
        </Node>
      </Node>
    </BinaryTree>
    <BinaryTree type="DecisionTree" boostWeight="1.0000000000000000e+00" itree="77">
      <Node pos="s" depth="0" NCoef="0" IVar="3" Cut="4.7526201605796814e-01" cType="0" res="-1.5352811897173524e-03" rms="2.2816960513591766e-01" purity="5.7887498289346695e-02" nType="0">
        <Node pos="l" depth="1" NCoef="0" IVar="-1" Cut="0.0000000000000000e+00" cType="1" res="2.6004214305430651e-03" rms="2.6996299624443054e-01" purity="8.1935815513134003e-02" nType="-99"/>
        <Node pos="r" depth="1" NCoef="0" IVar="8" Cut="2.8875639438629150e+00" cType="1" res="-1.2854351662099361e-02" rms="1.3133555650711060e-01" purity="1.7911646515130997e-02" nType="0">
          <Node pos="l" depth="2" NCoef="0" IVar="-1" Cut="0.0000000000000000e+00" cType="1" res="-1.5909593552350998e-02" rms="1.5179795026779175e-01" purity="2.4081217125058174e-02" nType="-99"/>
          <Node pos="r" depth="2" NCoef="0" IVar="-1" Cut="0.0000000000000000e+00" cType="1" res="-1.6752755269408226e-02" rms="1.2179976701736450e-01" purity="1.5384350903332233e-02" nType="-99"/>
        </Node>
      </Node>
    </BinaryTree>
    <BinaryTree type="DecisionTree" boostWeight="1.0000000000000000e+00" itree="78">
      <Node pos="s" depth="0" NCoef="0" IVar="3" Cut="1.1259362697601318e+00" cType="1" res="-1.4005767880007625e-03" rms="2.2814065217971802e-01" purity="5.7887498289346695e-02" nType="0">
        <Node pos="l" depth="1" NCoef="0" IVar="-1" Cut="0.0000000000000000e+00" cType="1" res="2.5236078072339296e-03" rms="2.3252721130847931e-01" purity="6.0894314199686050e-02" nType="-99"/>
        <Node pos="r" depth="1" NCoef="0" IVar="6" Cut="5.3971046581864357e-03" cType="1" res="-1.6820887103676796e-02" rms="2.1345297992229462e-01" purity="4.8706177622079849e-02" nType="0">
          <Node pos="l" depth="2" NCoef="0" IVar="-1" Cut="0.0000000000000000e+00" cType="1" res="1.4192109927535057e-02" rms="3.5055795311927795e-01" purity="1.4662650227546692e-01" nType="-99"/>
          <Node pos="r" depth="2" NCoef="0" IVar="-1" Cut="0.0000000000000000e+00" cType="1" res="-1.1683296412229538e-02" rms="1.9951179623603821e-01" purity="4.1753366589546204e-02" nType="-99"/>
        </Node>
      </Node>
    </BinaryTree>
    <BinaryTree type="DecisionTree" boostWeight="1.0000000000000000e+00" itree="79">
      <Node pos="s" depth="0" NCoef="0" IVar="0" Cut="7.0019989013671875e+00" cType="1" res="-1.3338105054572225e-03" rms="2.2808547317981720e-01" purity="5.7887498289346695e-02" nType="0">
        <Node pos="l" depth="1" NCoef="0" IVar="-1" Cut="0.0000000000000000e+00" cType="1" res="5.9253559447824955e-03" rms="2.8611785173416138e-01" purity="9.3442991375923157e-02" nType="-99"/>
        <Node pos="r" depth="1" NCoef="0" IVar="3" Cut="5.9370166063308716e-01" cType="0" res="-6.7543471232056618e-03" rms="2.0008790493011475e-01" purity="4.3726686388254166e-02" nType="0">
          <Node pos="l" depth="2" NCoef="0" IVar="-1" Cut="0.0000000000000000e+00" cType="1" res="4.2725520324893296e-04" rms="2.4740071594715118e-01" purity="6.7608118057250977e-02" nType="-99"/>
          <Node pos="r" depth="2" NCoef="0" IVar="-1" Cut="0.0000000000000000e+00" cType="1" res="-1.8123738467693329e-02" rms="1.2967845797538757e-01" purity="1.7682438716292381e-02" nType="-99"/>
        </Node>
      </Node>
    </BinaryTree>
    <BinaryTree type="DecisionTree" boostWeight="1.0000000000000000e+00" itree="80">
      <Node pos="s" depth="0" NCoef="0" IVar="3" Cut="1.2533724308013916e+00" cType="1" res="-1.2227372499182820e-03" rms="2.2804085910320282e-01" purity="5.7887498289346695e-02" nType="0">
        <Node pos="l" depth="1" NCoef="0" IVar="-1" Cut="0.0000000000000000e+00" cType="1" res="2.1563670597970486e-03" rms="2.3320421576499939e-01" purity="6.1234258115291595e-02" nType="-99"/>
        <Node pos="r" depth="1" NCoef="0" IVar="1" Cut="2.9158079624176025e+00" cType="0" res="-1.7699899151921272e-02" rms="2.0672549307346344e-01" purity="4.5347943902015686e-02" nType="0">
          <Node pos="l" depth="2" NCoef="0" IVar="-1" Cut="0.0000000000000000e+00" cType="1" res="1.8637886270880699e-02" rms="3.1416437029838562e-01" purity="1.1187043040990829e-01" nType="-99"/>
          <Node pos="r" depth="2" NCoef="0" IVar="-1" Cut="0.0000000000000000e+00" cType="1" res="-1.0967842303216457e-02" rms="2.0099216699600220e-01" purity="4.2725466191768646e-02" nType="-99"/>
        </Node>
      </Node>
    </BinaryTree>
    <BinaryTree type="DecisionTree" boostWeight="1.0000000000000000e+00" itree="81">
      <Node pos="s" depth="0" NCoef="0" IVar="3" Cut="3.8380780816078186e-01" cType="0" res="-1.1691836407408118e-03" rms="2.2800110280513763e-01" purity="5.7887498289346695e-02" nType="0">
        <Node pos="l" depth="1" NCoef="0" IVar="-1" Cut="0.0000000000000000e+00" cType="1" res="2.1477038972079754e-03" rms="2.5991508364677429e-01" purity="7.5768716633319855e-02" nType="-99"/>
        <Node pos="r" depth="1" NCoef="0" IVar="8" Cut="2.8875534534454346e+00" cType="1" res="-1.4396925456821918e-02" rms="1.1106237769126892e-01" purity="1.2636489234864712e-02" nType="0">
          <Node pos="l" depth="2" NCoef="0" IVar="-1" Cut="0.0000000000000000e+00" cType="1" res="-2.1525166928768158e-02" rms="1.3765965402126312e-01" purity="1.9647689536213875e-02" nType="-99"/>
          <Node pos="r" depth="2" NCoef="0" IVar="-1" Cut="0.0000000000000000e+00" cType="1" res="-2.1348919719457626e-02" rms="9.7440257668495178e-02" purity="9.6787391230463982e-03" nType="-99"/>
        </Node>
      </Node>
    </BinaryTree>
    <BinaryTree type="DecisionTree" boostWeight="1.0000000000000000e+00" itree="82">
      <Node pos="s" depth="0" NCoef="0" IVar="0" Cut="1.0003498077392578e+01" cType="1" res="-1.0603911941871047e-03" rms="2.2797158360481262e-01" purity="5.7887498289346695e-02" nType="0">
        <Node pos="l" depth="1" NCoef="0" IVar="-1" Cut="0.0000000000000000e+00" cType="1" res="2.9732165858149529e-03" rms="2.6505294442176819e-01" purity="7.9458303749561310e-02" nType="-99"/>
        <Node pos="r" depth="1" NCoef="0" IVar="0" Cut="1.2000499725341797e+01" cType="1" res="-1.1260324157774448e-02" rms="1.5511254966259003e-01" purity="2.5159025564789772e-02" nType="0">
          <Node pos="l" depth="2" NCoef="0" IVar="-1" Cut="0.0000000000000000e+00" cType="1" res="-7.8067365102469921e-03" rms="1.6417092084884644e-01" purity="2.8291126713156700e-02" nType="-99"/>
          <Node pos="r" depth="2" NCoef="0" IVar="-1" Cut="0.0000000000000000e+00" cType="1" res="-1.5467837452888489e-02" rms="1.4338836073875427e-01" purity="2.1405827254056931e-02" nType="-99"/>
        </Node>
      </Node>
    </BinaryTree>
    <BinaryTree type="DecisionTree" boostWeight="1.0000000000000000e+00" itree="83">
      <Node pos="s" depth="0" NCoef="0" IVar="3" Cut="1.1259362697601318e+00" cType="1" res="-9.9241291172802448e-04" rms="2.2793965041637421e-01" purity="5.7887498289346695e-02" nType="0">
        <Node pos="l" depth="1" NCoef="0" IVar="-1" Cut="0.0000000000000000e+00" cType="1" res="2.5533465668559074e-03" rms="2.3232723772525787e-01" purity="6.0894314199686050e-02" nType="-99"/>
        <Node pos="r" depth="1" NCoef="0" IVar="6" Cut="4.4975988566875458e-03" cType="1" res="-1.5275738202035427e-02" rms="2.1335239708423615e-01" purity="4.8706177622079849e-02" nType="0">
          <Node pos="l" depth="2" NCoef="0" IVar="-1" Cut="0.0000000000000000e+00" cType="1" res="1.4788738451898098e-02" rms="3.5827943682670593e-01" purity="1.5466585755348206e-01" nType="-99"/>
          <Node pos="r" depth="2" NCoef="0" IVar="-1" Cut="0.0000000000000000e+00" cType="1" res="-1.0738906450569630e-02" rms="2.0092612504959106e-01" purity="4.2422372847795486e-02" nType="-99"/>
        </Node>
      </Node>
    </BinaryTree>
    <BinaryTree type="DecisionTree" boostWeight="1.0000000000000000e+00" itree="84">
      <Node pos="s" depth="0" NCoef="0" IVar="3" Cut="5.3373277187347412e-01" cType="0" res="-9.5189333660528064e-04" rms="2.2788974642753601e-01" purity="5.7887498289346695e-02" nType="0">
        <Node pos="l" depth="1" NCoef="0" IVar="-1" Cut="0.0000000000000000e+00" cType="1" res="2.8515437152236700e-03" rms="2.7299135923385620e-01" purity="8.4163345396518707e-02" nType="-99"/>
        <Node pos="r" depth="1" NCoef="0" IVar="2" Cut="1.2691177427768707e-01" cType="0" res="-1.0068417526781559e-02" rms="1.4755401015281677e-01" purity="2.2974980995059013e-02" nType="0">
          <Node pos="l" depth="2" NCoef="0" IVar="-1" Cut="0.0000000000000000e+00" cType="1" res="-2.6788706891238689e-03" rms="1.7206597328186035e-01" purity="3.1735278666019440e-02" nType="-99"/>
          <Node pos="r" depth="2" NCoef="0" IVar="-1" Cut="0.0000000000000000e+00" cType="1" res="-1.9309060648083687e-02" rms="1.2762825191020966e-01" purity="1.6921937465667725e-02" nType="-99"/>
        </Node>
      </Node>
    </BinaryTree>
    <BinaryTree type="DecisionTree" boostWeight="1.0000000000000000e+00" itree="85">
      <Node pos="s" depth="0" NCoef="0" IVar="3" Cut="1.1259362697601318e+00" cType="1" res="-8.5524248424917459e-04" rms="2.2785705327987671e-01" purity="5.7887498289346695e-02" nType="0">
        <Node pos="l" depth="1" NCoef="0" IVar="-1" Cut="0.0000000000000000e+00" cType="1" res="2.5309817865490913e-03" rms="2.3225708305835724e-01" purity="6.0894314199686050e-02" nType="-99"/>
        <Node pos="r" depth="1" NCoef="0" IVar="6" Cut="1.1293862946331501e-02" cType="1" res="-1.4623752795159817e-02" rms="2.1327289938926697e-01" purity="4.8706177622079849e-02" nType="0">
          <Node pos="l" depth="2" NCoef="0" IVar="-1" Cut="0.0000000000000000e+00" cType="1" res="8.2186581566929817e-03" rms="3.1126832962036133e-01" purity="1.1226565390825272e-01" nType="-99"/>
          <Node pos="r" depth="2" NCoef="0" IVar="-1" Cut="0.0000000000000000e+00" cType="1" res="-1.1935081332921982e-02" rms="1.9321496784687042e-01" purity="3.8912981748580933e-02" nType="-99"/>
        </Node>
      </Node>
    </BinaryTree>
    <BinaryTree type="DecisionTree" boostWeight="1.0000000000000000e+00" itree="86">
