<?xml version="1.0"?>
<MethodSetup Method="BDT::BDT">
  <GeneralInfo>
    <Info name="TMVA Release" value="4.1.4 [262404]"/>
    <Info name="ROOT Release" value="5.34/10 [336394]"/>
    <Info name="Creator" value="sachikot"/>
    <Info name="Date" value="Wed Apr 16 01:11:45 2014"/>
    <Info name="Host" value="Linux lxbuild168.cern.ch 2.6.18-348.1.1.el5 #1 SMP Thu Jan 24 13:25:42 CET 2013 x86_64 x86_64 x86_64 GNU/Linux"/>
    <Info name="Dir" value="/uscms_data/d3/sachikot/tmp/PF/RECHECK_04152015/TMVA_Cat4"/>
    <Info name="Training events" value="812848"/>
    <Info name="TrainingTime" value="2.13813845e+03"/>
    <Info name="AnalysisType" value="Classification"/>
  </GeneralInfo>
  <Options>
    <Option name="V" modified="Yes">False</Option>
    <Option name="VerbosityLevel" modified="No">Default</Option>
    <Option name="VarTransform" modified="No">None</Option>
    <Option name="H" modified="Yes">False</Option>
    <Option name="CreateMVAPdfs" modified="No">False</Option>
    <Option name="IgnoreNegWeightsInTraining" modified="No">False</Option>
    <Option name="NTrees" modified="Yes">2000</Option>
    <Option name="RenormByClass" modified="No">False</Option>
    <Option name="BoostType" modified="Yes">Grad</Option>
    <Option name="AdaBoostR2Loss" modified="No">quadratic</Option>
    <Option name="UseBaggedGrad" modified="Yes">False</Option>
    <Option name="GradBaggingFraction" modified="No">6.000000e-01</Option>
    <Option name="Shrinkage" modified="Yes">1.000000e-01</Option>
    <Option name="AdaBoostBeta" modified="No">1.000000e+00</Option>
    <Option name="UseRandomisedTrees" modified="No">False</Option>
    <Option name="UseNvars" modified="Yes">4</Option>
    <Option name="UsePoissonNvars" modified="No">True</Option>
    <Option name="UseNTrainEvents" modified="No">812848</Option>
    <Option name="UseWeightedTrees" modified="No">True</Option>
    <Option name="UseYesNoLeaf" modified="No">True</Option>
    <Option name="NodePurityLimit" modified="No">5.000000e-01</Option>
    <Option name="SeparationType" modified="No">giniindex</Option>
    <Option name="nEventsMin" modified="Yes">100</Option>
    <Option name="nCuts" modified="Yes">2000</Option>
    <Option name="UseFisherCuts" modified="No">False</Option>
    <Option name="MinLinCorrForFisher" modified="No">8.000000e-01</Option>
    <Option name="UseExclusiveVars" modified="No">False</Option>
    <Option name="PruneStrength" modified="Yes">5.000000e+00</Option>
    <Option name="PruneMethod" modified="Yes">costcomplexity</Option>
    <Option name="PruneBeforeBoost" modified="No">False</Option>
    <Option name="PruningValFraction" modified="No">5.000000e-01</Option>
    <Option name="NNodesMax" modified="Yes">5</Option>
    <Option name="MaxDepth" modified="Yes">6</Option>
    <Option name="DoBoostMonitor" modified="No">False</Option>
    <Option name="NegWeightTreatment" modified="Yes">ignorenegweights</Option>
  </Options>
  <Variables NVar="10">
    <Variable VarIndex="0" Expression="NHits" Label="NHits" Title="NHits" Unit="" Internal="NHits" Type="F" Min="3.00000000e+00" Max="2.50000000e+01"/>
    <Variable VarIndex="1" Expression="NormChi" Label="NormChi" Title="NormChi" Unit="" Internal="NormChi" Type="F" Min="2.10426099e-09" Max="7.07682471e+03"/>
    <Variable VarIndex="2" Expression="dPtGSF" Label="dPtGSF" Title="dPtGSF" Unit="" Internal="dPtGSF" Type="F" Min="4.48167839e-06" Max="1.00000000e+03"/>
    <Variable VarIndex="3" Expression="EoP" Label="EoP" Title="EoP" Unit="" Internal="EoP" Type="F" Min="0.00000000e+00" Max="2.99998951e+00"/>
    <Variable VarIndex="4" Expression="ChiRatio" Label="ChiRatio" Title="ChiRatio" Unit="" Internal="ChiRatio" Type="F" Min="1.51563892e-02" Max="2.34796180e+07"/>
    <Variable VarIndex="5" Expression="RedChi" Label="RedChi" Title="RedChi" Unit="" Internal="RedChi" Type="F" Min="6.41953014e-03" Max="1.74010240e+07"/>
    <Variable VarIndex="6" Expression="EcalDEta" Label="EcalDEta" Title="EcalDEta" Unit="" Internal="EcalDEta" Type="F" Min="3.03570360e-08" Max="1.00000000e+03"/>
    <Variable VarIndex="7" Expression="EcalDPhi" Label="EcalDPhi" Title="EcalDPhi" Unit="" Internal="EcalDPhi" Type="F" Min="1.91558655e-07" Max="1.00000000e+03"/>
    <Variable VarIndex="8" Expression="pt" Label="pt" Title="pt" Unit="" Internal="pt" Type="F" Min="2.00000095e+00" Max="5.99998331e+00"/>
    <Variable VarIndex="9" Expression="eta" Label="eta" Title="eta" Unit="" Internal="eta" Type="F" Min="-1.47899759e+00" Max="1.47899997e+00"/>
  </Variables>
  <Spectators NSpec="0"/>
  <Classes NClass="2">
    <Class Name="Signal" Index="0"/>
    <Class Name="Background" Index="1"/>
  </Classes>
  <Transformations NTransformations="0"/>
  <MVAPdfs/>
  <Weights NTrees="2000" AnalysisType="1">
    <BinaryTree type="DecisionTree" boostWeight="1.0000000000000000e+00" itree="0">
      <Node pos="s" depth="0" NCoef="0" IVar="0" Cut="1.0003498077392578e+01" cType="1" res="-3.9102435111999512e-01" rms="3.1160867214202881e-01" purity="1.0897565633058548e-01" nType="0">
        <Node pos="l" depth="1" NCoef="0" IVar="-1" Cut="0.0000000000000000e+00" cType="1" res="-4.3805371969938278e-02" rms="3.6277607083320618e-01" purity="1.5591637790203094e-01" nType="-99"/>
        <Node pos="r" depth="1" NCoef="0" IVar="2" Cut="3.5320809483528137e-01" cType="0" res="-4.6817544102668762e-01" rms="1.7553277313709259e-01" purity="3.1824558973312378e-02" nType="0">
          <Node pos="l" depth="2" NCoef="0" IVar="-1" Cut="0.0000000000000000e+00" cType="1" res="-5.0978213548660278e-02" rms="3.0534175038337708e-01" purity="1.0406261682510376e-01" nType="-99"/>
          <Node pos="r" depth="2" NCoef="0" IVar="-1" Cut="0.0000000000000000e+00" cType="1" res="-5.9531364589929581e-02" rms="1.4930397272109985e-01" purity="2.2812066599726677e-02" nType="-99"/>
        </Node>
      </Node>
    </BinaryTree>
    <BinaryTree type="DecisionTree" boostWeight="1.0000000000000000e+00" itree="1">
      <Node pos="s" depth="0" NCoef="0" IVar="0" Cut="9.0029983520507812e+00" cType="1" res="-3.6634817719459534e-01" rms="3.1089779734611511e-01" purity="1.0897565633058548e-01" nType="0">
        <Node pos="l" depth="1" NCoef="0" IVar="-1" Cut="0.0000000000000000e+00" cType="1" res="-4.0102954953908920e-02" rms="3.7022355198860168e-01" purity="1.6394269466400146e-01" nType="-99"/>
        <Node pos="r" depth="1" NCoef="0" IVar="3" Cut="4.3028336763381958e-01" cType="0" res="-4.2779025435447693e-01" rms="2.0517149567604065e-01" purity="4.4251292943954468e-02" nType="0">
          <Node pos="l" depth="2" NCoef="0" IVar="-1" Cut="0.0000000000000000e+00" cType="1" res="-4.7406889498233795e-02" rms="2.5286307930946350e-01" purity="6.9000847637653351e-02" nType="-99"/>
          <Node pos="r" depth="2" NCoef="0" IVar="-1" Cut="0.0000000000000000e+00" cType="1" res="-6.2865294516086578e-02" rms="1.1926483362913132e-01" purity="1.4504273422062397e-02" nType="-99"/>
        </Node>
      </Node>
    </BinaryTree>
    <BinaryTree type="DecisionTree" boostWeight="1.0000000000000000e+00" itree="2">
      <Node pos="s" depth="0" NCoef="0" IVar="0" Cut="1.0003498077392578e+01" cType="1" res="-3.4314411878585815e-01" rms="3.1013667583465576e-01" purity="1.0897565633058548e-01" nType="0">
        <Node pos="l" depth="1" NCoef="0" IVar="-1" Cut="0.0000000000000000e+00" cType="1" res="-3.8644503802061081e-02" rms="3.6257410049438477e-01" purity="1.5591637790203094e-01" nType="-99"/>
        <Node pos="r" depth="1" NCoef="0" IVar="2" Cut="3.4415158629417419e-01" cType="0" res="-4.1188517212867737e-01" rms="1.7494741082191467e-01" purity="3.1824558973312378e-02" nType="0">
          <Node pos="l" depth="2" NCoef="0" IVar="-1" Cut="0.0000000000000000e+00" cType="1" res="-4.5341402292251587e-02" rms="2.9874989390373230e-01" purity="9.9646292626857758e-02" nType="-99"/>
          <Node pos="r" depth="2" NCoef="0" IVar="-1" Cut="0.0000000000000000e+00" cType="1" res="-5.3160656243562698e-02" rms="1.4714789390563965e-01" purity="2.2245258092880249e-02" nType="-99"/>
        </Node>
      </Node>
    </BinaryTree>
    <BinaryTree type="DecisionTree" boostWeight="1.0000000000000000e+00" itree="3">
      <Node pos="s" depth="0" NCoef="0" IVar="0" Cut="1.0003498077392578e+01" cType="1" res="-3.2158476114273071e-01" rms="3.0957525968551636e-01" purity="1.0897565633058548e-01" nType="0">
        <Node pos="l" depth="1" NCoef="0" IVar="-1" Cut="0.0000000000000000e+00" cType="1" res="-3.6487702280282974e-02" rms="3.6257579922676086e-01" purity="1.5591637790203094e-01" nType="-99"/>
        <Node pos="r" depth="1" NCoef="0" IVar="2" Cut="3.5320809483528137e-01" cType="0" res="-3.8629624247550964e-01" rms="1.7478495836257935e-01" purity="3.1824558973312378e-02" nType="0">
          <Node pos="l" depth="2" NCoef="0" IVar="-1" Cut="0.0000000000000000e+00" cType="1" res="-4.2284809052944183e-02" rms="3.0460587143898010e-01" purity="1.0406261682510376e-01" nType="-99"/>
          <Node pos="r" depth="2" NCoef="0" IVar="-1" Cut="0.0000000000000000e+00" cType="1" res="-5.0585854798555374e-02" rms="1.4895807206630707e-01" purity="2.2812066599726677e-02" nType="-99"/>
        </Node>
      </Node>
    </BinaryTree>
    <BinaryTree type="DecisionTree" boostWeight="1.0000000000000000e+00" itree="4">
      <Node pos="s" depth="0" NCoef="0" IVar="0" Cut="8.0024986267089844e+00" cType="1" res="-3.0141270160675049e-01" rms="3.0907851457595825e-01" purity="1.0897565633058548e-01" nType="0">
        <Node pos="l" depth="1" NCoef="0" IVar="-1" Cut="0.0000000000000000e+00" cType="1" res="-3.2610937952995300e-02" rms="3.7906885147094727e-01" purity="1.7395274341106415e-01" nType="-99"/>
        <Node pos="r" depth="1" NCoef="0" IVar="3" Cut="4.1679015755653381e-01" cType="0" res="-3.4427314996719360e-01" rms="2.3086138069629669e-01" purity="5.7613708078861237e-02" nType="0">
          <Node pos="l" depth="2" NCoef="0" IVar="-1" Cut="0.0000000000000000e+00" cType="1" res="-3.8582988083362579e-02" rms="2.7980306744575500e-01" purity="8.7084524333477020e-02" nType="-99"/>
          <Node pos="r" depth="2" NCoef="0" IVar="-1" Cut="0.0000000000000000e+00" cType="1" res="-5.4046534001827240e-02" rms="1.3724333047866821e-01" purity="1.9482553005218506e-02" nType="-99"/>
        </Node>
      </Node>
    </BinaryTree>
    <BinaryTree type="DecisionTree" boostWeight="1.0000000000000000e+00" itree="5">
      <Node pos="s" depth="0" NCoef="0" IVar="0" Cut="9.0029983520507812e+00" cType="1" res="-2.8239467740058899e-01" rms="3.0847275257110596e-01" purity="1.0897565633058548e-01" nType="0">
        <Node pos="l" depth="1" NCoef="0" IVar="-1" Cut="0.0000000000000000e+00" cType="1" res="-3.1779199838638306e-02" rms="3.6998715996742249e-01" purity="1.6394269466400146e-01" nType="-99"/>
        <Node pos="r" depth="1" NCoef="0" IVar="4" Cut="5.1489895582199097e-01" cType="1" res="-3.3198651671409607e-01" rms="2.0362702012062073e-01" purity="4.4251292943954468e-02" nType="0">
          <Node pos="l" depth="2" NCoef="0" IVar="-1" Cut="0.0000000000000000e+00" cType="1" res="-3.4589115530252457e-02" rms="3.2153439521789551e-01" purity="1.2058392912149429e-01" nType="-99"/>
          <Node pos="r" depth="2" NCoef="0" IVar="-1" Cut="0.0000000000000000e+00" cType="1" res="-4.5157972723245621e-02" rms="1.8933564424514771e-01" purity="3.7971597164869308e-02" nType="-99"/>
        </Node>
      </Node>
    </BinaryTree>
    <BinaryTree type="DecisionTree" boostWeight="1.0000000000000000e+00" itree="6">
      <Node pos="s" depth="0" NCoef="0" IVar="3" Cut="3.1783998012542725e-01" cType="0" res="-2.6472499966621399e-01" rms="3.0806091427803040e-01" purity="1.0897565633058548e-01" nType="0">
        <Node pos="l" depth="1" NCoef="0" IVar="-1" Cut="0.0000000000000000e+00" cType="1" res="-3.0418772250413895e-02" rms="3.4386926889419556e-01" purity="1.4049386978149414e-01" nType="-99"/>
        <Node pos="r" depth="1" NCoef="0" IVar="0" Cut="7.0069966316223145e+00" cType="1" res="-3.2777810096740723e-01" rms="2.0006588101387024e-01" purity="4.2811665683984756e-02" nType="0">
          <Node pos="l" depth="2" NCoef="0" IVar="-1" Cut="0.0000000000000000e+00" cType="1" res="-4.4093430042266846e-02" rms="2.8490471839904785e-01" purity="8.9111581444740295e-02" nType="-99"/>
          <Node pos="r" depth="2" NCoef="0" IVar="-1" Cut="0.0000000000000000e+00" cType="1" res="-5.1641430705785751e-02" rms="1.2546963989734650e-01" purity="1.6215110197663307e-02" nType="-99"/>
        </Node>
      </Node>
    </BinaryTree>
    <BinaryTree type="DecisionTree" boostWeight="1.0000000000000000e+00" itree="7">
      <Node pos="s" depth="0" NCoef="0" IVar="0" Cut="1.0003498077392578e+01" cType="1" res="-2.4791507422924042e-01" rms="3.0755007266998291e-01" purity="1.0897565633058548e-01" nType="0">
        <Node pos="l" depth="1" NCoef="0" IVar="-1" Cut="0.0000000000000000e+00" cType="1" res="-2.9212199151515961e-02" rms="3.6146843433380127e-01" purity="1.5591637790203094e-01" nType="-99"/>
        <Node pos="r" depth="1" NCoef="0" IVar="2" Cut="3.4415158629417419e-01" cType="0" res="-3.0381518602371216e-01" rms="1.7399129271507263e-01" purity="3.1824558973312378e-02" nType="0">
          <Node pos="l" depth="2" NCoef="0" IVar="-1" Cut="0.0000000000000000e+00" cType="1" res="-3.4995049238204956e-02" rms="2.9702427983283997e-01" purity="9.9646292626857758e-02" nType="-99"/>
          <Node pos="r" depth="2" NCoef="0" IVar="-1" Cut="0.0000000000000000e+00" cType="1" res="-4.3670620769262314e-02" rms="1.4673571288585663e-01" purity="2.2245258092880249e-02" nType="-99"/>
        </Node>
      </Node>
    </BinaryTree>
    <BinaryTree type="DecisionTree" boostWeight="1.0000000000000000e+00" itree="8">
      <Node pos="s" depth="0" NCoef="0" IVar="0" Cut="8.0024986267089844e+00" cType="1" res="-2.3244275152683258e-01" rms="3.0719077587127686e-01" purity="1.0897565633058548e-01" nType="0">
        <Node pos="l" depth="1" NCoef="0" IVar="-1" Cut="0.0000000000000000e+00" cType="1" res="-2.5935884565114975e-02" rms="3.7846127152442932e-01" purity="1.7395274341106415e-01" nType="-99"/>
        <Node pos="r" depth="1" NCoef="0" IVar="3" Cut="4.3028336763381958e-01" cType="0" res="-2.6932910084724426e-01" rms="2.2947105765342712e-01" purity="5.7613708078861237e-02" nType="0">
          <Node pos="l" depth="2" NCoef="0" IVar="-1" Cut="0.0000000000000000e+00" cType="1" res="-3.2398443669080734e-02" rms="2.8048893809318542e-01" purity="8.8054388761520386e-02" nType="-99"/>
          <Node pos="r" depth="2" NCoef="0" IVar="-1" Cut="0.0000000000000000e+00" cType="1" res="-4.6717677265405655e-02" rms="1.4076344668865204e-01" purity="2.0691642537713051e-02" nType="-99"/>
        </Node>
      </Node>
    </BinaryTree>
    <BinaryTree type="DecisionTree" boostWeight="1.0000000000000000e+00" itree="9">
      <Node pos="s" depth="0" NCoef="0" IVar="0" Cut="1.0003498077392578e+01" cType="1" res="-2.1783158183097839e-01" rms="3.0677780508995056e-01" purity="1.0897565633058548e-01" nType="0">
        <Node pos="l" depth="1" NCoef="0" IVar="-1" Cut="0.0000000000000000e+00" cType="1" res="-2.6413111016154289e-02" rms="3.6123228073120117e-01" purity="1.5591637790203094e-01" nType="-99"/>
        <Node pos="r" depth="1" NCoef="0" IVar="2" Cut="3.2603856921195984e-01" cType="0" res="-2.6856032013893127e-01" rms="1.7374189198017120e-01" purity="3.1824558973312378e-02" nType="0">
          <Node pos="l" depth="2" NCoef="0" IVar="-1" Cut="0.0000000000000000e+00" cType="1" res="-3.3029969781637192e-02" rms="2.8417095541954041e-01" purity="9.0649694204330444e-02" nType="-99"/>
          <Node pos="r" depth="2" NCoef="0" IVar="-1" Cut="0.0000000000000000e+00" cType="1" res="-4.1195612400770187e-02" rms="1.4308139681816101e-01" purity="2.1137820556759834e-02" nType="-99"/>
        </Node>
      </Node>
    </BinaryTree>
    <BinaryTree type="DecisionTree" boostWeight="1.0000000000000000e+00" itree="10">
      <Node pos="s" depth="0" NCoef="0" IVar="3" Cut="3.3433166146278381e-01" cType="0" res="-2.0426008105278015e-01" rms="3.0648750066757202e-01" purity="1.0897565633058548e-01" nType="0">
        <Node pos="l" depth="1" NCoef="0" IVar="-1" Cut="0.0000000000000000e+00" cType="1" res="-2.4565130472183228e-02" rms="3.4446638822555542e-01" purity="1.4215263724327087e-01" nType="-99"/>
        <Node pos="r" depth="1" NCoef="0" IVar="0" Cut="5.0034980773925781e+00" cType="1" res="-2.5830161571502686e-01" rms="2.0591132342815399e-01" purity="4.5793984085321426e-02" nType="0">
          <Node pos="l" depth="2" NCoef="0" IVar="-1" Cut="0.0000000000000000e+00" cType="1" res="-3.5882469266653061e-02" rms="3.0419600009918213e-01" purity="1.0324910283088684e-01" nType="-99"/>
          <Node pos="r" depth="2" NCoef="0" IVar="-1" Cut="0.0000000000000000e+00" cType="1" res="-4.4540852308273315e-02" rms="1.6704350709915161e-01" purity="2.9531888663768768e-02" nType="-99"/>
        </Node>
      </Node>
    </BinaryTree>
    <BinaryTree type="DecisionTree" boostWeight="1.0000000000000000e+00" itree="11">
      <Node pos="s" depth="0" NCoef="0" IVar="0" Cut="8.0024986267089844e+00" cType="1" res="-1.9128516316413879e-01" rms="3.0611452460289001e-01" purity="1.0897565633058548e-01" nType="0">
        <Node pos="l" depth="1" NCoef="0" IVar="-1" Cut="0.0000000000000000e+00" cType="1" res="-2.1870166063308716e-02" rms="3.7791416049003601e-01" purity="1.7395274341106415e-01" nType="-99"/>
        <Node pos="r" depth="1" NCoef="0" IVar="4" Cut="5.1489895582199097e-01" cType="1" res="-2.2496230900287628e-01" rms="2.2872512042522430e-01" purity="5.7613708078861237e-02" nType="0">
          <Node pos="l" depth="2" NCoef="0" IVar="-1" Cut="0.0000000000000000e+00" cType="1" res="-2.2367557510733604e-02" rms="3.4203609824180603e-01" purity="1.4303185045719147e-01" nType="-99"/>
          <Node pos="r" depth="2" NCoef="0" IVar="-1" Cut="0.0000000000000000e+00" cType="1" res="-3.5535432398319244e-02" rms="2.1643032133579254e-01" purity="5.1143616437911987e-02" nType="-99"/>
        </Node>
      </Node>
    </BinaryTree>
    <BinaryTree type="DecisionTree" boostWeight="1.0000000000000000e+00" itree="12">
      <Node pos="s" depth="0" NCoef="0" IVar="0" Cut="1.0003498077392578e+01" cType="1" res="-1.7940200865268707e-01" rms="3.0584967136383057e-01" purity="1.0897565633058548e-01" nType="0">
        <Node pos="l" depth="1" NCoef="0" IVar="-1" Cut="0.0000000000000000e+00" cType="1" res="-2.2581633180379868e-02" rms="3.6056318879127502e-01" purity="1.5591637790203094e-01" nType="-99"/>
        <Node pos="r" depth="1" NCoef="0" IVar="2" Cut="3.5320809483528137e-01" cType="0" res="-2.2628873586654663e-01" rms="1.7343601584434509e-01" purity="3.1824558973312378e-02" nType="0">
          <Node pos="l" depth="2" NCoef="0" IVar="-1" Cut="0.0000000000000000e+00" cType="1" res="-2.7318553999066353e-02" rms="3.0161520838737488e-01" purity="1.0406261682510376e-01" nType="-99"/>
          <Node pos="r" depth="2" NCoef="0" IVar="-1" Cut="0.0000000000000000e+00" cType="1" res="-3.8138128817081451e-02" rms="1.4836347103118896e-01" purity="2.2812066599726677e-02" nType="-99"/>
        </Node>
      </Node>
    </BinaryTree>
    <BinaryTree type="DecisionTree" boostWeight="1.0000000000000000e+00" itree="13">
      <Node pos="s" depth="0" NCoef="0" IVar="3" Cut="3.0434677004814148e-01" cType="0" res="-1.6824719309806824e-01" rms="3.0560818314552307e-01" purity="1.0897565633058548e-01" nType="0">
        <Node pos="l" depth="1" NCoef="0" IVar="-1" Cut="0.0000000000000000e+00" cType="1" res="-2.1686682477593422e-02" rms="3.4028393030166626e-01" purity="1.3892775774002075e-01" nType="-99"/>
        <Node pos="r" depth="1" NCoef="0" IVar="0" Cut="5.0034980773925781e+00" cType="1" res="-2.2370848059654236e-01" rms="1.9449539482593536e-01" purity="4.0577478706836700e-02" nType="0">
          <Node pos="l" depth="2" NCoef="0" IVar="-1" Cut="0.0000000000000000e+00" cType="1" res="-3.3593419939279556e-02" rms="2.9383918642997742e-01" purity="9.5452681183815002e-02" nType="-99"/>
          <Node pos="r" depth="2" NCoef="0" IVar="-1" Cut="0.0000000000000000e+00" cType="1" res="-4.2195409536361694e-02" rms="1.5357351303100586e-01" purity="2.4662928655743599e-02" nType="-99"/>
        </Node>
      </Node>
    </BinaryTree>
    <BinaryTree type="DecisionTree" boostWeight="1.0000000000000000e+00" itree="14">
      <Node pos="s" depth="0" NCoef="0" IVar="0" Cut="1.0003498077392578e+01" cType="1" res="-1.5757292509078979e-01" rms="3.0531668663024902e-01" purity="1.0897565633058548e-01" nType="0">
        <Node pos="l" depth="1" NCoef="0" IVar="-1" Cut="0.0000000000000000e+00" cType="1" res="-2.0288323983550072e-02" rms="3.6011916399002075e-01" purity="1.5591637790203094e-01" nType="-99"/>
        <Node pos="r" depth="1" NCoef="0" IVar="2" Cut="3.1698209047317505e-01" cType="0" res="-2.0252838730812073e-01" rms="1.7329221963882446e-01" purity="3.1824558973312378e-02" nType="0">
          <Node pos="l" depth="2" NCoef="0" IVar="-1" Cut="0.0000000000000000e+00" cType="1" res="-2.7717681601643562e-02" rms="2.7705773711204529e-01" purity="8.6464315652847290e-02" nType="-99"/>
          <Node pos="r" depth="2" NCoef="0" IVar="-1" Cut="0.0000000000000000e+00" cType="1" res="-3.6820989102125168e-02" rms="1.4118832349777222e-01" purity="2.0561344921588898e-02" nType="-99"/>
        </Node>
      </Node>
    </BinaryTree>
    <BinaryTree type="DecisionTree" boostWeight="1.0000000000000000e+00" itree="15">
      <Node pos="s" depth="0" NCoef="0" IVar="3" Cut="3.6281731724739075e-01" cType="0" res="-1.4778973162174225e-01" rms="3.0510181188583374e-01" purity="1.0897565633058548e-01" nType="0">
        <Node pos="l" depth="1" NCoef="0" IVar="-1" Cut="0.0000000000000000e+00" cType="1" res="-1.8672218546271324e-02" rms="3.4639087319374084e-01" purity="1.4487798511981964e-01" nType="-99"/>
        <Node pos="r" depth="1" NCoef="0" IVar="3" Cut="1.8131604883819818e-04" cType="0" res="-1.9158835709095001e-01" rms="2.1515808999538422e-01" purity="5.0656910985708237e-02" nType="0">
          <Node pos="l" depth="2" NCoef="0" IVar="-1" Cut="0.0000000000000000e+00" cType="1" res="-2.9781678691506386e-02" rms="2.7904799580574036e-01" purity="8.9525692164897919e-02" nType="-99"/>
          <Node pos="r" depth="2" NCoef="0" IVar="-1" Cut="0.0000000000000000e+00" cType="1" res="-3.8258608430624008e-02" rms="1.9297662377357483e-01" purity="3.9917245507240295e-02" nType="-99"/>
        </Node>
      </Node>
    </BinaryTree>
    <BinaryTree type="DecisionTree" boostWeight="1.0000000000000000e+00" itree="16">
      <Node pos="s" depth="0" NCoef="0" IVar="0" Cut="8.0024986267089844e+00" cType="1" res="-1.3837273418903351e-01" rms="3.0484384298324585e-01" purity="1.0897565633058548e-01" nType="0">
        <Node pos="l" depth="1" NCoef="0" IVar="-1" Cut="0.0000000000000000e+00" cType="1" res="-1.6120806336402893e-02" rms="3.7695431709289551e-01" purity="1.7395274341106415e-01" nType="-99"/>
        <Node pos="r" depth="1" NCoef="0" IVar="4" Cut="5.1489895582199097e-01" cType="1" res="-1.6890931129455566e-01" rms="2.2793571650981903e-01" purity="5.7613708078861237e-02" nType="0">
          <Node pos="l" depth="2" NCoef="0" IVar="-1" Cut="0.0000000000000000e+00" cType="1" res="-1.6086915507912636e-02" rms="3.4020543098449707e-01" purity="1.4303185045719147e-01" nType="-99"/>
          <Node pos="r" depth="2" NCoef="0" IVar="-1" Cut="0.0000000000000000e+00" cType="1" res="-3.1124966219067574e-02" rms="2.1586599946022034e-01" purity="5.1143616437911987e-02" nType="-99"/>
        </Node>
      </Node>
    </BinaryTree>
    <BinaryTree type="DecisionTree" boostWeight="1.0000000000000000e+00" itree="17">
      <Node pos="s" depth="0" NCoef="0" IVar="0" Cut="1.0003498077392578e+01" cType="1" res="-1.2980729341506958e-01" rms="3.0463433265686035e-01" purity="1.0897565633058548e-01" nType="0">
        <Node pos="l" depth="1" NCoef="0" IVar="-1" Cut="0.0000000000000000e+00" cType="1" res="-1.7228294163942337e-02" rms="3.5958510637283325e-01" purity="1.5591637790203094e-01" nType="-99"/>
        <Node pos="r" depth="1" NCoef="0" IVar="2" Cut="3.6226460337638855e-01" cType="0" res="-1.7192073166370392e-01" rms="1.7308858036994934e-01" purity="3.1824558973312378e-02" nType="0">
          <Node pos="l" depth="2" NCoef="0" IVar="-1" Cut="0.0000000000000000e+00" cType="1" res="-2.1299706771969795e-02" rms="3.0497556924819946e-01" purity="1.0750002413988113e-01" nType="-99"/>
          <Node pos="r" depth="2" NCoef="0" IVar="-1" Cut="0.0000000000000000e+00" cType="1" res="-3.4443557262420654e-02" rms="1.5020883083343506e-01" purity="2.3438025265932083e-02" nType="-99"/>
        </Node>
      </Node>
    </BinaryTree>
    <BinaryTree type="DecisionTree" boostWeight="1.0000000000000000e+00" itree="18">
      <Node pos="s" depth="0" NCoef="0" IVar="3" Cut="3.6281731724739075e-01" cType="0" res="-1.2175921350717545e-01" rms="3.0444815754890442e-01" purity="1.0897565633058548e-01" nType="0">
        <Node pos="l" depth="1" NCoef="0" IVar="-1" Cut="0.0000000000000000e+00" cType="1" res="-1.5893014147877693e-02" rms="3.4581673145294189e-01" purity="1.4487798511981964e-01" nType="-99"/>
        <Node pos="r" depth="1" NCoef="0" IVar="3" Cut="1.8131604883819818e-04" cType="0" res="-1.6305461525917053e-01" rms="2.1502806246280670e-01" purity="5.0656910985708237e-02" nType="0">
          <Node pos="l" depth="2" NCoef="0" IVar="-1" Cut="0.0000000000000000e+00" cType="1" res="-2.6812139898538589e-02" rms="2.7874335646629333e-01" purity="8.9525692164897919e-02" nType="-99"/>
          <Node pos="r" depth="2" NCoef="0" IVar="-1" Cut="0.0000000000000000e+00" cType="1" res="-3.5901352763175964e-02" rms="1.9297708570957184e-01" purity="3.9917245507240295e-02" nType="-99"/>
        </Node>
      </Node>
    </BinaryTree>
    <BinaryTree type="DecisionTree" boostWeight="1.0000000000000000e+00" itree="19">
      <Node pos="s" depth="0" NCoef="0" IVar="0" Cut="9.0029983520507812e+00" cType="1" res="-1.1398271471261978e-01" rms="3.0423125624656677e-01" purity="1.0897565633058548e-01" nType="0">
        <Node pos="l" depth="1" NCoef="0" IVar="-1" Cut="0.0000000000000000e+00" cType="1" res="-1.4394434168934822e-02" rms="3.6715239286422729e-01" purity="1.6394269466400146e-01" nType="-99"/>
        <Node pos="r" depth="1" NCoef="0" IVar="4" Cut="5.1489895582199097e-01" cType="1" res="-1.4878351986408234e-01" rms="2.0142978429794312e-01" purity="4.4251292943954468e-02" nType="0">
          <Node pos="l" depth="2" NCoef="0" IVar="-1" Cut="0.0000000000000000e+00" cType="1" res="-1.6423562541604042e-02" rms="3.1639471650123596e-01" purity="1.2058392912149429e-01" nType="-99"/>
          <Node pos="r" depth="2" NCoef="0" IVar="-1" Cut="0.0000000000000000e+00" cType="1" res="-3.1070630997419357e-02" rms="1.8788900971412659e-01" purity="3.7971597164869308e-02" nType="-99"/>
        </Node>
      </Node>
    </BinaryTree>
    <BinaryTree type="DecisionTree" boostWeight="1.0000000000000000e+00" itree="20">
      <Node pos="s" depth="0" NCoef="0" IVar="0" Cut="8.0024986267089844e+00" cType="1" res="-1.0691982507705688e-01" rms="3.0405557155609131e-01" purity="1.0897565633058548e-01" nType="0">
        <Node pos="l" depth="1" NCoef="0" IVar="-1" Cut="0.0000000000000000e+00" cType="1" res="-1.2556036002933979e-02" rms="3.7658333778381348e-01" purity="1.7395274341106415e-01" nType="-99"/>
        <Node pos="r" depth="1" NCoef="0" IVar="4" Cut="5.1489895582199097e-01" cType="1" res="-1.3402317464351654e-01" rms="2.2751818597316742e-01" purity="5.7613708078861237e-02" nType="0">
          <Node pos="l" depth="2" NCoef="0" IVar="-1" Cut="0.0000000000000000e+00" cType="1" res="-1.2107532471418381e-02" rms="3.3960053324699402e-01" purity="1.4303185045719147e-01" nType="-99"/>
          <Node pos="r" depth="2" NCoef="0" IVar="-1" Cut="0.0000000000000000e+00" cType="1" res="-2.8138542547821999e-02" rms="2.1566744148731232e-01" purity="5.1143616437911987e-02" nType="-99"/>
        </Node>
      </Node>
    </BinaryTree>
    <BinaryTree type="DecisionTree" boostWeight="1.0000000000000000e+00" itree="21">
      <Node pos="s" depth="0" NCoef="0" IVar="3" Cut="3.5682034492492676e-01" cType="0" res="-1.0031469166278839e-01" rms="3.0389779806137085e-01" purity="1.0897565633058548e-01" nType="0">
        <Node pos="l" depth="1" NCoef="0" IVar="-1" Cut="0.0000000000000000e+00" cType="1" res="-1.3472673483192921e-02" rms="3.4474134445190430e-01" purity="1.4432217180728912e-01" nType="-99"/>
        <Node pos="r" depth="1" NCoef="0" IVar="3" Cut="1.7832068260759115e-04" cType="0" res="-1.4013896882534027e-01" rms="2.1300779283046722e-01" purity="4.9670163542032242e-02" nType="0">
          <Node pos="l" depth="2" NCoef="0" IVar="-1" Cut="0.0000000000000000e+00" cType="1" res="-2.4363573640584946e-02" rms="2.7713134884834290e-01" purity="8.8553324341773987e-02" nType="-99"/>
          <Node pos="r" depth="2" NCoef="0" IVar="-1" Cut="0.0000000000000000e+00" cType="1" res="-3.3857259899377823e-02" rms="1.9295932352542877e-01" purity="3.9917245507240295e-02" nType="-99"/>
        </Node>
      </Node>
    </BinaryTree>
    <BinaryTree type="DecisionTree" boostWeight="1.0000000000000000e+00" itree="22">
      <Node pos="s" depth="0" NCoef="0" IVar="0" Cut="1.0003498077392578e+01" cType="1" res="-9.3890123069286346e-02" rms="3.0371189117431641e-01" purity="1.0897565633058548e-01" nType="0">
        <Node pos="l" depth="1" NCoef="0" IVar="-1" Cut="0.0000000000000000e+00" cType="1" res="-1.2764831073582172e-02" rms="3.5874220728874207e-01" purity="1.5591637790203094e-01" nType="-99"/>
        <Node pos="r" depth="1" NCoef="0" IVar="2" Cut="3.4415158629417419e-01" cType="0" res="-1.3285101950168610e-01" rms="1.7286534607410431e-01" purity="3.1824558973312378e-02" nType="0">
          <Node pos="l" depth="2" NCoef="0" IVar="-1" Cut="0.0000000000000000e+00" cType="1" res="-1.7854044213891029e-02" rms="2.9385092854499817e-01" purity="9.9646292626857758e-02" nType="-99"/>
          <Node pos="r" depth="2" NCoef="0" IVar="-1" Cut="0.0000000000000000e+00" cType="1" res="-3.1955458223819733e-02" rms="1.4662428200244904e-01" purity="2.2245258092880249e-02" nType="-99"/>
        </Node>
      </Node>
    </BinaryTree>
    <BinaryTree type="DecisionTree" boostWeight="1.0000000000000000e+00" itree="23">
      <Node pos="s" depth="0" NCoef="0" IVar="3" Cut="3.9130297303199768e-01" cType="0" res="-8.8086344301700592e-02" rms="3.0355170369148254e-01" purity="1.0897565633058548e-01" nType="0">
        <Node pos="l" depth="1" NCoef="0" IVar="-1" Cut="0.0000000000000000e+00" cType="1" res="-1.1515687219798565e-02" rms="3.4741064906120300e-01" purity="1.4708048105239868e-01" nType="-99"/>
        <Node pos="r" depth="1" NCoef="0" IVar="6" Cut="4.9975028634071350e-01" cType="1" res="-1.2236116081476212e-01" rms="2.2357994318008423e-01" purity="5.5395711213350296e-02" nType="0">
          <Node pos="l" depth="2" NCoef="0" IVar="-1" Cut="0.0000000000000000e+00" cType="1" res="-2.1721348166465759e-02" rms="2.8567501902580261e-01" purity="9.4873949885368347e-02" nType="-99"/>
          <Node pos="r" depth="2" NCoef="0" IVar="-1" Cut="0.0000000000000000e+00" cType="1" res="-3.2468467950820923e-02" rms="1.9298779964447021e-01" purity="3.9917245507240295e-02" nType="-99"/>
        </Node>
      </Node>
    </BinaryTree>
    <BinaryTree type="DecisionTree" boostWeight="1.0000000000000000e+00" itree="24">
      <Node pos="s" depth="0" NCoef="0" IVar="0" Cut="1.0003498077392578e+01" cType="1" res="-8.2423739135265350e-02" rms="3.0338457226753235e-01" purity="1.0897565633058548e-01" nType="0">
        <Node pos="l" depth="1" NCoef="0" IVar="-1" Cut="0.0000000000000000e+00" cType="1" res="-1.1195237748324871e-02" rms="3.5845220088958740e-01" purity="1.5591637790203094e-01" nType="-99"/>
        <Node pos="r" depth="1" NCoef="0" IVar="2" Cut="3.5320809483528137e-01" cType="0" res="-1.2015659362077713e-01" rms="1.7277270555496216e-01" purity="3.1824558973312378e-02" nType="0">
          <Node pos="l" depth="2" NCoef="0" IVar="-1" Cut="0.0000000000000000e+00" cType="1" res="-1.5477743931114674e-02" rms="2.9943349957466125e-01" purity="1.0406261682510376e-01" nType="-99"/>
          <Node pos="r" depth="2" NCoef="0" IVar="-1" Cut="0.0000000000000000e+00" cType="1" res="-3.0911199748516083e-02" rms="1.4838820695877075e-01" purity="2.2812066599726677e-02" nType="-99"/>
        </Node>
      </Node>
    </BinaryTree>
    <BinaryTree type="DecisionTree" boostWeight="1.0000000000000000e+00" itree="25">
      <Node pos="s" depth="0" NCoef="0" IVar="0" Cut="8.0024986267089844e+00" cType="1" res="-7.7335119247436523e-02" rms="3.0323365330696106e-01" purity="1.0897565633058548e-01" nType="0">
        <Node pos="l" depth="1" NCoef="0" IVar="-1" Cut="0.0000000000000000e+00" cType="1" res="-8.5554858669638634e-03" rms="3.7588182091712952e-01" purity="1.7395274341106415e-01" nType="-99"/>
        <Node pos="r" depth="1" NCoef="0" IVar="4" Cut="5.1489895582199097e-01" cType="1" res="-1.0235530883073807e-01" rms="2.2701111435890198e-01" purity="5.7613708078861237e-02" nType="0">
          <Node pos="l" depth="2" NCoef="0" IVar="-1" Cut="0.0000000000000000e+00" cType="1" res="-7.0299813523888588e-03" rms="3.3802759647369385e-01" purity="1.4303185045719147e-01" nType="-99"/>
          <Node pos="r" depth="2" NCoef="0" IVar="-1" Cut="0.0000000000000000e+00" cType="1" res="-2.5081301108002663e-02" rms="2.1533732116222382e-01" purity="5.1143616437911987e-02" nType="-99"/>
        </Node>
      </Node>
    </BinaryTree>
    <BinaryTree type="DecisionTree" boostWeight="1.0000000000000000e+00" itree="26">
      <Node pos="s" depth="0" NCoef="0" IVar="3" Cut="3.1783998012542725e-01" cType="0" res="-7.2574324905872345e-02" rms="3.0309620499610901e-01" purity="1.0897565633058548e-01" nType="0">
        <Node pos="l" depth="1" NCoef="0" IVar="-1" Cut="0.0000000000000000e+00" cType="1" res="-1.0475953109562397e-02" rms="3.3999502658843994e-01" purity="1.4049386978149414e-01" nType="-99"/>
        <Node pos="r" depth="1" NCoef="0" IVar="8" Cut="2.9954986572265625e+00" cType="1" res="-1.1271976679563522e-01" rms="1.9918504357337952e-01" purity="4.2811665683984756e-02" nType="0">
          <Node pos="l" depth="2" NCoef="0" IVar="-1" Cut="0.0000000000000000e+00" cType="1" res="-7.5533606112003326e-02" rms="2.3272310197353363e-01" purity="5.9970043599605560e-02" nType="-99"/>
          <Node pos="r" depth="2" NCoef="0" IVar="-1" Cut="0.0000000000000000e+00" cType="1" res="-2.4775337427854538e-02" rms="1.8186889588832855e-01" purity="3.5192791372537613e-02" nType="-99"/>
        </Node>
      </Node>
    </BinaryTree>
    <BinaryTree type="DecisionTree" boostWeight="1.0000000000000000e+00" itree="27">
      <Node pos="s" depth="0" NCoef="0" IVar="0" Cut="1.0003498077392578e+01" cType="1" res="-6.7115128040313721e-02" rms="3.0296805500984192e-01" purity="1.0897565633058548e-01" nType="0">
        <Node pos="l" depth="1" NCoef="0" IVar="-1" Cut="0.0000000000000000e+00" cType="1" res="-8.9356582611799240e-03" rms="3.5810390114784241e-01" purity="1.5591637790203094e-01" nType="-99"/>
        <Node pos="r" depth="1" NCoef="0" IVar="2" Cut="3.1698209047317505e-01" cType="0" res="-1.0298788547515869e-01" rms="1.7266502976417542e-01" purity="3.1824558973312378e-02" nType="0">
          <Node pos="l" depth="2" NCoef="0" IVar="-1" Cut="0.0000000000000000e+00" cType="1" res="-1.6089992597699165e-02" rms="2.7509802579879761e-01" purity="8.6464315652847290e-02" nType="-99"/>
          <Node pos="r" depth="2" NCoef="0" IVar="-1" Cut="0.0000000000000000e+00" cType="1" res="-2.9926059767603874e-02" rms="1.4135605096817017e-01" purity="2.0561344921588898e-02" nType="-99"/>
        </Node>
      </Node>
    </BinaryTree>
    <BinaryTree type="DecisionTree" boostWeight="1.0000000000000000e+00" itree="28">
      <Node pos="s" depth="0" NCoef="0" IVar="0" Cut="7.0019989013671875e+00" cType="1" res="-6.2996268272399902e-02" rms="3.0282834172248840e-01" purity="1.0897565633058548e-01" nType="0">
        <Node pos="l" depth="1" NCoef="0" IVar="-1" Cut="0.0000000000000000e+00" cType="1" res="-4.9985176883637905e-03" rms="3.8206940889358521e-01" purity="1.8139782547950745e-01" nType="-99"/>
        <Node pos="r" depth="1" NCoef="0" IVar="4" Cut="5.1489895582199097e-01" cType="1" res="-8.1902988255023956e-02" rms="2.5114139914512634e-01" purity="7.2182901203632355e-02" nType="0">
          <Node pos="l" depth="2" NCoef="0" IVar="-1" Cut="0.0000000000000000e+00" cType="1" res="-3.1925973598845303e-04" rms="3.5740619897842407e-01" purity="1.6523039340972900e-01" nType="-99"/>
          <Node pos="r" depth="2" NCoef="0" IVar="-1" Cut="0.0000000000000000e+00" cType="1" res="-2.1203713491559029e-02" rms="2.4078629910945892e-01" purity="6.5564595162868500e-02" nType="-99"/>
        </Node>
      </Node>
    </BinaryTree>
    <BinaryTree type="DecisionTree" boostWeight="1.0000000000000000e+00" itree="29">
      <Node pos="s" depth="0" NCoef="0" IVar="0" Cut="1.0003498077392578e+01" cType="1" res="-5.9125822037458420e-02" rms="3.0268982052803040e-01" purity="1.0897565633058548e-01" nType="0">
        <Node pos="l" depth="1" NCoef="0" IVar="-1" Cut="0.0000000000000000e+00" cType="1" res="-7.8471684828400612e-03" rms="3.5801199078559875e-01" purity="1.5591637790203094e-01" nType="-99"/>
        <Node pos="r" depth="1" NCoef="0" IVar="2" Cut="3.7132108211517334e-01" cType="0" res="-9.2541493475437164e-02" rms="1.7248107492923737e-01" purity="3.1824558973312378e-02" nType="0">
          <Node pos="l" depth="2" NCoef="0" IVar="-1" Cut="0.0000000000000000e+00" cType="1" res="-9.7012063488364220e-03" rms="3.0669814348220825e-01" purity="1.1063528060913086e-01" nType="-99"/>
          <Node pos="r" depth="2" NCoef="0" IVar="-1" Cut="0.0000000000000000e+00" cType="1" res="-2.8268028050661087e-02" rms="1.5195384621620178e-01" purity="2.4052811786532402e-02" nType="-99"/>
        </Node>
      </Node>
    </BinaryTree>
    <BinaryTree type="DecisionTree" boostWeight="1.0000000000000000e+00" itree="30">
      <Node pos="s" depth="0" NCoef="0" IVar="3" Cut="3.9130297303199768e-01" cType="0" res="-5.5496525019407272e-02" rms="3.0256918072700500e-01" purity="1.0897565633058548e-01" nType="0">
        <Node pos="l" depth="1" NCoef="0" IVar="-1" Cut="0.0000000000000000e+00" cType="1" res="-6.8078180775046349e-03" rms="3.4633430838584900e-01" purity="1.4708048105239868e-01" nType="-99"/>
        <Node pos="r" depth="1" NCoef="0" IVar="6" Cut="4.9975028634071350e-01" cType="1" res="-8.6696758866310120e-02" rms="2.2349382936954498e-01" purity="5.5395711213350296e-02" nType="0">
          <Node pos="l" depth="2" NCoef="0" IVar="-1" Cut="0.0000000000000000e+00" cType="1" res="-1.6754420474171638e-02" rms="2.8509381413459778e-01" purity="9.4873949885368347e-02" nType="-99"/>
          <Node pos="r" depth="2" NCoef="0" IVar="-1" Cut="0.0000000000000000e+00" cType="1" res="-2.8210250660777092e-02" rms="1.9339393079280853e-01" purity="3.9917245507240295e-02" nType="-99"/>
        </Node>
      </Node>
    </BinaryTree>
    <BinaryTree type="DecisionTree" boostWeight="1.0000000000000000e+00" itree="31">
      <Node pos="s" depth="0" NCoef="0" IVar="0" Cut="9.0029983520507812e+00" cType="1" res="-5.1916323602199554e-02" rms="3.0243179202079773e-01" purity="1.0897565633058548e-01" nType="0">
        <Node pos="l" depth="1" NCoef="0" IVar="-1" Cut="0.0000000000000000e+00" cType="1" res="-5.8170994743704796e-03" rms="3.6575895547866821e-01" purity="1.6394269466400146e-01" nType="-99"/>
        <Node pos="r" depth="1" NCoef="0" IVar="4" Cut="5.1489895582199097e-01" cType="1" res="-7.9474925994873047e-02" rms="2.0058548450469971e-01" purity="4.4251292943954468e-02" nType="0">
          <Node pos="l" depth="2" NCoef="0" IVar="-1" Cut="0.0000000000000000e+00" cType="1" res="-6.7128865048289299e-03" rms="3.1384319067001343e-01" purity="1.2058392912149429e-01" nType="-99"/>
          <Node pos="r" depth="2" NCoef="0" IVar="-1" Cut="0.0000000000000000e+00" cType="1" res="-2.4405427277088165e-02" rms="1.8759272992610931e-01" purity="3.7971597164869308e-02" nType="-99"/>
        </Node>
      </Node>
    </BinaryTree>
    <BinaryTree type="DecisionTree" boostWeight="1.0000000000000000e+00" itree="32">
      <Node pos="s" depth="0" NCoef="0" IVar="3" Cut="4.0929391980171204e-01" cType="0" res="-4.8729389905929565e-02" rms="3.0232158303260803e-01" purity="1.0897565633058548e-01" nType="0">
        <Node pos="l" depth="1" NCoef="0" IVar="-1" Cut="0.0000000000000000e+00" cType="1" res="-5.5969827808439732e-03" rms="3.4746453166007996e-01" purity="1.4830823242664337e-01" nType="-99"/>
        <Node pos="r" depth="1" NCoef="0" IVar="0" Cut="7.0019989013671875e+00" cType="1" res="-7.6958827674388885e-02" rms="2.2837193310260773e-01" purity="5.8250159025192261e-02" nType="0">
          <Node pos="l" depth="2" NCoef="0" IVar="-1" Cut="0.0000000000000000e+00" cType="1" res="-1.3838021084666252e-02" rms="3.1795239448547363e-01" purity="1.1577493697404861e-01" nType="-99"/>
          <Node pos="r" depth="2" NCoef="0" IVar="-1" Cut="0.0000000000000000e+00" cType="1" res="-2.9789345338940620e-02" rms="1.5848444402217865e-01" purity="2.6840656995773315e-02" nType="-99"/>
        </Node>
      </Node>
    </BinaryTree>
    <BinaryTree type="DecisionTree" boostWeight="1.0000000000000000e+00" itree="33">
      <Node pos="s" depth="0" NCoef="0" IVar="0" Cut="1.0003498077392578e+01" cType="1" res="-4.5579850673675537e-02" rms="3.0219131708145142e-01" purity="1.0897565633058548e-01" nType="0">
        <Node pos="l" depth="1" NCoef="0" IVar="-1" Cut="0.0000000000000000e+00" cType="1" res="-5.6290552020072937e-03" rms="3.5755190253257751e-01" purity="1.5591637790203094e-01" nType="-99"/>
        <Node pos="r" depth="1" NCoef="0" IVar="2" Cut="3.1698209047317505e-01" cType="0" res="-7.6990142464637756e-02" rms="1.7234489321708679e-01" purity="3.1824558973312378e-02" nType="0">
          <Node pos="l" depth="2" NCoef="0" IVar="-1" Cut="0.0000000000000000e+00" cType="1" res="-1.1623772792518139e-02" rms="2.7435603737831116e-01" purity="8.6464315652847290e-02" nType="-99"/>
          <Node pos="r" depth="2" NCoef="0" IVar="-1" Cut="0.0000000000000000e+00" cType="1" res="-2.7632363140583038e-02" rms="1.4131096005439758e-01" purity="2.0561344921588898e-02" nType="-99"/>
        </Node>
      </Node>
    </BinaryTree>
    <BinaryTree type="DecisionTree" boostWeight="1.0000000000000000e+00" itree="34">
      <Node pos="s" depth="0" NCoef="0" IVar="6" Cut="4.9975016713142395e-01" cType="1" res="-4.2794801294803619e-02" rms="3.0207809805870056e-01" purity="1.0897565633058548e-01" nType="0">
        <Node pos="l" depth="1" NCoef="0" IVar="-1" Cut="0.0000000000000000e+00" cType="1" res="-6.0793287120759487e-03" rms="3.3670264482498169e-01" purity="1.3836845755577087e-01" nType="-99"/>
        <Node pos="r" depth="1" NCoef="0" IVar="8" Cut="2.9954986572265625e+00" cType="1" res="-7.9499758780002594e-02" rms="1.9330139458179474e-01" purity="3.9917245507240295e-02" nType="0">
          <Node pos="l" depth="2" NCoef="0" IVar="-1" Cut="0.0000000000000000e+00" cType="1" res="-5.7452570647001266e-02" rms="2.2817854583263397e-01" purity="5.7454068213701248e-02" nType="-99"/>
          <Node pos="r" depth="2" NCoef="0" IVar="-1" Cut="0.0000000000000000e+00" cType="1" res="-2.2797726094722748e-02" rms="1.7468906939029694e-01" purity="3.2172676175832748e-02" nType="-99"/>
        </Node>
      </Node>
    </BinaryTree>
    <BinaryTree type="DecisionTree" boostWeight="1.0000000000000000e+00" itree="35">
      <Node pos="s" depth="0" NCoef="0" IVar="0" Cut="8.0024986267089844e+00" cType="1" res="-3.9656840264797211e-02" rms="3.0199557542800903e-01" purity="1.0897565633058548e-01" nType="0">
        <Node pos="l" depth="1" NCoef="0" IVar="-1" Cut="0.0000000000000000e+00" cType="1" res="-2.6686852797865868e-03" rms="3.7485462427139282e-01" purity="1.7395274341106415e-01" nType="-99"/>
        <Node pos="r" depth="1" NCoef="0" IVar="4" Cut="5.1489895582199097e-01" cType="1" res="-6.0962926596403122e-02" rms="2.2625581920146942e-01" purity="5.7613708078861237e-02" nType="0">
          <Node pos="l" depth="2" NCoef="0" IVar="-1" Cut="0.0000000000000000e+00" cType="1" res="7.3230668203905225e-04" rms="3.3564981818199158e-01" purity="1.4303185045719147e-01" nType="-99"/>
          <Node pos="r" depth="2" NCoef="0" IVar="-1" Cut="0.0000000000000000e+00" cType="1" res="-1.9697234034538269e-02" rms="2.1495376527309418e-01" purity="5.1143616437911987e-02" nType="-99"/>
        </Node>
      </Node>
    </BinaryTree>
    <BinaryTree type="DecisionTree" boostWeight="1.0000000000000000e+00" itree="36">
      <Node pos="s" depth="0" NCoef="0" IVar="0" Cut="1.0003498077392578e+01" cType="1" res="-3.7253011018037796e-02" rms="3.0188441276550293e-01" purity="1.0897565633058548e-01" nType="0">
        <Node pos="l" depth="1" NCoef="0" IVar="-1" Cut="0.0000000000000000e+00" cType="1" res="-4.1897422634065151e-03" rms="3.5730168223381042e-01" purity="1.5591637790203094e-01" nType="-99"/>
        <Node pos="r" depth="1" NCoef="0" IVar="2" Cut="3.5320809483528137e-01" cType="0" res="-6.7076332867145538e-02" rms="1.7222946882247925e-01" purity="3.1824558973312378e-02" nType="0">
          <Node pos="l" depth="2" NCoef="0" IVar="-1" Cut="0.0000000000000000e+00" cType="1" res="-6.0541983693838120e-03" rms="2.9769235849380493e-01" purity="1.0406261682510376e-01" nType="-99"/>
          <Node pos="r" depth="2" NCoef="0" IVar="-1" Cut="0.0000000000000000e+00" cType="1" res="-2.5898691266775131e-02" rms="1.4834095537662506e-01" purity="2.2812066599726677e-02" nType="-99"/>
        </Node>
      </Node>
    </BinaryTree>
    <BinaryTree type="DecisionTree" boostWeight="1.0000000000000000e+00" itree="37">
      <Node pos="s" depth="0" NCoef="0" IVar="3" Cut="3.6281731724739075e-01" cType="0" res="-3.4985858947038651e-02" rms="3.0177655816078186e-01" purity="1.0897565633058548e-01" nType="0">
        <Node pos="l" depth="1" NCoef="0" IVar="-1" Cut="0.0000000000000000e+00" cType="1" res="-3.8602726999670267e-03" rms="3.4335434436798096e-01" purity="1.4487798511981964e-01" nType="-99"/>
        <Node pos="r" depth="1" NCoef="0" IVar="8" Cut="2.9954986572265625e+00" cType="1" res="-6.3951931893825531e-02" rms="2.1480876207351685e-01" purity="5.0656910985708237e-02" nType="0">
          <Node pos="l" depth="2" NCoef="0" IVar="-1" Cut="0.0000000000000000e+00" cType="1" res="-4.4949643313884735e-02" rms="2.4106654524803162e-01" purity="6.5064541995525360e-02" nType="-99"/>
          <Node pos="r" depth="2" NCoef="0" IVar="-1" Cut="0.0000000000000000e+00" cType="1" res="-1.9296787679195404e-02" rms="2.0119744539260864e-01" purity="4.4241096824407578e-02" nType="-99"/>
        </Node>
      </Node>
    </BinaryTree>
    <BinaryTree type="DecisionTree" boostWeight="1.0000000000000000e+00" itree="38">
      <Node pos="s" depth="0" NCoef="0" IVar="3" Cut="1.1274323463439941e+00" cType="1" res="-3.2364644110202789e-02" rms="3.0171146988868713e-01" purity="1.0897565633058548e-01" nType="0">
        <Node pos="l" depth="1" NCoef="0" IVar="-1" Cut="0.0000000000000000e+00" cType="1" res="-6.2699699774384499e-03" rms="3.0762171745300293e-01" purity="1.1507567018270493e-01" nType="-99"/>
        <Node pos="r" depth="1" NCoef="0" IVar="6" Cut="7.0919329300522804e-03" cType="1" res="-8.5145242512226105e-02" rms="2.6110091805458069e-01" purity="7.5848728418350220e-02" nType="0">
          <Node pos="l" depth="2" NCoef="0" IVar="-1" Cut="0.0000000000000000e+00" cType="1" res="4.3920055031776428e-03" rms="3.8371023535728455e-01" purity="1.9023603200912476e-01" nType="-99"/>
          <Node pos="r" depth="2" NCoef="0" IVar="-1" Cut="0.0000000000000000e+00" cType="1" res="-1.9407184794545174e-02" rms="2.4380759894847870e-01" purity="6.4986675977706909e-02" nType="-99"/>
        </Node>
      </Node>
    </BinaryTree>
    <BinaryTree type="DecisionTree" boostWeight="1.0000000000000000e+00" itree="39">
      <Node pos="s" depth="0" NCoef="0" IVar="0" Cut="1.0003498077392578e+01" cType="1" res="-3.0432563275098801e-02" rms="3.0165374279022217e-01" purity="1.0897565633058548e-01" nType="0">
        <Node pos="l" depth="1" NCoef="0" IVar="-1" Cut="0.0000000000000000e+00" cType="1" res="-2.8163315728306770e-03" rms="3.5704329609870911e-01" purity="1.5591637790203094e-01" nType="-99"/>
        <Node pos="r" depth="1" NCoef="0" IVar="2" Cut="2.8981256484985352e-01" cType="0" res="-5.9934690594673157e-02" rms="1.7213067412376404e-01" purity="3.1824558973312378e-02" nType="0">
          <Node pos="l" depth="2" NCoef="0" IVar="-1" Cut="0.0000000000000000e+00" cType="1" res="-1.0593026876449585e-02" rms="2.5531005859375000e-01" purity="7.4092365801334381e-02" nType="-99"/>
          <Node pos="r" depth="2" NCoef="0" IVar="-1" Cut="0.0000000000000000e+00" cType="1" res="-2.6193790137767792e-02" rms="1.3590453565120697e-01" purity="1.8946401774883270e-02" nType="-99"/>
        </Node>
      </Node>
    </BinaryTree>
    <BinaryTree type="DecisionTree" boostWeight="1.0000000000000000e+00" itree="40">
      <Node pos="s" depth="0" NCoef="0" IVar="0" Cut="7.0019989013671875e+00" cType="1" res="-2.8592215850949287e-02" rms="3.0154654383659363e-01" purity="1.0897565633058548e-01" nType="0">
        <Node pos="l" depth="1" NCoef="0" IVar="-1" Cut="0.0000000000000000e+00" cType="1" res="4.7294146497733891e-04" rms="3.8124567270278931e-01" purity="1.8139782547950745e-01" nType="-99"/>
        <Node pos="r" depth="1" NCoef="0" IVar="4" Cut="5.1489895582199097e-01" cType="1" res="-4.4232983142137527e-02" rms="2.5011616945266724e-01" purity="7.2182901203632355e-02" nType="0">
          <Node pos="l" depth="2" NCoef="0" IVar="-1" Cut="0.0000000000000000e+00" cType="1" res="8.5900072008371353e-03" rms="3.5449263453483582e-01" purity="1.6523039340972900e-01" nType="-99"/>
          <Node pos="r" depth="2" NCoef="0" IVar="-1" Cut="0.0000000000000000e+00" cType="1" res="-1.5255904756486416e-02" rms="2.4009126424789429e-01" purity="6.5564595162868500e-02" nType="-99"/>
        </Node>
      </Node>
    </BinaryTree>
    <BinaryTree type="DecisionTree" boostWeight="1.0000000000000000e+00" itree="41">
      <Node pos="s" depth="0" NCoef="0" IVar="3" Cut="3.0434677004814148e-01" cType="0" res="-2.6859480887651443e-02" rms="3.0142879486083984e-01" purity="1.0897565633058548e-01" nType="0">
        <Node pos="l" depth="1" NCoef="0" IVar="-1" Cut="0.0000000000000000e+00" cType="1" res="-2.9432473238557577e-03" rms="3.3655568957328796e-01" purity="1.3892775774002075e-01" nType="-99"/>
        <Node pos="r" depth="1" NCoef="0" IVar="8" Cut="2.9954986572265625e+00" cType="1" res="-6.0379993170499802e-02" rms="1.9510917365550995e-01" purity="4.0577478706836700e-02" nType="0">
          <Node pos="l" depth="2" NCoef="0" IVar="-1" Cut="0.0000000000000000e+00" cType="1" res="-3.9057787507772446e-02" rms="2.2956228256225586e-01" purity="5.8167167007923126e-02" nType="-99"/>
          <Node pos="r" depth="2" NCoef="0" IVar="-1" Cut="0.0000000000000000e+00" cType="1" res="-2.1074922755360603e-02" rms="1.7616103589534760e-01" purity="3.2801929861307144e-02" nType="-99"/>
        </Node>
      </Node>
    </BinaryTree>
    <BinaryTree type="DecisionTree" boostWeight="1.0000000000000000e+00" itree="42">
      <Node pos="s" depth="0" NCoef="0" IVar="0" Cut="1.1003997802734375e+01" cType="1" res="-2.4960363283753395e-02" rms="3.0134767293930054e-01" purity="1.0897565633058548e-01" nType="0">
        <Node pos="l" depth="1" NCoef="0" IVar="-1" Cut="0.0000000000000000e+00" cType="1" res="-2.6228043716400862e-03" rms="3.4309348464012146e-01" purity="1.4335080981254578e-01" nType="-99"/>
        <Node pos="r" depth="1" NCoef="0" IVar="2" Cut="3.4161242842674255e-01" cType="0" res="-5.9593837708234787e-02" rms="1.5263320505619049e-01" purity="2.4868734180927277e-02" nType="0">
          <Node pos="l" depth="2" NCoef="0" IVar="-1" Cut="0.0000000000000000e+00" cType="1" res="-5.0922282971441746e-03" rms="2.8640940785408020e-01" purity="9.6126578748226166e-02" nType="-99"/>
          <Node pos="r" depth="2" NCoef="0" IVar="-1" Cut="0.0000000000000000e+00" cType="1" res="-2.6652978733181953e-02" rms="1.2791487574577332e-01" purity="1.6746995970606804e-02" nType="-99"/>
        </Node>
      </Node>
    </BinaryTree>
    <BinaryTree type="DecisionTree" boostWeight="1.0000000000000000e+00" itree="43">
      <Node pos="s" depth="0" NCoef="0" IVar="3" Cut="1.1274323463439941e+00" cType="1" res="-2.3445140570402145e-02" rms="3.0125007033348083e-01" purity="1.0897565633058548e-01" nType="0">
        <Node pos="l" depth="1" NCoef="0" IVar="-1" Cut="0.0000000000000000e+00" cType="1" res="-4.1415388695895672e-03" rms="3.0722340941429138e-01" purity="1.1507567018270493e-01" nType="-99"/>
        <Node pos="r" depth="1" NCoef="0" IVar="6" Cut="7.0919329300522804e-03" cType="1" res="-7.3877900838851929e-02" rms="2.6077106595039368e-01" purity="7.5848728418350220e-02" nType="0">
          <Node pos="l" depth="2" NCoef="0" IVar="-1" Cut="0.0000000000000000e+00" cType="1" res="5.5354209616780281e-03" rms="3.8304910063743591e-01" purity="1.9023603200912476e-01" nType="-99"/>
          <Node pos="r" depth="2" NCoef="0" IVar="-1" Cut="0.0000000000000000e+00" cType="1" res="-1.8151720985770226e-02" rms="2.4379086494445801e-01" purity="6.4986675977706909e-02" nType="-99"/>
        </Node>
      </Node>
    </BinaryTree>
    <BinaryTree type="DecisionTree" boostWeight="1.0000000000000000e+00" itree="44">
      <Node pos="s" depth="0" NCoef="0" IVar="3" Cut="4.2578563094139099e-01" cType="0" res="-2.2065520286560059e-02" rms="3.0118075013160706e-01" purity="1.0897565633058548e-01" nType="0">
        <Node pos="l" depth="1" NCoef="0" IVar="-1" Cut="0.0000000000000000e+00" cType="1" res="-5.2129442337900400e-04" rms="3.4718120098114014e-01" purity="1.4931339025497437e-01" nType="-99"/>
        <Node pos="r" depth="1" NCoef="0" IVar="8" Cut="2.9934997558593750e+00" cType="1" res="-4.5787103474140167e-02" rms="2.3244759440422058e-01" purity="6.0767207294702530e-02" nType="0">
          <Node pos="l" depth="2" NCoef="0" IVar="-1" Cut="0.0000000000000000e+00" cType="1" res="-2.9340641573071480e-02" rms="2.5150966644287109e-01" purity="7.1721710264682770e-02" nType="-99"/>
          <Node pos="r" depth="2" NCoef="0" IVar="-1" Cut="0.0000000000000000e+00" cType="1" res="-1.5205446630716324e-02" rms="2.2289328277111053e-01" purity="5.5940400809049606e-02" nType="-99"/>
        </Node>
      </Node>
    </BinaryTree>
    <BinaryTree type="DecisionTree" boostWeight="1.0000000000000000e+00" itree="45">
      <Node pos="s" depth="0" NCoef="0" IVar="0" Cut="9.0029983520507812e+00" cType="1" res="-2.0392471924424171e-02" rms="3.0111715197563171e-01" purity="1.0897565633058548e-01" nType="0">
        <Node pos="l" depth="1" NCoef="0" IVar="-1" Cut="0.0000000000000000e+00" cType="1" res="-6.5941589127760381e-05" rms="3.6454030871391296e-01" purity="1.6394269466400146e-01" nType="-99"/>
        <Node pos="r" depth="1" NCoef="0" IVar="4" Cut="5.1489895582199097e-01" cType="1" res="-4.4066756963729858e-02" rms="1.9980685412883759e-01" purity="4.4251292943954468e-02" nType="0">
          <Node pos="l" depth="2" NCoef="0" IVar="-1" Cut="0.0000000000000000e+00" cType="1" res="1.1864290572702885e-03" rms="3.1107023358345032e-01" purity="1.2058392912149429e-01" nType="-99"/>
          <Node pos="r" depth="2" NCoef="0" IVar="-1" Cut="0.0000000000000000e+00" cType="1" res="-1.8893701955676079e-02" rms="1.8719556927680969e-01" purity="3.7971597164869308e-02" nType="-99"/>
        </Node>
      </Node>
    </BinaryTree>
    <BinaryTree type="DecisionTree" boostWeight="1.0000000000000000e+00" itree="46">
      <Node pos="s" depth="0" NCoef="0" IVar="3" Cut="1.0929497480392456e+00" cType="1" res="-1.9164353609085083e-02" rms="3.0101990699768066e-01" purity="1.0897565633058548e-01" nType="0">
        <Node pos="l" depth="1" NCoef="0" IVar="-1" Cut="0.0000000000000000e+00" cType="1" res="-2.9621762223541737e-03" rms="3.0701726675033569e-01" purity="1.1511693149805069e-01" nType="-99"/>
        <Node pos="r" depth="1" NCoef="0" IVar="6" Cut="8.8897468522191048e-03" cType="1" res="-6.6972769796848297e-02" rms="2.6306381821632385e-01" purity="7.7519103884696960e-02" nType="0">
          <Node pos="l" depth="2" NCoef="0" IVar="-1" Cut="0.0000000000000000e+00" cType="1" res="6.0271932743489742e-03" rms="3.8239222764968872e-01" purity="1.8982663750648499e-01" nType="-99"/>
          <Node pos="r" depth="2" NCoef="0" IVar="-1" Cut="0.0000000000000000e+00" cType="1" res="-1.7717011272907257e-02" rms="2.4212478101253510e-01" purity="6.3967607915401459e-02" nType="-99"/>
        </Node>
      </Node>
    </BinaryTree>
    <BinaryTree type="DecisionTree" boostWeight="1.0000000000000000e+00" itree="47">
      <Node pos="s" depth="0" NCoef="0" IVar="0" Cut="1.0003498077392578e+01" cType="1" res="-1.8052095547318459e-02" rms="3.0093544721603394e-01" purity="1.0897565633058548e-01" nType="0">
        <Node pos="l" depth="1" NCoef="0" IVar="-1" Cut="0.0000000000000000e+00" cType="1" res="-3.6870589246973395e-04" rms="3.5636639595031738e-01" purity="1.5591637790203094e-01" nType="-99"/>
        <Node pos="r" depth="1" NCoef="0" IVar="2" Cut="3.6226460337638855e-01" cType="0" res="-4.5174185186624527e-02" rms="1.7174156010150909e-01" purity="3.1824558973312378e-02" nType="0">
          <Node pos="l" depth="2" NCoef="0" IVar="-1" Cut="0.0000000000000000e+00" cType="1" res="3.0921620782464743e-04" rms="3.0100718140602112e-01" purity="1.0750002413988113e-01" nType="-99"/>
          <Node pos="r" depth="2" NCoef="0" IVar="-1" Cut="0.0000000000000000e+00" cType="1" res="-2.2532595321536064e-02" rms="1.4987064898014069e-01" purity="2.3438025265932083e-02" nType="-99"/>
        </Node>
      </Node>
    </BinaryTree>
    <BinaryTree type="DecisionTree" boostWeight="1.0000000000000000e+00" itree="48">
      <Node pos="s" depth="0" NCoef="0" IVar="6" Cut="4.9975016713142395e-01" cType="1" res="-1.6972480341792107e-02" rms="3.0083367228507996e-01" purity="1.0897565633058548e-01" nType="0">
        <Node pos="l" depth="1" NCoef="0" IVar="-1" Cut="0.0000000000000000e+00" cType="1" res="-8.0283620627596974e-04" rms="3.3522260189056396e-01" purity="1.3836845755577087e-01" nType="-99"/>
        <Node pos="r" depth="1" NCoef="0" IVar="8" Cut="2.9954986572265625e+00" cType="1" res="-4.9486216157674789e-02" rms="1.9391359388828278e-01" purity="3.9917245507240295e-02" nType="0">
          <Node pos="l" depth="2" NCoef="0" IVar="-1" Cut="0.0000000000000000e+00" cType="1" res="-2.6315314695239067e-02" rms="2.2849640250205994e-01" purity="5.7454068213701248e-02" nType="-99"/>
          <Node pos="r" depth="2" NCoef="0" IVar="-1" Cut="0.0000000000000000e+00" cType="1" res="-2.0008435472846031e-02" rms="1.7466600239276886e-01" purity="3.2172676175832748e-02" nType="-99"/>
        </Node>
      </Node>
    </BinaryTree>
    <BinaryTree type="DecisionTree" boostWeight="1.0000000000000000e+00" itree="49">
      <Node pos="s" depth="0" NCoef="0" IVar="0" Cut="8.0024986267089844e+00" cType="1" res="-1.5820832923054695e-02" rms="3.0073994398117065e-01" purity="1.0897565633058548e-01" nType="0">
        <Node pos="l" depth="1" NCoef="0" IVar="-1" Cut="0.0000000000000000e+00" cType="1" res="1.6499471385031939e-03" rms="3.7371325492858887e-01" purity="1.7395274341106415e-01" nType="-99"/>
        <Node pos="r" depth="1" NCoef="0" IVar="4" Cut="5.1489895582199097e-01" cType="1" res="-3.4030865877866745e-02" rms="2.2536447644233704e-01" purity="5.7613708078861237e-02" nType="0">
          <Node pos="l" depth="2" NCoef="0" IVar="-1" Cut="0.0000000000000000e+00" cType="1" res="7.4999714270234108e-03" rms="3.3276420831680298e-01" purity="1.4303185045719147e-01" nType="-99"/>
          <Node pos="r" depth="2" NCoef="0" IVar="-1" Cut="0.0000000000000000e+00" cType="1" res="-1.4527222141623497e-02" rms="2.1441324055194855e-01" purity="5.1143616437911987e-02" nType="-99"/>
        </Node>
      </Node>
    </BinaryTree>
    <BinaryTree type="DecisionTree" boostWeight="1.0000000000000000e+00" itree="50">
      <Node pos="s" depth="0" NCoef="0" IVar="3" Cut="1.0929497480392456e+00" cType="1" res="-1.4887021854519844e-02" rms="3.0064147710800171e-01" purity="1.0897565633058548e-01" nType="0">
        <Node pos="l" depth="1" NCoef="0" IVar="-1" Cut="0.0000000000000000e+00" cType="1" res="-1.8397121457383037e-03" rms="3.0668926239013672e-01" purity="1.1511693149805069e-01" nType="-99"/>
        <Node pos="r" depth="1" NCoef="0" IVar="6" Cut="8.8897468522191048e-03" cType="1" res="-6.0765586793422699e-02" rms="2.6278471946716309e-01" purity="7.7519103884696960e-02" nType="0">
          <Node pos="l" depth="2" NCoef="0" IVar="-1" Cut="0.0000000000000000e+00" cType="1" res="6.2609431333839893e-03" rms="3.8195481896400452e-01" purity="1.8982663750648499e-01" nType="-99"/>
          <Node pos="r" depth="2" NCoef="0" IVar="-1" Cut="0.0000000000000000e+00" cType="1" res="-1.6893995925784111e-02" rms="2.4214726686477661e-01" purity="6.3967607915401459e-02" nType="-99"/>
        </Node>
      </Node>
    </BinaryTree>
    <BinaryTree type="DecisionTree" boostWeight="1.0000000000000000e+00" itree="51">
      <Node pos="s" depth="0" NCoef="0" IVar="3" Cut="4.1828939318656921e-01" cType="0" res="-1.4037643559277058e-02" rms="3.0055373907089233e-01" purity="1.0897565633058548e-01" nType="0">
        <Node pos="l" depth="1" NCoef="0" IVar="-1" Cut="0.0000000000000000e+00" cType="1" res="1.1363149387761950e-03" rms="3.4588924050331116e-01" purity="1.4889657497406006e-01" nType="-99"/>
        <Node pos="r" depth="1" NCoef="0" IVar="8" Cut="2.9954986572265625e+00" cType="1" res="-3.7090532481670380e-02" rms="2.3052318394184113e-01" purity="5.9623759239912033e-02" nType="0">
          <Node pos="l" depth="2" NCoef="0" IVar="-1" Cut="0.0000000000000000e+00" cType="1" res="-1.9038671627640724e-02" rms="2.5042897462844849e-01" purity="7.0997826755046844e-02" nType="-99"/>
          <Node pos="r" depth="2" NCoef="0" IVar="-1" Cut="0.0000000000000000e+00" cType="1" res="-1.4080171473324299e-02" rms="2.2040632367134094e-01" purity="5.4597605019807816e-02" nType="-99"/>
        </Node>
      </Node>
    </BinaryTree>
    <BinaryTree type="DecisionTree" boostWeight="1.0000000000000000e+00" itree="52">
      <Node pos="s" depth="0" NCoef="0" IVar="0" Cut="1.1003997802734375e+01" cType="1" res="-1.3024808838963509e-02" rms="3.0047765374183655e-01" purity="1.0897565633058548e-01" nType="0">
        <Node pos="l" depth="1" NCoef="0" IVar="-1" Cut="0.0000000000000000e+00" cType="1" res="4.0078034544421826e-06" rms="3.4223607182502747e-01" purity="1.4335080981254578e-01" nType="-99"/>
        <Node pos="r" depth="1" NCoef="0" IVar="2" Cut="3.4161242842674255e-01" cType="0" res="-4.4931102544069290e-02" rms="1.5226802229881287e-01" purity="2.4868734180927277e-02" nType="0">
          <Node pos="l" depth="2" NCoef="0" IVar="-1" Cut="0.0000000000000000e+00" cType="1" res="-1.2801019474864006e-03" rms="2.8544220328330994e-01" purity="9.6126578748226166e-02" nType="-99"/>
          <Node pos="r" depth="2" NCoef="0" IVar="-1" Cut="0.0000000000000000e+00" cType="1" res="-2.4623405188322067e-02" rms="1.2777017056941986e-01" purity="1.6746995970606804e-02" nType="-99"/>
        </Node>
      </Node>
    </BinaryTree>
    <BinaryTree type="DecisionTree" boostWeight="1.0000000000000000e+00" itree="53">
      <Node pos="s" depth="0" NCoef="0" IVar="3" Cut="1.1544187068939209e+00" cType="1" res="-1.2245673686265945e-02" rms="3.0038198828697205e-01" purity="1.0897565633058548e-01" nType="0">
        <Node pos="l" depth="1" NCoef="0" IVar="-1" Cut="0.0000000000000000e+00" cType="1" res="-1.2464344035834074e-03" rms="3.0643513798713684e-01" purity="1.1500828713178635e-01" nType="-99"/>
        <Node pos="r" depth="1" NCoef="0" IVar="6" Cut="7.0919329300522804e-03" cType="1" res="-5.9214089065790176e-02" rms="2.5844010710716248e-01" purity="7.4743710458278656e-02" nType="0">
          <Node pos="l" depth="2" NCoef="0" IVar="-1" Cut="0.0000000000000000e+00" cType="1" res="4.1375295259058475e-03" rms="3.7639340758323669e-01" purity="1.8273349106311798e-01" nType="-99"/>
          <Node pos="r" depth="2" NCoef="0" IVar="-1" Cut="0.0000000000000000e+00" cType="1" res="-1.6123505309224129e-02" rms="2.4298998713493347e-01" purity="6.4538970589637756e-02" nType="-99"/>
        </Node>
      </Node>
    </BinaryTree>
    <BinaryTree type="DecisionTree" boostWeight="1.0000000000000000e+00" itree="54">
      <Node pos="s" depth="0" NCoef="0" IVar="3" Cut="3.3433166146278381e-01" cType="0" res="-1.1556382291018963e-02" rms="3.0030679702758789e-01" purity="1.0897565633058548e-01" nType="0">
        <Node pos="l" depth="1" NCoef="0" IVar="-1" Cut="0.0000000000000000e+00" cType="1" res="7.6937983976677060e-04" rms="3.3864861726760864e-01" purity="1.4215263724327087e-01" nType="-99"/>
        <Node pos="r" depth="1" NCoef="0" IVar="8" Cut="2.9954986572265625e+00" cType="1" res="-3.9226550608873367e-02" rms="2.0581927895545959e-01" purity="4.5793984085321426e-02" nType="0">
          <Node pos="l" depth="2" NCoef="0" IVar="-1" Cut="0.0000000000000000e+00" cType="1" res="-1.5696983784437180e-02" rms="2.3568446934223175e-01" purity="6.1599820852279663e-02" nType="-99"/>
          <Node pos="r" depth="2" NCoef="0" IVar="-1" Cut="0.0000000000000000e+00" cType="1" res="-1.7237445339560509e-02" rms="1.8958120048046112e-01" purity="3.8752473890781403e-02" nType="-99"/>
        </Node>
      </Node>
    </BinaryTree>
    <BinaryTree type="DecisionTree" boostWeight="1.0000000000000000e+00" itree="55">
      <Node pos="s" depth="0" NCoef="0" IVar="0" Cut="1.0003498077392578e+01" cType="1" res="-1.0801293887197971e-02" rms="3.0021435022354126e-01" purity="1.0897565633058548e-01" nType="0">
        <Node pos="l" depth="1" NCoef="0" IVar="-1" Cut="0.0000000000000000e+00" cType="1" res="1.1451930040493608e-03" rms="3.5560724139213562e-01" purity="1.5591637790203094e-01" nType="-99"/>
        <Node pos="r" depth="1" NCoef="0" IVar="2" Cut="2.3547355830669403e-01" cType="0" res="-3.6204077303409576e-02" rms="1.7141415178775787e-01" purity="3.1824558973312378e-02" nType="0">
          <Node pos="l" depth="2" NCoef="0" IVar="-1" Cut="0.0000000000000000e+00" cType="1" res="-8.4493886679410934e-03" rms="2.2488352656364441e-01" purity="5.6707762181758881e-02" nType="-99"/>
          <Node pos="r" depth="2" NCoef="0" IVar="-1" Cut="0.0000000000000000e+00" cType="1" res="-2.4780051782727242e-02" rms="1.1968927085399628e-01" purity="1.4566806145012379e-02" nType="-99"/>
        </Node>
      </Node>
    </BinaryTree>
    <BinaryTree type="DecisionTree" boostWeight="1.0000000000000000e+00" itree="56">
      <Node pos="s" depth="0" NCoef="0" IVar="3" Cut="4.3927881121635437e-01" cType="0" res="-1.0168065316975117e-02" rms="3.0011963844299316e-01" purity="1.0897565633058548e-01" nType="0">
        <Node pos="l" depth="1" NCoef="0" IVar="-1" Cut="0.0000000000000000e+00" cType="1" res="1.9663844723254442e-03" rms="3.4641721844673157e-01" purity="1.4991895854473114e-01" nType="-99"/>
        <Node pos="r" depth="1" NCoef="0" IVar="0" Cut="7.0019989013671875e+00" cType="1" res="-3.0470402911305428e-02" rms="2.3585769534111023e-01" purity="6.2928721308708191e-02" nType="0">
          <Node pos="l" depth="2" NCoef="0" IVar="-1" Cut="0.0000000000000000e+00" cType="1" res="-3.0106799677014351e-03" rms="3.2594257593154907e-01" purity="1.2332803755998611e-01" nType="-99"/>
          <Node pos="r" depth="2" NCoef="0" IVar="-1" Cut="0.0000000000000000e+00" cType="1" res="-2.1092945709824562e-02" rms="1.6738136112689972e-01" purity="3.0377617105841637e-02" nType="-99"/>
        </Node>
      </Node>
    </BinaryTree>
    <BinaryTree type="DecisionTree" boostWeight="1.0000000000000000e+00" itree="57">
      <Node pos="s" depth="0" NCoef="0" IVar="3" Cut="1.0929497480392456e+00" cType="1" res="-9.4757769256830215e-03" rms="3.0001258850097656e-01" purity="1.0897565633058548e-01" nType="0">
        <Node pos="l" depth="1" NCoef="0" IVar="-1" Cut="0.0000000000000000e+00" cType="1" res="-2.6756193256005645e-04" rms="3.0607327818870544e-01" purity="1.1511693149805069e-01" nType="-99"/>
        <Node pos="r" depth="1" NCoef="0" IVar="6" Cut="8.8897468522191048e-03" cType="1" res="-5.3766056895256042e-02" rms="2.6238864660263062e-01" purity="7.7519103884696960e-02" nType="0">
          <Node pos="l" depth="2" NCoef="0" IVar="-1" Cut="0.0000000000000000e+00" cType="1" res="5.9911645948886871e-03" rms="3.8143515586853027e-01" purity="1.8982663750648499e-01" nType="-99"/>
          <Node pos="r" depth="2" NCoef="0" IVar="-1" Cut="0.0000000000000000e+00" cType="1" res="-1.5835659578442574e-02" rms="2.4217058718204498e-01" purity="6.3967607915401459e-02" nType="-99"/>
        </Node>
      </Node>
    </BinaryTree>
    <BinaryTree type="DecisionTree" boostWeight="1.0000000000000000e+00" itree="58">
      <Node pos="s" depth="0" NCoef="0" IVar="6" Cut="4.9975016713142395e-01" cType="1" res="-8.9608328416943550e-03" rms="2.9991751909255981e-01" purity="1.0897565633058548e-01" nType="0">
        <Node pos="l" depth="1" NCoef="0" IVar="-1" Cut="0.0000000000000000e+00" cType="1" res="8.8410970056429505e-04" rms="3.3428585529327393e-01" purity="1.3836845755577087e-01" nType="-99"/>
        <Node pos="r" depth="1" NCoef="0" IVar="8" Cut="2.9954986572265625e+00" cType="1" res="-3.7775706499814987e-02" rms="1.9379337131977081e-01" purity="3.9917245507240295e-02" nType="0">
          <Node pos="l" depth="2" NCoef="0" IVar="-1" Cut="0.0000000000000000e+00" cType="1" res="-1.1893836781382561e-02" rms="2.2854527831077576e-01" purity="5.7454068213701248e-02" nType="-99"/>
          <Node pos="r" depth="2" NCoef="0" IVar="-1" Cut="0.0000000000000000e+00" cType="1" res="-1.8315432593226433e-02" rms="1.7455281317234039e-01" purity="3.2172676175832748e-02" nType="-99"/>
        </Node>
      </Node>
    </BinaryTree>
    <BinaryTree type="DecisionTree" boostWeight="1.0000000000000000e+00" itree="59">
      <Node pos="s" depth="0" NCoef="0" IVar="0" Cut="1.0003498077392578e+01" cType="1" res="-8.4117222577333450e-03" rms="2.9982531070709229e-01" purity="1.0897565633058548e-01" nType="0">
        <Node pos="l" depth="1" NCoef="0" IVar="-1" Cut="0.0000000000000000e+00" cType="1" res="1.5869181370362639e-03" rms="3.5518780350685120e-01" purity="1.5591637790203094e-01" nType="-99"/>
        <Node pos="r" depth="1" NCoef="0" IVar="2" Cut="3.7132108211517334e-01" cType="0" res="-3.2723929733037949e-02" rms="1.7129781842231750e-01" purity="3.1824558973312378e-02" nType="0">
          <Node pos="l" depth="2" NCoef="0" IVar="-1" Cut="0.0000000000000000e+00" cType="1" res="4.7057834453880787e-03" rms="3.0375874042510986e-01" purity="1.1063528060913086e-01" nType="-99"/>
          <Node pos="r" depth="2" NCoef="0" IVar="-1" Cut="0.0000000000000000e+00" cType="1" res="-1.9804088398814201e-02" rms="1.5136513113975525e-01" purity="2.4052811786532402e-02" nType="-99"/>
        </Node>
      </Node>
    </BinaryTree>
    <BinaryTree type="DecisionTree" boostWeight="1.0000000000000000e+00" itree="60">
      <Node pos="s" depth="0" NCoef="0" IVar="3" Cut="1.0929497480392456e+00" cType="1" res="-7.9220738261938095e-03" rms="2.9973188042640686e-01" purity="1.0897565633058548e-01" nType="0">
        <Node pos="l" depth="1" NCoef="0" IVar="-1" Cut="0.0000000000000000e+00" cType="1" res="1.2502017489168793e-04" rms="3.0583456158638000e-01" purity="1.1511693149805069e-01" nType="-99"/>
        <Node pos="r" depth="1" NCoef="0" IVar="6" Cut="7.0919329300522804e-03" cType="1" res="-5.0462268292903900e-02" rms="2.6219630241394043e-01" purity="7.7519103884696960e-02" nType="0">
          <Node pos="l" depth="2" NCoef="0" IVar="-1" Cut="0.0000000000000000e+00" cType="1" res="7.4817878194153309e-03" rms="3.9133289456367493e-01" purity="2.0302532613277435e-01" nType="-99"/>
          <Node pos="r" depth="2" NCoef="0" IVar="-1" Cut="0.0000000000000000e+00" cType="1" res="-1.4987243339419365e-02" rms="2.4443000555038452e-01" purity="6.5384723246097565e-02" nType="-99"/>
        </Node>
      </Node>
    </BinaryTree>
    <BinaryTree type="DecisionTree" boostWeight="1.0000000000000000e+00" itree="61">
      <Node pos="s" depth="0" NCoef="0" IVar="0" Cut="7.0019989013671875e+00" cType="1" res="-7.5009614229202271e-03" rms="2.9964050650596619e-01" purity="1.0897565633058548e-01" nType="0">
        <Node pos="l" depth="1" NCoef="0" IVar="-1" Cut="0.0000000000000000e+00" cType="1" res="4.2244396172463894e-03" rms="3.7935164570808411e-01" purity="1.8139782547950745e-01" nType="-99"/>
        <Node pos="r" depth="1" NCoef="0" IVar="4" Cut="5.1489895582199097e-01" cType="1" res="-2.0555606111884117e-02" rms="2.4856033921241760e-01" purity="7.2182901203632355e-02" nType="0">
          <Node pos="l" depth="2" NCoef="0" IVar="-1" Cut="0.0000000000000000e+00" cType="1" res="1.6129467636346817e-02" rms="3.5010433197021484e-01" purity="1.6523039340972900e-01" nType="-99"/>
          <Node pos="r" depth="2" NCoef="0" IVar="-1" Cut="0.0000000000000000e+00" cType="1" res="-9.7196176648139954e-03" rms="2.3892128467559814e-01" purity="6.5564595162868500e-02" nType="-99"/>
        </Node>
      </Node>
    </BinaryTree>
    <BinaryTree type="DecisionTree" boostWeight="1.0000000000000000e+00" itree="62">
      <Node pos="s" depth="0" NCoef="0" IVar="3" Cut="4.5277202129364014e-01" cType="0" res="-7.0676398463547230e-03" rms="2.9952359199523926e-01" purity="1.0897565633058548e-01" nType="0">
        <Node pos="l" depth="1" NCoef="0" IVar="-1" Cut="0.0000000000000000e+00" cType="1" res="2.7163287159055471e-03" rms="3.4611639380455017e-01" purity="1.5038318932056427e-01" nType="-99"/>
        <Node pos="r" depth="1" NCoef="0" IVar="0" Cut="7.0019989013671875e+00" cType="1" res="-2.5935173034667969e-02" rms="2.3900833725929260e-01" purity="6.5069116652011871e-02" nType="0">
          <Node pos="l" depth="2" NCoef="0" IVar="-1" Cut="0.0000000000000000e+00" cType="1" res="-2.2711523342877626e-03" rms="3.2877957820892334e-01" purity="1.2627610564231873e-01" nType="-99"/>
          <Node pos="r" depth="2" NCoef="0" IVar="-1" Cut="0.0000000000000000e+00" cType="1" res="-1.9191052764654160e-02" rms="1.7174819111824036e-01" purity="3.2219640910625458e-02" nType="-99"/>
        </Node>
      </Node>
    </BinaryTree>
    <BinaryTree type="DecisionTree" boostWeight="1.0000000000000000e+00" itree="63">
      <Node pos="s" depth="0" NCoef="0" IVar="3" Cut="1.0929497480392456e+00" cType="1" res="-6.5689738839864731e-03" rms="2.9942506551742554e-01" purity="1.0897565633058548e-01" nType="0">
        <Node pos="l" depth="1" NCoef="0" IVar="-1" Cut="0.0000000000000000e+00" cType="1" res="4.8647250514477491e-04" rms="3.0556395649909973e-01" purity="1.1511693149805069e-01" nType="-99"/>
        <Node pos="r" depth="1" NCoef="0" IVar="6" Cut="8.8897468522191048e-03" cType="1" res="-4.7777552157640457e-02" rms="2.6192027330398560e-01" purity="7.7519103884696960e-02" nType="0">
          <Node pos="l" depth="2" NCoef="0" IVar="-1" Cut="0.0000000000000000e+00" cType="1" res="5.4651792161166668e-03" rms="3.8080319762229919e-01" purity="1.8982663750648499e-01" nType="-99"/>
          <Node pos="r" depth="2" NCoef="0" IVar="-1" Cut="0.0000000000000000e+00" cType="1" res="-1.4818272553384304e-02" rms="2.4209602177143097e-01" purity="6.3967607915401459e-02" nType="-99"/>
        </Node>
      </Node>
    </BinaryTree>
    <BinaryTree type="DecisionTree" boostWeight="1.0000000000000000e+00" itree="64">
      <Node pos="s" depth="0" NCoef="0" IVar="6" Cut="4.9975016713142395e-01" cType="1" res="-6.2296758405864239e-03" rms="2.9933553934097290e-01" purity="1.0897565633058548e-01" nType="0">
        <Node pos="l" depth="1" NCoef="0" IVar="-1" Cut="0.0000000000000000e+00" cType="1" res="1.4954273356124759e-03" rms="3.3364817500114441e-01" purity="1.3836845755577087e-01" nType="-99"/>
        <Node pos="r" depth="1" NCoef="0" IVar="8" Cut="2.9954986572265625e+00" cType="1" res="-3.3767737448215485e-02" rms="1.9362616539001465e-01" purity="3.9917245507240295e-02" nType="0">
          <Node pos="l" depth="2" NCoef="0" IVar="-1" Cut="0.0000000000000000e+00" cType="1" res="-7.4496334418654442e-03" rms="2.2840340435504913e-01" purity="5.7454068213701248e-02" nType="-99"/>
          <Node pos="r" depth="2" NCoef="0" IVar="-1" Cut="0.0000000000000000e+00" cType="1" res="-1.7591031268239021e-02" rms="1.7450392246246338e-01" purity="3.2172676175832748e-02" nType="-99"/>
        </Node>
      </Node>
    </BinaryTree>
    <BinaryTree type="DecisionTree" boostWeight="1.0000000000000000e+00" itree="65">
      <Node pos="s" depth="0" NCoef="0" IVar="0" Cut="1.1003997802734375e+01" cType="1" res="-5.8749769814312458e-03" rms="2.9924300312995911e-01" purity="1.0897565633058548e-01" nType="0">
        <Node pos="l" depth="1" NCoef="0" IVar="-1" Cut="0.0000000000000000e+00" cType="1" res="1.5185546362772584e-03" rms="3.4097170829772949e-01" purity="1.4335080981254578e-01" nType="-99"/>
        <Node pos="r" depth="1" NCoef="0" IVar="2" Cut="3.3110141754150391e-01" cType="0" res="-3.4106686711311340e-02" rms="1.5184946358203888e-01" purity="2.4868734180927277e-02" nType="0">
          <Node pos="l" depth="2" NCoef="0" IVar="-1" Cut="0.0000000000000000e+00" cType="1" res="5.2406359463930130e-04" rms="2.7621179819107056e-01" purity="9.0044148266315460e-02" nType="-99"/>
          <Node pos="r" depth="2" NCoef="0" IVar="-1" Cut="0.0000000000000000e+00" cType="1" res="-2.2947022691369057e-02" rms="1.2575973570346832e-01" purity="1.6232253983616829e-02" nType="-99"/>
        </Node>
      </Node>
    </BinaryTree>
    <BinaryTree type="DecisionTree" boostWeight="1.0000000000000000e+00" itree="66">
      <Node pos="s" depth="0" NCoef="0" IVar="3" Cut="1.1544187068939209e+00" cType="1" res="-5.5337608791887760e-03" rms="2.9915577173233032e-01" purity="1.0897565633058548e-01" nType="0">
        <Node pos="l" depth="1" NCoef="0" IVar="-1" Cut="0.0000000000000000e+00" cType="1" res="5.9961120132356882e-04" rms="3.0527764558792114e-01" purity="1.1500828713178635e-01" nType="-99"/>
        <Node pos="r" depth="1" NCoef="0" IVar="2" Cut="2.6966494321823120e-01" cType="0" res="-4.7232042998075485e-02" rms="2.5778299570083618e-01" purity="7.4743710458278656e-02" nType="0">
          <Node pos="l" depth="2" NCoef="0" IVar="-1" Cut="0.0000000000000000e+00" cType="1" res="-3.4213878680020571e-03" rms="3.1075862050056458e-01" purity="1.1430079489946365e-01" nType="-99"/>
          <Node pos="r" depth="2" NCoef="0" IVar="-1" Cut="0.0000000000000000e+00" cType="1" res="-1.5915844589471817e-02" rms="2.2867457568645477e-01" purity="5.7132735848426819e-02" nType="-99"/>
        </Node>
      </Node>
    </BinaryTree>
    <BinaryTree type="DecisionTree" boostWeight="1.0000000000000000e+00" itree="67">
      <Node pos="s" depth="0" NCoef="0" IVar="3" Cut="3.9130297303199768e-01" cType="0" res="-5.2641276270151138e-03" rms="2.9907965660095215e-01" purity="1.0897565633058548e-01" nType="0">
        <Node pos="l" depth="1" NCoef="0" IVar="-1" Cut="0.0000000000000000e+00" cType="1" res="2.4268941488116980e-03" rms="3.4234425425529480e-01" purity="1.4708048105239868e-01" nType="-99"/>
        <Node pos="r" depth="1" NCoef="0" IVar="8" Cut="2.9954986572265625e+00" cType="1" res="-2.5781564414501190e-02" rms="2.2295105457305908e-01" purity="5.5395711213350296e-02" nType="0">
          <Node pos="l" depth="2" NCoef="0" IVar="-1" Cut="0.0000000000000000e+00" cType="1" res="-5.3617027588188648e-03" rms="2.4606536328792572e-01" purity="6.8272449076175690e-02" nType="-99"/>
          <Node pos="r" depth="2" NCoef="0" IVar="-1" Cut="0.0000000000000000e+00" cType="1" res="-1.2528202496469021e-02" rms="2.1111509203910828e-01" purity="4.9674250185489655e-02" nType="-99"/>
        </Node>
      </Node>
    </BinaryTree>
    <BinaryTree type="DecisionTree" boostWeight="1.0000000000000000e+00" itree="68">
      <Node pos="s" depth="0" NCoef="0" IVar="0" Cut="1.0003498077392578e+01" cType="1" res="-4.9599837511777878e-03" rms="2.9900294542312622e-01" purity="1.0897565633058548e-01" nType="0">
        <Node pos="l" depth="1" NCoef="0" IVar="-1" Cut="0.0000000000000000e+00" cType="1" res="2.1333287004381418e-03" rms="3.5432630777359009e-01" purity="1.5591637790203094e-01" nType="-99"/>
        <Node pos="r" depth="1" NCoef="0" IVar="2" Cut="2.5358656048774719e-01" cType="0" res="-2.6993878185749054e-02" rms="1.7092558741569519e-01" purity="3.1824558973312378e-02" nType="0">
          <Node pos="l" depth="2" NCoef="0" IVar="-1" Cut="0.0000000000000000e+00" cType="1" res="-4.0746377781033516e-03" rms="2.3316271603107452e-01" purity="6.1740607023239136e-02" nType="-99"/>
          <Node pos="r" depth="2" NCoef="0" IVar="-1" Cut="0.0000000000000000e+00" cType="1" res="-2.2140126675367355e-02" rms="1.2595506012439728e-01" purity="1.6270304098725319e-02" nType="-99"/>
        </Node>
      </Node>
    </BinaryTree>
    <BinaryTree type="DecisionTree" boostWeight="1.0000000000000000e+00" itree="69">
      <Node pos="s" depth="0" NCoef="0" IVar="3" Cut="1.0734595060348511e+00" cType="1" res="-4.6829339116811752e-03" rms="2.9892021417617798e-01" purity="1.0897565633058548e-01" nType="0">
        <Node pos="l" depth="1" NCoef="0" IVar="-1" Cut="0.0000000000000000e+00" cType="1" res="9.8499015439301729e-04" rms="3.0501434206962585e-01" purity="1.1507089436054230e-01" nType="-99"/>
        <Node pos="r" depth="1" NCoef="0" IVar="6" Cut="9.8885316401720047e-03" cType="1" res="-4.2440880089998245e-02" rms="2.6345199346542358e-01" purity="7.8779920935630798e-02" nType="0">
          <Node pos="l" depth="2" NCoef="0" IVar="-1" Cut="0.0000000000000000e+00" cType="1" res="6.7628156393766403e-03" rms="3.8002997636795044e-01" purity="1.8996170163154602e-01" nType="-99"/>
          <Node pos="r" depth="2" NCoef="0" IVar="-1" Cut="0.0000000000000000e+00" cType="1" res="-1.4265246689319611e-02" rms="2.4130859971046448e-01" purity="6.3532985746860504e-02" nType="-99"/>
        </Node>
      </Node>
    </BinaryTree>
    <BinaryTree type="DecisionTree" boostWeight="1.0000000000000000e+00" itree="70">
      <Node pos="s" depth="0" NCoef="0" IVar="6" Cut="4.9975016713142395e-01" cType="1" res="-4.4569903984665871e-03" rms="2.9882815480232239e-01" purity="1.0897565633058548e-01" nType="0">
        <Node pos="l" depth="1" NCoef="0" IVar="-1" Cut="0.0000000000000000e+00" cType="1" res="1.8139784224331379e-03" rms="3.3311191201210022e-01" purity="1.3836845755577087e-01" nType="-99"/>
        <Node pos="r" depth="1" NCoef="0" IVar="8" Cut="2.9954986572265625e+00" cType="1" res="-3.0404672026634216e-02" rms="1.9348335266113281e-01" purity="3.9917245507240295e-02" nType="0">
          <Node pos="l" depth="2" NCoef="0" IVar="-1" Cut="0.0000000000000000e+00" cType="1" res="-5.0246263854205608e-03" rms="2.2839424014091492e-01" purity="5.7454068213701248e-02" nType="-99"/>
          <Node pos="r" depth="2" NCoef="0" IVar="-1" Cut="0.0000000000000000e+00" cType="1" res="-1.6837060451507568e-02" rms="1.7448399960994720e-01" purity="3.2172676175832748e-02" nType="-99"/>
        </Node>
      </Node>
    </BinaryTree>
    <BinaryTree type="DecisionTree" boostWeight="1.0000000000000000e+00" itree="71">
      <Node pos="s" depth="0" NCoef="0" IVar="0" Cut="8.0024986267089844e+00" cType="1" res="-4.2218514718115330e-03" rms="2.9874104261398315e-01" purity="1.0897565633058548e-01" nType="0">
        <Node pos="l" depth="1" NCoef="0" IVar="-1" Cut="0.0000000000000000e+00" cType="1" res="3.4303592983633280e-03" rms="3.7156733870506287e-01" purity="1.7395274341106415e-01" nType="-99"/>
        <Node pos="r" depth="1" NCoef="0" IVar="4" Cut="5.1489895582199097e-01" cType="1" res="-1.8925452604889870e-02" rms="2.2398486733436584e-01" purity="5.7613708078861237e-02" nType="0">
          <Node pos="l" depth="2" NCoef="0" IVar="-1" Cut="0.0000000000000000e+00" cType="1" res="1.2541298754513264e-02" rms="3.2815250754356384e-01" purity="1.4303185045719147e-01" nType="-99"/>
          <Node pos="r" depth="2" NCoef="0" IVar="-1" Cut="0.0000000000000000e+00" cType="1" res="-1.0431550443172455e-02" rms="2.1346245706081390e-01" purity="5.1143616437911987e-02" nType="-99"/>
        </Node>
      </Node>
    </BinaryTree>
    <BinaryTree type="DecisionTree" boostWeight="1.0000000000000000e+00" itree="72">
      <Node pos="s" depth="0" NCoef="0" IVar="3" Cut="4.5277202129364014e-01" cType="0" res="-3.9948555640876293e-03" rms="2.9865249991416931e-01" purity="1.0897565633058548e-01" nType="0">
        <Node pos="l" depth="1" NCoef="0" IVar="-1" Cut="0.0000000000000000e+00" cType="1" res="3.0352140311151743e-03" rms="3.4510508179664612e-01" purity="1.5038318932056427e-01" nType="-99"/>
        <Node pos="r" depth="1" NCoef="0" IVar="0" Cut="7.0019989013671875e+00" cType="1" res="-2.0774172618985176e-02" rms="2.3861537873744965e-01" purity="6.5069116652011871e-02" nType="0">
          <Node pos="l" depth="2" NCoef="0" IVar="-1" Cut="0.0000000000000000e+00" cType="1" res="-1.2789552565664053e-03" rms="3.2828009128570557e-01" purity="1.2627610564231873e-01" nType="-99"/>
          <Node pos="r" depth="2" NCoef="0" IVar="-1" Cut="0.0000000000000000e+00" cType="1" res="-1.7520293593406677e-02" rms="1.7155696451663971e-01" purity="3.2219640910625458e-02" nType="-99"/>
        </Node>
      </Node>
    </BinaryTree>
    <BinaryTree type="DecisionTree" boostWeight="1.0000000000000000e+00" itree="73">
      <Node pos="s" depth="0" NCoef="0" IVar="3" Cut="1.0734595060348511e+00" cType="1" res="-3.6914437077939510e-03" rms="2.9856878519058228e-01" purity="1.0897565633058548e-01" nType="0">
        <Node pos="l" depth="1" NCoef="0" IVar="-1" Cut="0.0000000000000000e+00" cType="1" res="1.2878305278718472e-03" rms="3.0466139316558838e-01" purity="1.1507089436054230e-01" nType="-99"/>
        <Node pos="r" depth="1" NCoef="0" IVar="6" Cut="5.7935123331844807e-03" cType="1" res="-4.0829543024301529e-02" rms="2.6320835947990417e-01" purity="7.8779920935630798e-02" nType="0">
          <Node pos="l" depth="2" NCoef="0" IVar="-1" Cut="0.0000000000000000e+00" cType="1" res="1.0203966870903969e-02" rms="4.0346768498420715e-01" purity="2.2270919382572174e-01" nType="-99"/>
          <Node pos="r" depth="2" NCoef="0" IVar="-1" Cut="0.0000000000000000e+00" cType="1" res="-1.3125741854310036e-02" rms="2.4711175262928009e-01" purity="6.7310303449630737e-02" nType="-99"/>
        </Node>
      </Node>
    </BinaryTree>
    <BinaryTree type="DecisionTree" boostWeight="1.0000000000000000e+00" itree="74">
      <Node pos="s" depth="0" NCoef="0" IVar="0" Cut="1.1003997802734375e+01" cType="1" res="-3.5266075283288956e-03" rms="2.9847902059555054e-01" purity="1.0897565633058548e-01" nType="0">
        <Node pos="l" depth="1" NCoef="0" IVar="-1" Cut="0.0000000000000000e+00" cType="1" res="1.8359489040449262e-03" rms="3.4021875262260437e-01" purity="1.4335080981254578e-01" nType="-99"/>
        <Node pos="r" depth="1" NCoef="0" IVar="2" Cut="3.6788994073867798e-01" cType="0" res="-2.8713760897517204e-02" rms="1.5155319869518280e-01" purity="2.4868734180927277e-02" nType="0">
          <Node pos="l" depth="2" NCoef="0" IVar="-1" Cut="0.0000000000000000e+00" cType="1" res="5.0472463481128216e-03" rms="2.9766225814819336e-01" purity="1.0743441432714462e-01" nType="-99"/>
          <Node pos="r" depth="2" NCoef="0" IVar="-1" Cut="0.0000000000000000e+00" cType="1" res="-2.0736552774906158e-02" rms="1.3234819471836090e-01" purity="1.8205432221293449e-02" nType="-99"/>
        </Node>
      </Node>
    </BinaryTree>
    <BinaryTree type="DecisionTree" boostWeight="1.0000000000000000e+00" itree="75">
      <Node pos="s" depth="0" NCoef="0" IVar="3" Cut="1.4992451760917902e-03" cType="0" res="-3.3272823784500360e-03" rms="2.9840439558029175e-01" purity="1.0897565633058548e-01" nType="0">
        <Node pos="l" depth="1" NCoef="0" IVar="-1" Cut="0.0000000000000000e+00" cType="1" res="1.9505297532305121e-03" rms="3.3267799019813538e-01" purity="1.3836845755577087e-01" nType="-99"/>
        <Node pos="r" depth="1" NCoef="0" IVar="8" Cut="2.9954986572265625e+00" cType="1" res="-2.7684032917022705e-02" rms="1.9334164261817932e-01" purity="3.9917245507240295e-02" nType="0">
          <Node pos="l" depth="2" NCoef="0" IVar="-1" Cut="0.0000000000000000e+00" cType="1" res="-2.5838396977633238e-03" rms="2.2827230393886566e-01" purity="5.7454068213701248e-02" nType="-99"/>
          <Node pos="r" depth="2" NCoef="0" IVar="-1" Cut="0.0000000000000000e+00" cType="1" res="-1.6208589076995850e-02" rms="1.7446132004261017e-01" purity="3.2172676175832748e-02" nType="-99"/>
        </Node>
      </Node>
    </BinaryTree>
    <BinaryTree type="DecisionTree" boostWeight="1.0000000000000000e+00" itree="76">
      <Node pos="s" depth="0" NCoef="0" IVar="3" Cut="1.0734595060348511e+00" cType="1" res="-3.1731568742543459e-03" rms="2.9832285642623901e-01" purity="1.0897565633058548e-01" nType="0">
        <Node pos="l" depth="1" NCoef="0" IVar="-1" Cut="0.0000000000000000e+00" cType="1" res="1.3636504299938679e-03" rms="3.0444663763046265e-01" purity="1.1507089436054230e-01" nType="-99"/>
        <Node pos="r" depth="1" NCoef="0" IVar="6" Cut="1.0487803258001804e-02" cType="1" res="-3.8772456347942352e-02" rms="2.6303446292877197e-01" purity="7.8779920935630798e-02" nType="0">
          <Node pos="l" depth="2" NCoef="0" IVar="-1" Cut="0.0000000000000000e+00" cType="1" res="5.5993590503931046e-03" rms="3.7520065903663635e-01" purity="1.8487131595611572e-01" nType="-99"/>
          <Node pos="r" depth="2" NCoef="0" IVar="-1" Cut="0.0000000000000000e+00" cType="1" res="-1.3592462986707687e-02" rms="2.4073462188243866e-01" purity="6.3222423195838928e-02" nType="-99"/>
        </Node>
      </Node>
    </BinaryTree>
    <BinaryTree type="DecisionTree" boostWeight="1.0000000000000000e+00" itree="77">
      <Node pos="s" depth="0" NCoef="0" IVar="3" Cut="4.5277202129364014e-01" cType="0" res="-3.0376310460269451e-03" rms="2.9823672771453857e-01" purity="1.0897565633058548e-01" nType="0">
        <Node pos="l" depth="1" NCoef="0" IVar="-1" Cut="0.0000000000000000e+00" cType="1" res="3.0666920356452465e-03" rms="3.4459173679351807e-01" purity="1.5038318932056427e-01" nType="-99"/>
        <Node pos="r" depth="1" NCoef="0" IVar="0" Cut="7.0019989013671875e+00" cType="1" res="-1.8887193873524666e-02" rms="2.3845404386520386e-01" purity="6.5069116652011871e-02" nType="0">
          <Node pos="l" depth="2" NCoef="0" IVar="-1" Cut="0.0000000000000000e+00" cType="1" res="-1.1091363849118352e-03" rms="3.2809275388717651e-01" purity="1.2627610564231873e-01" nType="-99"/>
          <Node pos="r" depth="2" NCoef="0" IVar="-1" Cut="0.0000000000000000e+00" cType="1" res="-1.6687404364347458e-02" rms="1.7150348424911499e-01" purity="3.2219640910625458e-02" nType="-99"/>
        </Node>
      </Node>
    </BinaryTree>
    <BinaryTree type="DecisionTree" boostWeight="1.0000000000000000e+00" itree="78">
      <Node pos="s" depth="0" NCoef="0" IVar="3" Cut="1.1619149446487427e+00" cType="1" res="-2.7960245497524738e-03" rms="2.9816088080406189e-01" purity="1.0897565633058548e-01" nType="0">
        <Node pos="l" depth="1" NCoef="0" IVar="-1" Cut="0.0000000000000000e+00" cType="1" res="1.2462058803066611e-03" rms="3.0432257056236267e-01" purity="1.1498623341321945e-01" nType="-99"/>
        <Node pos="r" depth="1" NCoef="0" IVar="2" Cut="2.9706948995590210e-01" cType="0" res="-3.9999410510063171e-02" rms="2.5684958696365356e-01" purity="7.4484266340732574e-02" nType="0">
          <Node pos="l" depth="2" NCoef="0" IVar="-1" Cut="0.0000000000000000e+00" cType="1" res="1.0936203761957586e-04" rms="3.2049354910850525e-01" purity="1.2356761842966080e-01" nType="-99"/>
          <Node pos="r" depth="2" NCoef="0" IVar="-1" Cut="0.0000000000000000e+00" cType="1" res="-1.4070394448935986e-02" rms="2.3389838635921478e-01" purity="6.0254070907831192e-02" nType="-99"/>
        </Node>
      </Node>
    </BinaryTree>
    <BinaryTree type="DecisionTree" boostWeight="1.0000000000000000e+00" itree="79">
      <Node pos="s" depth="0" NCoef="0" IVar="0" Cut="1.1003997802734375e+01" cType="1" res="-2.6891105808317661e-03" rms="2.9808932542800903e-01" purity="1.0897565633058548e-01" nType="0">
        <Node pos="l" depth="1" NCoef="0" IVar="-1" Cut="0.0000000000000000e+00" cType="1" res="1.9152177264913917e-03" rms="3.3981606364250183e-01" purity="1.4335080981254578e-01" nType="-99"/>
        <Node pos="r" depth="1" NCoef="0" IVar="2" Cut="3.3110141754150391e-01" cType="0" res="-2.6470080018043518e-02" rms="1.5144005417823792e-01" purity="2.4868734180927277e-02" nType="0">
          <Node pos="l" depth="2" NCoef="0" IVar="-1" Cut="0.0000000000000000e+00" cType="1" res="2.0922285038977861e-03" rms="2.7525964379310608e-01" purity="9.0044148266315460e-02" nType="-99"/>
          <Node pos="r" depth="2" NCoef="0" IVar="-1" Cut="0.0000000000000000e+00" cType="1" res="-2.1141439676284790e-02" rms="1.2563179433345795e-01" purity="1.6232253983616829e-02" nType="-99"/>
        </Node>
      </Node>
    </BinaryTree>
    <BinaryTree type="DecisionTree" boostWeight="1.0000000000000000e+00" itree="80">
      <Node pos="s" depth="0" NCoef="0" IVar="3" Cut="3.0434677004814148e-01" cType="0" res="-2.5409918744117022e-03" rms="2.9801899194717407e-01" purity="1.0897565633058548e-01" nType="0">
        <Node pos="l" depth="1" NCoef="0" IVar="-1" Cut="0.0000000000000000e+00" cType="1" res="2.0458111539483070e-03" rms="3.3286762237548828e-01" purity="1.3892775774002075e-01" nType="-99"/>
        <Node pos="r" depth="1" NCoef="0" IVar="8" Cut="2.9954986572265625e+00" cType="1" res="-2.5193849578499794e-02" rms="1.9460640847682953e-01" purity="4.0577478706836700e-02" nType="0">
          <Node pos="l" depth="2" NCoef="0" IVar="-1" Cut="0.0000000000000000e+00" cType="1" res="-2.8955817106179893e-04" rms="2.2943827509880066e-01" purity="5.8167167007923126e-02" nType="-99"/>
          <Node pos="r" depth="2" NCoef="0" IVar="-1" Cut="0.0000000000000000e+00" cType="1" res="-1.5450855717062950e-02" rms="1.7590546607971191e-01" purity="3.2801929861307144e-02" nType="-99"/>
        </Node>
      </Node>
    </BinaryTree>
    <BinaryTree type="DecisionTree" boostWeight="1.0000000000000000e+00" itree="81">
      <Node pos="s" depth="0" NCoef="0" IVar="3" Cut="1.0704610347747803e+00" cType="1" res="-2.4467369075864553e-03" rms="2.9794248938560486e-01" purity="1.0897565633058548e-01" nType="0">
        <Node pos="l" depth="1" NCoef="0" IVar="-1" Cut="0.0000000000000000e+00" cType="1" res="1.4642352471128106e-03" rms="3.0408960580825806e-01" purity="1.1505165696144104e-01" nType="-99"/>
        <Node pos="r" depth="1" NCoef="0" IVar="6" Cut="5.7935123331844807e-03" cType="1" res="-3.5619646310806274e-02" rms="2.6307335495948792e-01" purity="7.9031400382518768e-02" nType="0">
          <Node pos="l" depth="2" NCoef="0" IVar="-1" Cut="0.0000000000000000e+00" cType="1" res="9.8148128017783165e-03" rms="4.0412911772727966e-01" purity="2.2516541182994843e-01" nType="-99"/>
          <Node pos="r" depth="2" NCoef="0" IVar="-1" Cut="0.0000000000000000e+00" cType="1" res="-1.2113372795283794e-02" rms="2.4704083800315857e-01" purity="6.7359603941440582e-02" nType="-99"/>
        </Node>
      </Node>
    </BinaryTree>
    <BinaryTree type="DecisionTree" boostWeight="1.0000000000000000e+00" itree="82">
      <Node pos="s" depth="0" NCoef="0" IVar="3" Cut="4.7376146912574768e-01" cType="0" res="-2.3528530728071928e-03" rms="2.9786381125450134e-01" purity="1.0897565633058548e-01" nType="0">
        <Node pos="l" depth="1" NCoef="0" IVar="-1" Cut="0.0000000000000000e+00" cType="1" res="3.1903281342238188e-03" rms="3.4447267651557922e-01" purity="1.5074169635772705e-01" nType="-99"/>
        <Node pos="r" depth="1" NCoef="0" IVar="0" Cut="7.0019989013671875e+00" cType="1" res="-1.6675582155585289e-02" rms="2.4337758123874664e-01" purity="6.8415999412536621e-02" nType="0">
          <Node pos="l" depth="2" NCoef="0" IVar="-1" Cut="0.0000000000000000e+00" cType="1" res="-3.0504600726999342e-04" rms="3.3344030380249023e-01" purity="1.3192562758922577e-01" nType="-99"/>
          <Node pos="r" depth="2" NCoef="0" IVar="-1" Cut="0.0000000000000000e+00" cType="1" res="-1.5425822697579861e-02" rms="1.7695137858390808e-01" purity="3.4527257084846497e-02" nType="-99"/>
        </Node>
      </Node>
    </BinaryTree>
    <BinaryTree type="DecisionTree" boostWeight="1.0000000000000000e+00" itree="83">
      <Node pos="s" depth="0" NCoef="0" IVar="3" Cut="1.0734595060348511e+00" cType="1" res="-2.1552445832639933e-03" rms="2.9779225587844849e-01" purity="1.0897565633058548e-01" nType="0">
        <Node pos="l" depth="1" NCoef="0" IVar="-1" Cut="0.0000000000000000e+00" cType="1" res="1.4899875968694687e-03" rms="3.0399450659751892e-01" purity="1.1507089436054230e-01" nType="-99"/>
        <Node pos="r" depth="1" NCoef="0" IVar="6" Cut="1.0487803258001804e-02" cType="1" res="-3.4409224987030029e-02" rms="2.6256349682807922e-01" purity="7.8779920935630798e-02" nType="0">
          <Node pos="l" depth="2" NCoef="0" IVar="-1" Cut="0.0000000000000000e+00" cType="1" res="5.2392124198377132e-03" rms="3.7443912029266357e-01" purity="1.8487131595611572e-01" nType="-99"/>
          <Node pos="r" depth="2" NCoef="0" IVar="-1" Cut="0.0000000000000000e+00" cType="1" res="-1.2649906799197197e-02" rms="2.4058303236961365e-01" purity="6.3222423195838928e-02" nType="-99"/>
        </Node>
      </Node>
    </BinaryTree>
    <BinaryTree type="DecisionTree" boostWeight="1.0000000000000000e+00" itree="84">
      <Node pos="s" depth="0" NCoef="0" IVar="0" Cut="1.1003997802734375e+01" cType="1" res="-2.0771964918822050e-03" rms="2.9771745204925537e-01" purity="1.0897565633058548e-01" nType="0">
        <Node pos="l" depth="1" NCoef="0" IVar="-1" Cut="0.0000000000000000e+00" cType="1" res="1.9290185300633311e-03" rms="3.3943200111389160e-01" purity="1.4335080981254578e-01" nType="-99"/>
        <Node pos="r" depth="1" NCoef="0" IVar="2" Cut="2.4701330065727234e-01" cType="0" res="-2.4434588849544525e-02" rms="1.5133145451545715e-01" purity="2.4868734180927277e-02" nType="0">
          <Node pos="l" depth="2" NCoef="0" IVar="-1" Cut="0.0000000000000000e+00" cType="1" res="-4.8554567620158195e-03" rms="2.1452753245830536e-01" purity="5.2111871540546417e-02" nType="-99"/>
          <Node pos="r" depth="2" NCoef="0" IVar="-1" Cut="0.0000000000000000e+00" cType="1" res="-2.3794593289494514e-02" rms="1.0563363879919052e-01" purity="1.1249677278101444e-02" nType="-99"/>
        </Node>
      </Node>
    </BinaryTree>
    <BinaryTree type="DecisionTree" boostWeight="1.0000000000000000e+00" itree="85">
      <Node pos="s" depth="0" NCoef="0" IVar="6" Cut="4.9975016713142395e-01" cType="1" res="-1.9665362779051065e-03" rms="2.9765424132347107e-01" purity="1.0897565633058548e-01" nType="0">
        <Node pos="l" depth="1" NCoef="0" IVar="-1" Cut="0.0000000000000000e+00" cType="1" res="2.0384581293910742e-03" rms="3.3188959956169128e-01" purity="1.3836845755577087e-01" nType="-99"/>
        <Node pos="r" depth="1" NCoef="0" IVar="8" Cut="2.9954986572265625e+00" cType="1" res="-2.3746976628899574e-02" rms="1.9309002161026001e-01" purity="3.9917245507240295e-02" nType="0">
          <Node pos="l" depth="2" NCoef="0" IVar="-1" Cut="0.0000000000000000e+00" cType="1" res="-3.0092356610111892e-04" rms="2.2810675203800201e-01" purity="5.7454068213701248e-02" nType="-99"/>
          <Node pos="r" depth="2" NCoef="0" IVar="-1" Cut="0.0000000000000000e+00" cType="1" res="-1.5113566070795059e-02" rms="1.7440213263034821e-01" purity="3.2172676175832748e-02" nType="-99"/>
        </Node>
      </Node>
    </BinaryTree>
    <BinaryTree type="DecisionTree" boostWeight="1.0000000000000000e+00" itree="86">
