<?xml version="1.0"?>
<MethodSetup Method="BDT::BDT">
  <GeneralInfo>
    <Info name="TMVA Release" value="4.1.4 [262404]"/>
    <Info name="ROOT Release" value="5.34/10 [336394]"/>
    <Info name="Creator" value="sachikot"/>
    <Info name="Date" value="Wed Apr 16 01:09:29 2014"/>
    <Info name="Host" value="Linux lxbuild168.cern.ch 2.6.18-348.1.1.el5 #1 SMP Thu Jan 24 13:25:42 CET 2013 x86_64 x86_64 x86_64 GNU/Linux"/>
    <Info name="Dir" value="/uscms_data/d3/sachikot/tmp/PF/RECHECK_04152015/TMVA_Cat7"/>
    <Info name="Training events" value="735562"/>
    <Info name="TrainingTime" value="1.85257665e+03"/>
    <Info name="AnalysisType" value="Classification"/>
  </GeneralInfo>
  <Options>
    <Option name="V" modified="Yes">False</Option>
    <Option name="VerbosityLevel" modified="No">Default</Option>
    <Option name="VarTransform" modified="No">None</Option>
    <Option name="H" modified="Yes">False</Option>
    <Option name="CreateMVAPdfs" modified="No">False</Option>
    <Option name="IgnoreNegWeightsInTraining" modified="No">False</Option>
    <Option name="NTrees" modified="Yes">2000</Option>
    <Option name="RenormByClass" modified="No">False</Option>
    <Option name="BoostType" modified="Yes">Grad</Option>
    <Option name="AdaBoostR2Loss" modified="No">quadratic</Option>
    <Option name="UseBaggedGrad" modified="Yes">False</Option>
    <Option name="GradBaggingFraction" modified="No">6.000000e-01</Option>
    <Option name="Shrinkage" modified="Yes">1.000000e-01</Option>
    <Option name="AdaBoostBeta" modified="No">1.000000e+00</Option>
    <Option name="UseRandomisedTrees" modified="No">False</Option>
    <Option name="UseNvars" modified="Yes">4</Option>
    <Option name="UsePoissonNvars" modified="No">True</Option>
    <Option name="UseNTrainEvents" modified="No">735562</Option>
    <Option name="UseWeightedTrees" modified="No">True</Option>
    <Option name="UseYesNoLeaf" modified="No">True</Option>
    <Option name="NodePurityLimit" modified="No">5.000000e-01</Option>
    <Option name="SeparationType" modified="No">giniindex</Option>
    <Option name="nEventsMin" modified="Yes">100</Option>
    <Option name="nCuts" modified="Yes">2000</Option>
    <Option name="UseFisherCuts" modified="No">False</Option>
    <Option name="MinLinCorrForFisher" modified="No">8.000000e-01</Option>
    <Option name="UseExclusiveVars" modified="No">False</Option>
    <Option name="PruneStrength" modified="Yes">5.000000e+00</Option>
    <Option name="PruneMethod" modified="Yes">costcomplexity</Option>
    <Option name="PruneBeforeBoost" modified="No">False</Option>
    <Option name="PruningValFraction" modified="No">5.000000e-01</Option>
    <Option name="NNodesMax" modified="Yes">5</Option>
    <Option name="MaxDepth" modified="Yes">6</Option>
    <Option name="DoBoostMonitor" modified="No">False</Option>
    <Option name="NegWeightTreatment" modified="Yes">ignorenegweights</Option>
  </Options>
  <Variables NVar="10">
    <Variable VarIndex="0" Expression="NHits" Label="NHits" Title="NHits" Unit="" Internal="NHits" Type="F" Min="3.00000000e+00" Max="3.00000000e+01"/>
    <Variable VarIndex="1" Expression="NormChi" Label="NormChi" Title="NormChi" Unit="" Internal="NormChi" Type="F" Min="1.46419921e-09" Max="2.54995594e+01"/>
    <Variable VarIndex="2" Expression="dPtGSF" Label="dPtGSF" Title="dPtGSF" Unit="" Internal="dPtGSF" Type="F" Min="1.81715222e-05" Max="1.31657629e+03"/>
    <Variable VarIndex="3" Expression="EoP" Label="EoP" Title="EoP" Unit="" Internal="EoP" Type="F" Min="0.00000000e+00" Max="2.99998522e+00"/>
    <Variable VarIndex="4" Expression="ChiRatio" Label="ChiRatio" Title="ChiRatio" Unit="" Internal="ChiRatio" Type="F" Min="5.37783243e-02" Max="8.18766960e+07"/>
    <Variable VarIndex="5" Expression="RedChi" Label="RedChi" Title="RedChi" Unit="" Internal="RedChi" Type="F" Min="8.33986234e-03" Max="1.00000000e+03"/>
    <Variable VarIndex="6" Expression="EcalDEta" Label="EcalDEta" Title="EcalDEta" Unit="" Internal="EcalDEta" Type="F" Min="2.58813628e-07" Max="1.00000000e+03"/>
    <Variable VarIndex="7" Expression="EcalDPhi" Label="EcalDPhi" Title="EcalDPhi" Unit="" Internal="EcalDPhi" Type="F" Min="3.15743023e-07" Max="1.00000000e+03"/>
    <Variable VarIndex="8" Expression="pt" Label="pt" Title="pt" Unit="" Internal="pt" Type="F" Min="2.00000048e+00" Max="5.99999809e+00"/>
    <Variable VarIndex="9" Expression="eta" Label="eta" Title="eta" Unit="" Internal="eta" Type="F" Min="-3.04606652e+00" Max="3.00481677e+00"/>
  </Variables>
  <Spectators NSpec="0"/>
  <Classes NClass="2">
    <Class Name="Signal" Index="0"/>
    <Class Name="Background" Index="1"/>
  </Classes>
  <Transformations NTransformations="0"/>
  <MVAPdfs/>
  <Weights NTrees="2000" AnalysisType="1">
    <BinaryTree type="DecisionTree" boostWeight="1.0000000000000000e+00" itree="0">
      <Node pos="s" depth="0" NCoef="0" IVar="0" Cut="1.0002998352050781e+01" cType="1" res="-4.1895493865013123e-01" rms="2.7290430665016174e-01" purity="8.1045061349868774e-02" nType="0">
        <Node pos="l" depth="1" NCoef="0" IVar="-1" Cut="0.0000000000000000e+00" cType="1" res="-3.7511773407459259e-02" rms="3.2823383808135986e-01" purity="1.2282291054725647e-01" nType="-99"/>
        <Node pos="r" depth="1" NCoef="0" IVar="2" Cut="6.5797734260559082e-01" cType="0" res="-4.6492761373519897e-01" rms="1.8396282196044922e-01" purity="3.5072397440671921e-02" nType="0">
          <Node pos="l" depth="2" NCoef="0" IVar="-1" Cut="0.0000000000000000e+00" cType="1" res="-1.4453894458711147e-02" rms="4.7861087322235107e-01" purity="3.5532227158546448e-01" nType="-99"/>
          <Node pos="r" depth="2" NCoef="0" IVar="-1" Cut="0.0000000000000000e+00" cType="1" res="-5.4326668381690979e-02" rms="1.8033345043659210e-01" purity="3.3652655780315399e-02" nType="-99"/>
        </Node>
      </Node>
    </BinaryTree>
    <BinaryTree type="DecisionTree" boostWeight="1.0000000000000000e+00" itree="1">
      <Node pos="s" depth="0" NCoef="0" IVar="0" Cut="1.0002998352050781e+01" cType="1" res="-3.9625543355941772e-01" rms="2.7222156524658203e-01" purity="8.1045061349868774e-02" nType="0">
        <Node pos="l" depth="1" NCoef="0" IVar="-1" Cut="0.0000000000000000e+00" cType="1" res="-3.5697486251592636e-02" rms="3.2823383808135986e-01" purity="1.2282291054725647e-01" nType="-99"/>
        <Node pos="r" depth="1" NCoef="0" IVar="2" Cut="6.5797734260559082e-01" cType="0" res="-4.3787881731987000e-01" rms="1.8381452560424805e-01" purity="3.5072397440671921e-02" nType="0">
          <Node pos="l" depth="2" NCoef="0" IVar="-1" Cut="0.0000000000000000e+00" cType="1" res="-1.3734811916947365e-02" rms="4.7861087322235107e-01" purity="3.5532227158546448e-01" nType="-99"/>
          <Node pos="r" depth="2" NCoef="0" IVar="-1" Cut="0.0000000000000000e+00" cType="1" res="-5.1316566765308380e-02" rms="1.8033345043659210e-01" purity="3.3652655780315399e-02" nType="-99"/>
        </Node>
      </Node>
    </BinaryTree>
    <BinaryTree type="DecisionTree" boostWeight="1.0000000000000000e+00" itree="2">
      <Node pos="s" depth="0" NCoef="0" IVar="0" Cut="1.0002998352050781e+01" cType="1" res="-3.7483772635459900e-01" rms="2.7165132761001587e-01" purity="8.1045061349868774e-02" nType="0">
        <Node pos="l" depth="1" NCoef="0" IVar="-1" Cut="0.0000000000000000e+00" cType="1" res="-3.4059684723615646e-02" rms="3.2823383808135986e-01" purity="1.2282291054725647e-01" nType="-99"/>
        <Node pos="r" depth="1" NCoef="0" IVar="2" Cut="6.5797734260559082e-01" cType="0" res="-4.1247171163558960e-01" rms="1.8368427455425262e-01" purity="3.5072397440671921e-02" nType="0">
          <Node pos="l" depth="2" NCoef="0" IVar="-1" Cut="0.0000000000000000e+00" cType="1" res="-1.3056553900241852e-02" rms="4.7861084342002869e-01" purity="3.5532227158546448e-01" nType="-99"/>
          <Node pos="r" depth="2" NCoef="0" IVar="-1" Cut="0.0000000000000000e+00" cType="1" res="-4.8735953867435455e-02" rms="1.8033346533775330e-01" purity="3.3652655780315399e-02" nType="-99"/>
        </Node>
      </Node>
    </BinaryTree>
    <BinaryTree type="DecisionTree" boostWeight="1.0000000000000000e+00" itree="3">
      <Node pos="s" depth="0" NCoef="0" IVar="3" Cut="6.1169111728668213e-01" cType="0" res="-3.5462000966072083e-01" rms="2.7117553353309631e-01" purity="8.1045061349868774e-02" nType="0">
        <Node pos="l" depth="1" NCoef="0" IVar="-1" Cut="0.0000000000000000e+00" cType="1" res="-3.1792398542165756e-02" rms="3.1561517715454102e-01" purity="1.1391451954841614e-01" nType="-99"/>
        <Node pos="r" depth="1" NCoef="0" IVar="2" Cut="4.9976828694343567e-01" cType="0" res="-3.9137327671051025e-01" rms="2.0371067523956299e-01" purity="4.3869517743587494e-02" nType="0">
          <Node pos="l" depth="2" NCoef="0" IVar="-1" Cut="0.0000000000000000e+00" cType="1" res="-2.3730752989649773e-02" rms="4.1226637363433838e-01" purity="2.1802937984466553e-01" nType="-99"/>
          <Node pos="r" depth="2" NCoef="0" IVar="-1" Cut="0.0000000000000000e+00" cType="1" res="-4.8932664096355438e-02" rms="1.9080469012260437e-01" purity="3.8240745663642883e-02" nType="-99"/>
        </Node>
      </Node>
    </BinaryTree>
    <BinaryTree type="DecisionTree" boostWeight="1.0000000000000000e+00" itree="4">
      <Node pos="s" depth="0" NCoef="0" IVar="0" Cut="9.0044975280761719e+00" cType="1" res="-3.3534058928489685e-01" rms="2.7060607075691223e-01" purity="8.1045061349868774e-02" nType="0">
        <Node pos="l" depth="1" NCoef="0" IVar="-1" Cut="0.0000000000000000e+00" cType="1" res="-2.9938524588942528e-02" rms="3.3231893181800842e-01" purity="1.2706020474433899e-01" nType="-99"/>
        <Node pos="r" depth="1" NCoef="0" IVar="2" Cut="6.5797734260559082e-01" cType="0" res="-3.6588993668556213e-01" rms="1.9715316593647003e-01" purity="4.1036028414964676e-02" nType="0">
          <Node pos="l" depth="2" NCoef="0" IVar="-1" Cut="0.0000000000000000e+00" cType="1" res="-8.7483320385217667e-03" rms="4.8609137535095215e-01" purity="3.7552398443222046e-01" nType="-99"/>
          <Node pos="r" depth="2" NCoef="0" IVar="-1" Cut="0.0000000000000000e+00" cType="1" res="-4.4314414262771606e-02" rms="1.9412989914417267e-01" purity="3.9600290358066559e-02" nType="-99"/>
        </Node>
      </Node>
    </BinaryTree>
    <BinaryTree type="DecisionTree" boostWeight="1.0000000000000000e+00" itree="5">
      <Node pos="s" depth="0" NCoef="0" IVar="3" Cut="5.6071686744689941e-01" cType="0" res="-3.1726169586181641e-01" rms="2.7020069956779480e-01" purity="8.1045061349868774e-02" nType="0">
        <Node pos="l" depth="1" NCoef="0" IVar="-1" Cut="0.0000000000000000e+00" cType="1" res="-2.9670784249901772e-02" rms="3.1196424365043640e-01" purity="1.1139782518148422e-01" nType="-99"/>
        <Node pos="r" depth="1" NCoef="0" IVar="2" Cut="4.9976828694343567e-01" cType="0" res="-3.5260695219039917e-01" rms="1.9718109071254730e-01" purity="4.1186835616827011e-02" nType="0">
          <Node pos="l" depth="2" NCoef="0" IVar="-1" Cut="0.0000000000000000e+00" cType="1" res="-2.2488834336400032e-02" rms="4.0082955360412598e-01" purity="2.0211406052112579e-01" nType="-99"/>
          <Node pos="r" depth="2" NCoef="0" IVar="-1" Cut="0.0000000000000000e+00" cType="1" res="-4.5436795800924301e-02" rms="1.8522490561008453e-01" purity="3.6017592996358871e-02" nType="-99"/>
        </Node>
      </Node>
    </BinaryTree>
    <BinaryTree type="DecisionTree" boostWeight="1.0000000000000000e+00" itree="6">
      <Node pos="s" depth="0" NCoef="0" IVar="0" Cut="9.0044975280761719e+00" cType="1" res="-3.0009549856185913e-01" rms="2.6977992057800293e-01" purity="8.1045061349868774e-02" nType="0">
        <Node pos="l" depth="1" NCoef="0" IVar="-1" Cut="0.0000000000000000e+00" cType="1" res="-2.7377782389521599e-02" rms="3.3174884319305420e-01" purity="1.2706020474433899e-01" nType="-99"/>
        <Node pos="r" depth="1" NCoef="0" IVar="2" Cut="6.5797734260559082e-01" cType="0" res="-3.2775560021400452e-01" rms="1.9678813219070435e-01" purity="4.1036028414964676e-02" nType="0">
          <Node pos="l" depth="2" NCoef="0" IVar="-1" Cut="0.0000000000000000e+00" cType="1" res="-7.0009557530283928e-03" rms="4.8656252026557922e-01" purity="3.7552398443222046e-01" nType="-99"/>
          <Node pos="r" depth="2" NCoef="0" IVar="-1" Cut="0.0000000000000000e+00" cType="1" res="-4.1158538311719894e-02" rms="1.9387397170066833e-01" purity="3.9600290358066559e-02" nType="-99"/>
        </Node>
      </Node>
    </BinaryTree>
    <BinaryTree type="DecisionTree" boostWeight="1.0000000000000000e+00" itree="7">
      <Node pos="s" depth="0" NCoef="0" IVar="3" Cut="6.5067148208618164e-01" cType="0" res="-2.8395491838455200e-01" rms="2.6945710182189941e-01" purity="8.1045061349868774e-02" nType="0">
        <Node pos="l" depth="1" NCoef="0" IVar="-1" Cut="0.0000000000000000e+00" cType="1" res="-2.6348084211349487e-02" rms="3.1688794493675232e-01" purity="1.1577846109867096e-01" nType="-99"/>
        <Node pos="r" depth="1" NCoef="0" IVar="2" Cut="4.9976828694343567e-01" cType="0" res="-3.1196314096450806e-01" rms="2.0695473253726959e-01" purity="4.5801527798175812e-02" nType="0">
          <Node pos="l" depth="2" NCoef="0" IVar="-1" Cut="0.0000000000000000e+00" cType="1" res="-1.7396945506334305e-02" rms="4.2040517926216125e-01" purity="2.3010058701038361e-01" nType="-99"/>
          <Node pos="r" depth="2" NCoef="0" IVar="-1" Cut="0.0000000000000000e+00" cType="1" res="-4.1838172823190689e-02" rms="1.9401276111602783e-01" purity="3.9776381105184555e-02" nType="-99"/>
        </Node>
      </Node>
    </BinaryTree>
    <BinaryTree type="DecisionTree" boostWeight="1.0000000000000000e+00" itree="8">
      <Node pos="s" depth="0" NCoef="0" IVar="0" Cut="1.0002998352050781e+01" cType="1" res="-2.6857158541679382e-01" rms="2.6907977461814880e-01" purity="8.1045061349868774e-02" nType="0">
        <Node pos="l" depth="1" NCoef="0" IVar="-1" Cut="0.0000000000000000e+00" cType="1" res="-2.5979340076446533e-02" rms="3.2632967829704285e-01" purity="1.2282291054725647e-01" nType="-99"/>
        <Node pos="r" depth="1" NCoef="0" IVar="1" Cut="8.9472270011901855e-01" cType="0" res="-2.9709988832473755e-01" rms="1.8259441852569580e-01" purity="3.5072397440671921e-02" nType="0">
          <Node pos="l" depth="2" NCoef="0" IVar="-1" Cut="0.0000000000000000e+00" cType="1" res="-3.7322111427783966e-02" rms="2.2732032835483551e-01" purity="5.6034296751022339e-02" nType="-99"/>
          <Node pos="r" depth="2" NCoef="0" IVar="-1" Cut="0.0000000000000000e+00" cType="1" res="-3.9796393364667892e-02" rms="1.5222027897834778e-01" purity="2.3845754563808441e-02" nType="-99"/>
        </Node>
      </Node>
    </BinaryTree>
    <BinaryTree type="DecisionTree" boostWeight="1.0000000000000000e+00" itree="9">
      <Node pos="s" depth="0" NCoef="0" IVar="3" Cut="4.7675928473472595e-01" cType="0" res="-2.5419971346855164e-01" rms="2.6884469389915466e-01" purity="8.1045061349868774e-02" nType="0">
        <Node pos="l" depth="1" NCoef="0" IVar="-1" Cut="0.0000000000000000e+00" cType="1" res="-2.6073932647705078e-02" rms="3.0528962612152100e-01" purity="1.0689926892518997e-01" nType="-99"/>
        <Node pos="r" depth="1" NCoef="0" IVar="2" Cut="4.9976828694343567e-01" cType="0" res="-2.8747415542602539e-01" rms="1.8599398434162140e-01" purity="3.6647465080022812e-02" nType="0">
          <Node pos="l" depth="2" NCoef="0" IVar="-1" Cut="0.0000000000000000e+00" cType="1" res="-2.1053874865174294e-02" rms="3.7538650631904602e-01" purity="1.7091815173625946e-01" nType="-99"/>
          <Node pos="r" depth="2" NCoef="0" IVar="-1" Cut="0.0000000000000000e+00" cType="1" res="-4.0462914854288101e-02" rms="1.7600809037685394e-01" purity="3.2430969178676605e-02" nType="-99"/>
        </Node>
      </Node>
    </BinaryTree>
    <BinaryTree type="DecisionTree" boostWeight="1.0000000000000000e+00" itree="10">
      <Node pos="s" depth="0" NCoef="0" IVar="0" Cut="7.0074963569641113e+00" cType="1" res="-2.4054442346096039e-01" rms="2.6861348748207092e-01" purity="8.1045061349868774e-02" nType="0">
        <Node pos="l" depth="1" NCoef="0" IVar="-1" Cut="0.0000000000000000e+00" cType="1" res="-2.1459715440869331e-02" rms="3.3813163638114929e-01" purity="1.3377597928047180e-01" nType="-99"/>
        <Node pos="r" depth="1" NCoef="0" IVar="4" Cut="1.0532248020172119e+00" cType="1" res="-2.5950944423675537e-01" rms="2.1843652427196503e-01" purity="5.1752164959907532e-02" nType="0">
          <Node pos="l" depth="2" NCoef="0" IVar="-1" Cut="0.0000000000000000e+00" cType="1" res="-3.4260608255863190e-02" rms="2.4377146363258362e-01" purity="6.5636254847049713e-02" nType="-99"/>
          <Node pos="r" depth="2" NCoef="0" IVar="-1" Cut="0.0000000000000000e+00" cType="1" res="-3.6578629165887833e-02" rms="1.5775622427463531e-01" purity="2.6054617017507553e-02" nType="-99"/>
        </Node>
      </Node>
    </BinaryTree>
    <BinaryTree type="DecisionTree" boostWeight="1.0000000000000000e+00" itree="11">
      <Node pos="s" depth="0" NCoef="0" IVar="0" Cut="1.0002998352050781e+01" cType="1" res="-2.2761252522468567e-01" rms="2.6840469241142273e-01" purity="8.1045061349868774e-02" nType="0">
        <Node pos="l" depth="1" NCoef="0" IVar="-1" Cut="0.0000000000000000e+00" cType="1" res="-2.3089619353413582e-02" rms="3.2588541507720947e-01" purity="1.2282291054725647e-01" nType="-99"/>
        <Node pos="r" depth="1" NCoef="0" IVar="2" Cut="6.5797734260559082e-01" cType="0" res="-2.5224667787551880e-01" rms="1.8246255815029144e-01" purity="3.5072397440671921e-02" nType="0">
          <Node pos="l" depth="2" NCoef="0" IVar="-1" Cut="0.0000000000000000e+00" cType="1" res="-3.2426896505057812e-03" rms="4.8040592670440674e-01" purity="3.5532227158546448e-01" nType="-99"/>
          <Node pos="r" depth="2" NCoef="0" IVar="-1" Cut="0.0000000000000000e+00" cType="1" res="-3.6013986915349960e-02" rms="1.7943969368934631e-01" purity="3.3652655780315399e-02" nType="-99"/>
        </Node>
      </Node>
    </BinaryTree>
    <BinaryTree type="DecisionTree" boostWeight="1.0000000000000000e+00" itree="12">
      <Node pos="s" depth="0" NCoef="0" IVar="3" Cut="4.9624943733215332e-01" cType="0" res="-2.1545268595218658e-01" rms="2.6822763681411743e-01" purity="8.1045061349868774e-02" nType="0">
        <Node pos="l" depth="1" NCoef="0" IVar="-1" Cut="0.0000000000000000e+00" cType="1" res="-2.3096095770597458e-02" rms="3.0616396665573120e-01" purity="1.0798320919275284e-01" nType="-99"/>
        <Node pos="r" depth="1" NCoef="0" IVar="2" Cut="4.9976828694343567e-01" cType="0" res="-2.4501405656337738e-01" rms="1.8836838006973267e-01" purity="3.7719398736953735e-02" nType="0">
          <Node pos="l" depth="2" NCoef="0" IVar="-1" Cut="0.0000000000000000e+00" cType="1" res="-1.7592981457710266e-02" rms="3.7998089194297791e-01" purity="1.7679800093173981e-01" nType="-99"/>
          <Node pos="r" depth="2" NCoef="0" IVar="-1" Cut="0.0000000000000000e+00" cType="1" res="-3.7341985851526260e-02" rms="1.7830266058444977e-01" purity="3.3345155417919159e-02" nType="-99"/>
        </Node>
      </Node>
    </BinaryTree>
    <BinaryTree type="DecisionTree" boostWeight="1.0000000000000000e+00" itree="13">
      <Node pos="s" depth="0" NCoef="0" IVar="0" Cut="7.0074963569641113e+00" cType="1" res="-2.0389007031917572e-01" rms="2.6804453134536743e-01" purity="8.1045061349868774e-02" nType="0">
        <Node pos="l" depth="1" NCoef="0" IVar="-1" Cut="0.0000000000000000e+00" cType="1" res="-1.9077517092227936e-02" rms="3.3783200383186340e-01" purity="1.3377597928047180e-01" nType="-99"/>
        <Node pos="r" depth="1" NCoef="0" IVar="4" Cut="1.0532248020172119e+00" cType="1" res="-2.2021831572055817e-01" rms="2.1820323169231415e-01" purity="5.1752164959907532e-02" nType="0">
          <Node pos="l" depth="2" NCoef="0" IVar="-1" Cut="0.0000000000000000e+00" cType="1" res="-3.1158922240138054e-02" rms="2.4348916113376617e-01" purity="6.5636254847049713e-02" nType="-99"/>
          <Node pos="r" depth="2" NCoef="0" IVar="-1" Cut="0.0000000000000000e+00" cType="1" res="-3.4129213541746140e-02" rms="1.5775662660598755e-01" purity="2.6054617017507553e-02" nType="-99"/>
        </Node>
      </Node>
    </BinaryTree>
    <BinaryTree type="DecisionTree" boostWeight="1.0000000000000000e+00" itree="14">
      <Node pos="s" depth="0" NCoef="0" IVar="3" Cut="6.7316007614135742e-01" cType="0" res="-1.9295388460159302e-01" rms="2.6789739727973938e-01" purity="8.1045061349868774e-02" nType="0">
        <Node pos="l" depth="1" NCoef="0" IVar="-1" Cut="0.0000000000000000e+00" cType="1" res="-1.9850099459290504e-02" rms="3.1679463386535645e-01" purity="1.1664379388093948e-01" nType="-99"/>
        <Node pos="r" depth="1" NCoef="0" IVar="2" Cut="4.9976828694343567e-01" cType="0" res="-2.1423758566379547e-01" rms="2.0865638554096222e-01" purity="4.7047112137079239e-02" nType="0">
          <Node pos="l" depth="2" NCoef="0" IVar="-1" Cut="0.0000000000000000e+00" cType="1" res="-8.8523160666227341e-03" rms="4.2481669783592224e-01" purity="2.3748968541622162e-01" nType="-99"/>
          <Node pos="r" depth="2" NCoef="0" IVar="-1" Cut="0.0000000000000000e+00" cType="1" res="-3.4460935741662979e-02" rms="1.9587977230548859e-01" purity="4.0815416723489761e-02" nType="-99"/>
        </Node>
      </Node>
    </BinaryTree>
    <BinaryTree type="DecisionTree" boostWeight="1.0000000000000000e+00" itree="15">
      <Node pos="s" depth="0" NCoef="0" IVar="0" Cut="1.0002998352050781e+01" cType="1" res="-1.8253196775913239e-01" rms="2.6767939329147339e-01" purity="8.1045061349868774e-02" nType="0">
        <Node pos="l" depth="1" NCoef="0" IVar="-1" Cut="0.0000000000000000e+00" cType="1" res="-1.9725002348423004e-02" rms="3.2517248392105103e-01" purity="1.2282291054725647e-01" nType="-99"/>
        <Node pos="r" depth="1" NCoef="0" IVar="1" Cut="8.9472270011901855e-01" cType="0" res="-2.0454433560371399e-01" rms="1.8226388096809387e-01" purity="3.5072397440671921e-02" nType="0">
          <Node pos="l" depth="2" NCoef="0" IVar="-1" Cut="0.0000000000000000e+00" cType="1" res="-3.0228130519390106e-02" rms="2.2668598592281342e-01" purity="5.6034296751022339e-02" nType="-99"/>
          <Node pos="r" depth="2" NCoef="0" IVar="-1" Cut="0.0000000000000000e+00" cType="1" res="-3.3856522291898727e-02" rms="1.5221749246120453e-01" purity="2.3845754563808441e-02" nType="-99"/>
        </Node>
      </Node>
    </BinaryTree>
    <BinaryTree type="DecisionTree" boostWeight="1.0000000000000000e+00" itree="16">
      <Node pos="s" depth="0" NCoef="0" IVar="3" Cut="4.3478047847747803e-01" cType="0" res="-1.7281213402748108e-01" rms="2.6756158471107483e-01" purity="8.1045061349868774e-02" nType="0">
        <Node pos="l" depth="1" NCoef="0" IVar="-1" Cut="0.0000000000000000e+00" cType="1" res="-2.0534923300147057e-02" rms="3.0091175436973572e-01" purity="1.0436512529850006e-01" nType="-99"/>
        <Node pos="r" depth="1" NCoef="0" IVar="2" Cut="3.7851101160049438e-01" cType="0" res="-2.0139564573764801e-01" rms="1.8048697710037231e-01" purity="3.4565687179565430e-02" nType="0">
          <Node pos="l" depth="2" NCoef="0" IVar="-1" Cut="0.0000000000000000e+00" cType="1" res="-2.2028237581253052e-02" rms="2.8747755289077759e-01" purity="9.2936322093009949e-02" nType="-99"/>
          <Node pos="r" depth="2" NCoef="0" IVar="-1" Cut="0.0000000000000000e+00" cType="1" res="-3.6769952625036240e-02" rms="1.4898926019668579e-01" purity="2.2982718423008919e-02" nType="-99"/>
        </Node>
      </Node>
    </BinaryTree>
    <BinaryTree type="DecisionTree" boostWeight="1.0000000000000000e+00" itree="17">
      <Node pos="s" depth="0" NCoef="0" IVar="0" Cut="9.0044975280761719e+00" cType="1" res="-1.6355530917644501e-01" rms="2.6742526888847351e-01" purity="8.1045061349868774e-02" nType="0">
        <Node pos="l" depth="1" NCoef="0" IVar="-1" Cut="0.0000000000000000e+00" cType="1" res="-1.7561104148626328e-02" rms="3.2984235882759094e-01" purity="1.2706020474433899e-01" nType="-99"/>
        <Node pos="r" depth="1" NCoef="0" IVar="4" Cut="1.0532248020172119e+00" cType="1" res="-1.8200343847274780e-01" rms="1.9588449597358704e-01" purity="4.1036028414964676e-02" nType="0">
          <Node pos="l" depth="2" NCoef="0" IVar="-1" Cut="0.0000000000000000e+00" cType="1" res="-2.9566705226898193e-02" rms="2.2022137045860291e-01" purity="5.2666299045085907e-02" nType="-99"/>
          <Node pos="r" depth="2" NCoef="0" IVar="-1" Cut="0.0000000000000000e+00" cType="1" res="-3.2275594770908356e-02" rms="1.3192388415336609e-01" purity="1.7816215753555298e-02" nType="-99"/>
        </Node>
      </Node>
    </BinaryTree>
    <BinaryTree type="DecisionTree" boostWeight="1.0000000000000000e+00" itree="18">
      <Node pos="s" depth="0" NCoef="0" IVar="3" Cut="6.5816766023635864e-01" cType="0" res="-1.5483330190181732e-01" rms="2.6732921600341797e-01" purity="8.1045061349868774e-02" nType="0">
        <Node pos="l" depth="1" NCoef="0" IVar="-1" Cut="0.0000000000000000e+00" cType="1" res="-1.7210435122251511e-02" rms="3.1579163670539856e-01" purity="1.1608392000198364e-01" nType="-99"/>
        <Node pos="r" depth="1" NCoef="0" IVar="2" Cut="4.9976828694343567e-01" cType="0" res="-1.7365384101867676e-01" rms="2.0655822753906250e-01" purity="4.6218734234571457e-02" nType="0">
          <Node pos="l" depth="2" NCoef="0" IVar="-1" Cut="0.0000000000000000e+00" cType="1" res="-5.9212725609540939e-03" rms="4.2124220728874207e-01" purity="2.3259468376636505e-01" nType="-99"/>
          <Node pos="r" depth="2" NCoef="0" IVar="-1" Cut="0.0000000000000000e+00" cType="1" res="-3.1594179570674896e-02" rms="1.9415265321731567e-01" purity="4.0115818381309509e-02" nType="-99"/>
        </Node>
      </Node>
    </BinaryTree>
    <BinaryTree type="DecisionTree" boostWeight="1.0000000000000000e+00" itree="19">
      <Node pos="s" depth="0" NCoef="0" IVar="0" Cut="1.1001499176025391e+01" cType="1" res="-1.4648364484310150e-01" rms="2.6717841625213623e-01" purity="8.1045061349868774e-02" nType="0">
        <Node pos="l" depth="1" NCoef="0" IVar="-1" Cut="0.0000000000000000e+00" cType="1" res="-1.7661530524492264e-02" rms="3.1619235873222351e-01" purity="1.1598017066717148e-01" nType="-99"/>
        <Node pos="r" depth="1" NCoef="0" IVar="1" Cut="9.0419661998748779e-01" cType="0" res="-1.6877117753028870e-01" rms="1.7537702620029449e-01" purity="3.2450214028358459e-02" nType="0">
          <Node pos="l" depth="2" NCoef="0" IVar="-1" Cut="0.0000000000000000e+00" cType="1" res="-2.7543552219867706e-02" rms="2.2058352828025818e-01" purity="5.3046878427267075e-02" nType="-99"/>
          <Node pos="r" depth="2" NCoef="0" IVar="-1" Cut="0.0000000000000000e+00" cType="1" res="-3.1707290560007095e-02" rms="1.4433401823043823e-01" purity="2.1362589672207832e-02" nType="-99"/>
        </Node>
      </Node>
    </BinaryTree>
    <BinaryTree type="DecisionTree" boostWeight="1.0000000000000000e+00" itree="20">
      <Node pos="s" depth="0" NCoef="0" IVar="3" Cut="3.4782436490058899e-01" cType="0" res="-1.3873255252838135e-01" rms="2.6710546016693115e-01" purity="8.1045061349868774e-02" nType="0">
        <Node pos="l" depth="1" NCoef="0" IVar="-1" Cut="0.0000000000000000e+00" cType="1" res="-1.8372140824794769e-02" rms="2.9339087009429932e-01" purity="9.9099151790142059e-02" nType="-99"/>
        <Node pos="r" depth="1" NCoef="0" IVar="2" Cut="3.6800262331962585e-01" cType="0" res="-1.6911426186561584e-01" rms="1.6832739114761353e-01" purity="2.9868023470044136e-02" nType="0">
          <Node pos="l" depth="2" NCoef="0" IVar="-1" Cut="0.0000000000000000e+00" cType="1" res="-2.2287216037511826e-02" rms="2.6063773036003113e-01" purity="7.4760608375072479e-02" nType="-99"/>
          <Node pos="r" depth="2" NCoef="0" IVar="-1" Cut="0.0000000000000000e+00" cType="1" res="-3.6929983645677567e-02" rms="1.3759435713291168e-01" purity="1.9443964585661888e-02" nType="-99"/>
        </Node>
      </Node>
    </BinaryTree>
    <BinaryTree type="DecisionTree" boostWeight="1.0000000000000000e+00" itree="21">
      <Node pos="s" depth="0" NCoef="0" IVar="0" Cut="7.0074963569641113e+00" cType="1" res="-1.3128624856472015e-01" rms="2.6702138781547546e-01" purity="8.1045061349868774e-02" nType="0">
        <Node pos="l" depth="1" NCoef="0" IVar="-1" Cut="0.0000000000000000e+00" cType="1" res="-1.3542187400162220e-02" rms="3.3678239583969116e-01" purity="1.3377597928047180e-01" nType="-99"/>
        <Node pos="r" depth="1" NCoef="0" IVar="4" Cut="1.0532248020172119e+00" cType="1" res="-1.4504730701446533e-01" rms="2.1764817833900452e-01" purity="5.1752164959907532e-02" nType="0">
          <Node pos="l" depth="2" NCoef="0" IVar="-1" Cut="0.0000000000000000e+00" cType="1" res="-2.4790171533823013e-02" rms="2.4280510842800140e-01" purity="6.5636254847049713e-02" nType="-99"/>
          <Node pos="r" depth="2" NCoef="0" IVar="-1" Cut="0.0000000000000000e+00" cType="1" res="-2.9638150706887245e-02" rms="1.5778768062591553e-01" purity="2.6054617017507553e-02" nType="-99"/>
        </Node>
      </Node>
    </BinaryTree>
    <BinaryTree type="DecisionTree" boostWeight="1.0000000000000000e+00" itree="22">
      <Node pos="s" depth="0" NCoef="0" IVar="3" Cut="1.3808027505874634e+00" cType="0" res="-1.2426598370075226e-01" rms="2.6693463325500488e-01" purity="8.1045061349868774e-02" nType="0">
        <Node pos="l" depth="1" NCoef="0" IVar="-1" Cut="0.0000000000000000e+00" cType="1" res="-1.0345678776502609e-02" rms="3.3494961261749268e-01" purity="1.3336156308650970e-01" nType="-99"/>
        <Node pos="r" depth="1" NCoef="0" IVar="2" Cut="6.5797734260559082e-01" cType="0" res="-1.3361762464046478e-01" rms="2.4413879215717316e-01" purity="6.6674910485744476e-02" nType="0">
          <Node pos="l" depth="2" NCoef="0" IVar="-1" Cut="0.0000000000000000e+00" cType="1" res="1.9012067466974258e-02" rms="4.9772304296493530e-01" purity="4.0866905450820923e-01" nType="-99"/>
          <Node pos="r" depth="2" NCoef="0" IVar="-1" Cut="0.0000000000000000e+00" cType="1" res="-2.4619463831186295e-02" rms="2.4253983795642853e-01" purity="6.5648242831230164e-02" nType="-99"/>
        </Node>
      </Node>
    </BinaryTree>
    <BinaryTree type="DecisionTree" boostWeight="1.0000000000000000e+00" itree="23">
      <Node pos="s" depth="0" NCoef="0" IVar="0" Cut="1.0002998352050781e+01" cType="1" res="-1.1748628318309784e-01" rms="2.6686292886734009e-01" purity="8.1045061349868774e-02" nType="0">
        <Node pos="l" depth="1" NCoef="0" IVar="-1" Cut="0.0000000000000000e+00" cType="1" res="-1.4239169657230377e-02" rms="3.2436445355415344e-01" purity="1.2282291054725647e-01" nType="-99"/>
        <Node pos="r" depth="1" NCoef="0" IVar="2" Cut="6.5797734260559082e-01" cType="0" res="-1.3640685379505157e-01" rms="1.8199595808982849e-01" purity="3.5072397440671921e-02" nType="0">
          <Node pos="l" depth="2" NCoef="0" IVar="-1" Cut="0.0000000000000000e+00" cType="1" res="8.4149204194545746e-03" rms="4.8244321346282959e-01" purity="3.5532227158546448e-01" nType="-99"/>
          <Node pos="r" depth="2" NCoef="0" IVar="-1" Cut="0.0000000000000000e+00" cType="1" res="-2.8118150308728218e-02" rms="1.7902547121047974e-01" purity="3.3652655780315399e-02" nType="-99"/>
        </Node>
      </Node>
    </BinaryTree>
    <BinaryTree type="DecisionTree" boostWeight="1.0000000000000000e+00" itree="24">
      <Node pos="s" depth="0" NCoef="0" IVar="3" Cut="4.6026760339736938e-01" cType="0" res="-1.1123557388782501e-01" rms="2.6678779721260071e-01" purity="8.1045061349868774e-02" nType="0">
        <Node pos="l" depth="1" NCoef="0" IVar="-1" Cut="0.0000000000000000e+00" cType="1" res="-1.5074061229825020e-02" rms="3.0238151550292969e-01" purity="1.0593289136886597e-01" nType="-99"/>
        <Node pos="r" depth="1" NCoef="0" IVar="2" Cut="4.9976828694343567e-01" cType="0" res="-1.3419161736965179e-01" rms="1.8320828676223755e-01" purity="3.5844825208187103e-02" nType="0">
          <Node pos="l" depth="2" NCoef="0" IVar="-1" Cut="0.0000000000000000e+00" cType="1" res="-9.9638393148779869e-03" rms="3.6969587206840515e-01" purity="1.6641344130039215e-01" nType="-99"/>
          <Node pos="r" depth="2" NCoef="0" IVar="-1" Cut="0.0000000000000000e+00" cType="1" res="-2.9599724337458611e-02" rms="1.7381308972835541e-01" purity="3.1749214977025986e-02" nType="-99"/>
        </Node>
      </Node>
    </BinaryTree>
    <BinaryTree type="DecisionTree" boostWeight="1.0000000000000000e+00" itree="25">
      <Node pos="s" depth="0" NCoef="0" IVar="0" Cut="1.2013493537902832e+01" cType="1" res="-1.0530171543359756e-01" rms="2.6673293113708496e-01" purity="8.1045061349868774e-02" nType="0">
        <Node pos="l" depth="1" NCoef="0" IVar="-1" Cut="0.0000000000000000e+00" cType="1" res="-1.4515107497572899e-02" rms="3.0814418196678162e-01" purity="1.1005733907222748e-01" nType="-99"/>
        <Node pos="r" depth="1" NCoef="0" IVar="4" Cut="5.5350154638290405e-01" cType="1" res="-1.2822814285755157e-01" rms="1.6822780668735504e-01" purity="2.9833290725946426e-02" nType="0">
          <Node pos="l" depth="2" NCoef="0" IVar="-1" Cut="0.0000000000000000e+00" cType="1" res="-1.9121930003166199e-02" rms="2.6063248515129089e-01" purity="7.7548794448375702e-02" nType="-99"/>
          <Node pos="r" depth="2" NCoef="0" IVar="-1" Cut="0.0000000000000000e+00" cType="1" res="-2.8198776766657829e-02" rms="1.5705415606498718e-01" purity="2.5670576840639114e-02" nType="-99"/>
        </Node>
      </Node>
    </BinaryTree>
    <BinaryTree type="DecisionTree" boostWeight="1.0000000000000000e+00" itree="26">
      <Node pos="s" depth="0" NCoef="0" IVar="0" Cut="7.0074963569641113e+00" cType="1" res="-9.9768444895744324e-02" rms="2.6669153571128845e-01" purity="8.1045061349868774e-02" nType="0">
        <Node pos="l" depth="1" NCoef="0" IVar="-1" Cut="0.0000000000000000e+00" cType="1" res="-1.0755972936749458e-02" rms="3.3661702275276184e-01" purity="1.3377597928047180e-01" nType="-99"/>
        <Node pos="r" depth="1" NCoef="0" IVar="4" Cut="1.0532248020172119e+00" cType="1" res="-1.1214862018823624e-01" rms="2.1739324927330017e-01" purity="5.1752164959907532e-02" nType="0">
          <Node pos="l" depth="2" NCoef="0" IVar="-1" Cut="0.0000000000000000e+00" cType="1" res="-2.1420761942863464e-02" rms="2.4253527820110321e-01" purity="6.5636254847049713e-02" nType="-99"/>
          <Node pos="r" depth="2" NCoef="0" IVar="-1" Cut="0.0000000000000000e+00" cType="1" res="-2.7567612007260323e-02" rms="1.5767866373062134e-01" purity="2.6054617017507553e-02" nType="-99"/>
        </Node>
      </Node>
    </BinaryTree>
    <BinaryTree type="DecisionTree" boostWeight="1.0000000000000000e+00" itree="27">
      <Node pos="s" depth="0" NCoef="0" IVar="3" Cut="5.7870781421661377e-01" cType="0" res="-9.4437055289745331e-02" rms="2.6662686467170715e-01" purity="8.1045061349868774e-02" nType="0">
        <Node pos="l" depth="1" NCoef="0" IVar="-1" Cut="0.0000000000000000e+00" cType="1" res="-1.2419119477272034e-02" rms="3.1043863296508789e-01" purity="1.1231179535388947e-01" nType="-99"/>
        <Node pos="r" depth="1" NCoef="0" IVar="2" Cut="4.9976828694343567e-01" cType="0" res="-1.1306656152009964e-01" rms="1.9752974808216095e-01" purity="4.2155824601650238e-02" nType="0">
          <Node pos="l" depth="2" NCoef="0" IVar="-1" Cut="0.0000000000000000e+00" cType="1" res="-2.4377515073865652e-03" rms="4.0220779180526733e-01" purity="2.0651635527610779e-01" nType="-99"/>
          <Node pos="r" depth="2" NCoef="0" IVar="-1" Cut="0.0000000000000000e+00" cType="1" res="-2.7124414220452309e-02" rms="1.8644155561923981e-01" purity="3.6870438605546951e-02" nType="-99"/>
        </Node>
      </Node>
    </BinaryTree>
    <BinaryTree type="DecisionTree" boostWeight="1.0000000000000000e+00" itree="28">
      <Node pos="s" depth="0" NCoef="0" IVar="0" Cut="1.0002998352050781e+01" cType="1" res="-8.9357420802116394e-02" rms="2.6655030250549316e-01" purity="8.1045061349868774e-02" nType="0">
        <Node pos="l" depth="1" NCoef="0" IVar="-1" Cut="0.0000000000000000e+00" cType="1" res="-1.1447681114077568e-02" rms="3.2409802079200745e-01" purity="1.2282291054725647e-01" nType="-99"/>
        <Node pos="r" depth="1" NCoef="0" IVar="1" Cut="8.9472270011901855e-01" cType="0" res="-1.0664226114749908e-01" rms="1.8186652660369873e-01" purity="3.5072397440671921e-02" nType="0">
          <Node pos="l" depth="2" NCoef="0" IVar="-1" Cut="0.0000000000000000e+00" cType="1" res="-2.1288031712174416e-02" rms="2.2617119550704956e-01" purity="5.6034296751022339e-02" nType="-99"/>
          <Node pos="r" depth="2" NCoef="0" IVar="-1" Cut="0.0000000000000000e+00" cType="1" res="-2.7587231248617172e-02" rms="1.5205001831054688e-01" purity="2.3845754563808441e-02" nType="-99"/>
        </Node>
      </Node>
    </BinaryTree>
    <BinaryTree type="DecisionTree" boostWeight="1.0000000000000000e+00" itree="29">
      <Node pos="s" depth="0" NCoef="0" IVar="3" Cut="9.7150945663452148e-01" cType="0" res="-8.4611192345619202e-02" rms="2.6649686694145203e-01" purity="8.1045061349868774e-02" nType="0">
        <Node pos="l" depth="1" NCoef="0" IVar="-1" Cut="0.0000000000000000e+00" cType="1" res="-9.1184182092547417e-03" rms="3.2393109798431396e-01" purity="1.2386738508939743e-01" nType="-99"/>
        <Node pos="r" depth="1" NCoef="0" IVar="3" Cut="3.0101493000984192e-01" cType="0" res="-9.6158809959888458e-02" rms="2.3040127754211426e-01" purity="5.8889642357826233e-02" nType="0">
          <Node pos="l" depth="2" NCoef="0" IVar="-1" Cut="0.0000000000000000e+00" cType="1" res="-1.8285481259226799e-02" rms="2.5744166970252991e-01" purity="7.4598073959350586e-02" nType="-99"/>
          <Node pos="r" depth="2" NCoef="0" IVar="-1" Cut="0.0000000000000000e+00" cType="1" res="-3.0237078666687012e-02" rms="1.6224916279315948e-01" purity="2.7604511007666588e-02" nType="-99"/>
        </Node>
      </Node>
    </BinaryTree>
    <BinaryTree type="DecisionTree" boostWeight="1.0000000000000000e+00" itree="30">
      <Node pos="s" depth="0" NCoef="0" IVar="0" Cut="9.0044975280761719e+00" cType="1" res="-7.9975686967372894e-02" rms="2.6642879843711853e-01" purity="8.1045061349868774e-02" nType="0">
        <Node pos="l" depth="1" NCoef="0" IVar="-1" Cut="0.0000000000000000e+00" cType="1" res="-9.8311929032206535e-03" rms="3.2885289192199707e-01" purity="1.2706020474433899e-01" nType="-99"/>
        <Node pos="r" depth="1" NCoef="0" IVar="2" Cut="6.5797734260559082e-01" cType="0" res="-9.4862863421440125e-02" rms="1.9544346630573273e-01" purity="4.1036028414964676e-02" nType="0">
          <Node pos="l" depth="2" NCoef="0" IVar="-1" Cut="0.0000000000000000e+00" cType="1" res="1.7219595611095428e-02" rms="4.8811677098274231e-01" purity="3.7552398443222046e-01" nType="-99"/>
          <Node pos="r" depth="2" NCoef="0" IVar="-1" Cut="0.0000000000000000e+00" cType="1" res="-2.3740721866488457e-02" rms="1.9268000125885010e-01" purity="3.9600290358066559e-02" nType="-99"/>
        </Node>
      </Node>
    </BinaryTree>
    <BinaryTree type="DecisionTree" boostWeight="1.0000000000000000e+00" itree="31">
      <Node pos="s" depth="0" NCoef="0" IVar="2" Cut="6.5797734260559082e-01" cType="0" res="-7.5700677931308746e-02" rms="2.6637363433837891e-01" purity="8.1045061349868774e-02" nType="0">
        <Node pos="l" depth="1" NCoef="0" IVar="-1" Cut="0.0000000000000000e+00" cType="1" res="2.8474980965256691e-02" rms="5.0274068117141724e-01" purity="4.4024598598480225e-01" nType="-99"/>
        <Node pos="r" depth="1" NCoef="0" IVar="2" Cut="4.0312984585762024e-01" cType="0" res="-7.6580084860324860e-02" rms="2.6481360197067261e-01" purity="7.9880602657794952e-02" nType="0">
          <Node pos="l" depth="2" NCoef="0" IVar="-1" Cut="0.0000000000000000e+00" cType="1" res="1.1719483882188797e-02" rms="4.2070561647415161e-01" purity="2.4046461284160614e-01" nType="-99"/>
          <Node pos="r" depth="2" NCoef="0" IVar="-1" Cut="0.0000000000000000e+00" cType="1" res="-1.9620664417743683e-02" rms="2.2822031378746033e-01" purity="5.7701587677001953e-02" nType="-99"/>
        </Node>
      </Node>
    </BinaryTree>
    <BinaryTree type="DecisionTree" boostWeight="1.0000000000000000e+00" itree="32">
      <Node pos="s" depth="0" NCoef="0" IVar="3" Cut="6.5067148208618164e-01" cType="0" res="-7.1761272847652435e-02" rms="2.6581877470016479e-01" purity="8.1045061349868774e-02" nType="0">
        <Node pos="l" depth="1" NCoef="0" IVar="-1" Cut="0.0000000000000000e+00" cType="1" res="-9.3695549294352531e-03" rms="3.1378227472305298e-01" purity="1.1577846109867096e-01" nType="-99"/>
        <Node pos="r" depth="1" NCoef="0" IVar="2" Cut="4.9976828694343567e-01" cType="0" res="-8.7484203279018402e-02" rms="2.0484332740306854e-01" purity="4.5801527798175812e-02" nType="0">
          <Node pos="l" depth="2" NCoef="0" IVar="-1" Cut="0.0000000000000000e+00" cType="1" res="3.4715284127742052e-03" rms="4.1833740472793579e-01" purity="2.3010058701038361e-01" nType="-99"/>
          <Node pos="r" depth="2" NCoef="0" IVar="-1" Cut="0.0000000000000000e+00" cType="1" res="-2.4208106100559235e-02" rms="1.9289225339889526e-01" purity="3.9776381105184555e-02" nType="-99"/>
        </Node>
      </Node>
    </BinaryTree>
    <BinaryTree type="DecisionTree" boostWeight="1.0000000000000000e+00" itree="33">
      <Node pos="s" depth="0" NCoef="0" IVar="0" Cut="1.0002998352050781e+01" cType="1" res="-6.7870333790779114e-02" rms="2.6574668288230896e-01" purity="8.1045061349868774e-02" nType="0">
        <Node pos="l" depth="1" NCoef="0" IVar="-1" Cut="0.0000000000000000e+00" cType="1" res="-8.9115109294652939e-03" rms="3.2318389415740967e-01" purity="1.2282291054725647e-01" nType="-99"/>
        <Node pos="r" depth="1" NCoef="0" IVar="1" Cut="8.9472270011901855e-01" cType="0" res="-8.4514126181602478e-02" rms="1.8129970133304596e-01" purity="3.5072397440671921e-02" nType="0">
          <Node pos="l" depth="2" NCoef="0" IVar="-1" Cut="0.0000000000000000e+00" cType="1" res="-1.8487947061657906e-02" rms="2.2518840432167053e-01" purity="5.6034296751022339e-02" nType="-99"/>
          <Node pos="r" depth="2" NCoef="0" IVar="-1" Cut="0.0000000000000000e+00" cType="1" res="-2.5775216519832611e-02" rms="1.5189523994922638e-01" purity="2.3845754563808441e-02" nType="-99"/>
        </Node>
      </Node>
    </BinaryTree>
    <BinaryTree type="DecisionTree" boostWeight="1.0000000000000000e+00" itree="34">
      <Node pos="s" depth="0" NCoef="0" IVar="3" Cut="4.0029788017272949e-01" cType="0" res="-6.4262412488460541e-02" rms="2.6570680737495422e-01" purity="8.1045061349868774e-02" nType="0">
        <Node pos="l" depth="1" NCoef="0" IVar="-1" Cut="0.0000000000000000e+00" cType="1" res="-1.0255664587020874e-02" rms="2.9623201489448547e-01" purity="1.0222624242305756e-01" nType="-99"/>
        <Node pos="r" depth="1" NCoef="0" IVar="2" Cut="3.7851628661155701e-01" cType="0" res="-8.7212421000003815e-02" rms="1.7546121776103973e-01" purity="3.2818708568811417e-02" nType="0">
          <Node pos="l" depth="2" NCoef="0" IVar="-1" Cut="0.0000000000000000e+00" cType="1" res="-1.2409993447363377e-02" rms="2.7941104769706726e-01" purity="8.7522774934768677e-02" nType="-99"/>
          <Node pos="r" depth="2" NCoef="0" IVar="-1" Cut="0.0000000000000000e+00" cType="1" res="-2.8586810454726219e-02" rms="1.4570833742618561e-01" purity="2.1979188546538353e-02" nType="-99"/>
        </Node>
      </Node>
    </BinaryTree>
    <BinaryTree type="DecisionTree" boostWeight="1.0000000000000000e+00" itree="35">
      <Node pos="s" depth="0" NCoef="0" IVar="0" Cut="7.0074963569641113e+00" cType="1" res="-6.0820959508419037e-02" rms="2.6567155122756958e-01" purity="8.1045061349868774e-02" nType="0">
        <Node pos="l" depth="1" NCoef="0" IVar="-1" Cut="0.0000000000000000e+00" cType="1" res="-6.4204558730125427e-03" rms="3.3544859290122986e-01" purity="1.3377597928047180e-01" nType="-99"/>
        <Node pos="r" depth="1" NCoef="0" IVar="4" Cut="1.0532248020172119e+00" cType="1" res="-7.2343334555625916e-02" rms="2.1658439934253693e-01" purity="5.1752164959907532e-02" nType="0">
          <Node pos="l" depth="2" NCoef="0" IVar="-1" Cut="0.0000000000000000e+00" cType="1" res="-1.6132641583681107e-02" rms="2.4155035614967346e-01" purity="6.5636254847049713e-02" nType="-99"/>
          <Node pos="r" depth="2" NCoef="0" IVar="-1" Cut="0.0000000000000000e+00" cType="1" res="-2.4586815387010574e-02" rms="1.5763483941555023e-01" purity="2.6054617017507553e-02" nType="-99"/>
        </Node>
      </Node>
    </BinaryTree>
    <BinaryTree type="DecisionTree" boostWeight="1.0000000000000000e+00" itree="36">
      <Node pos="s" depth="0" NCoef="0" IVar="3" Cut="1.3987936973571777e+00" cType="0" res="-5.7566054165363312e-02" rms="2.6562300324440002e-01" purity="8.1045061349868774e-02" nType="0">
        <Node pos="l" depth="1" NCoef="0" IVar="-1" Cut="0.0000000000000000e+00" cType="1" res="-4.0785558521747589e-03" rms="3.3396419882774353e-01" purity="1.3377007842063904e-01" nType="-99"/>
        <Node pos="r" depth="1" NCoef="0" IVar="9" Cut="-2.4412806034088135e+00" cType="0" res="-6.5375097095966339e-02" rms="2.4351023137569427e-01" purity="6.6930368542671204e-02" nType="0">
          <Node pos="l" depth="2" NCoef="0" IVar="-1" Cut="0.0000000000000000e+00" cType="1" res="-1.5929304063320160e-02" rms="2.4689638614654541e-01" purity="6.9282263517379761e-02" nType="-99"/>
          <Node pos="r" depth="2" NCoef="0" IVar="-1" Cut="0.0000000000000000e+00" cType="1" res="-2.6727484539151192e-02" rms="1.7011925578117371e-01" purity="2.9059145599603653e-02" nType="-99"/>
        </Node>
      </Node>
    </BinaryTree>
    <BinaryTree type="DecisionTree" boostWeight="1.0000000000000000e+00" itree="37">
      <Node pos="s" depth="0" NCoef="0" IVar="0" Cut="1.2013493537902832e+01" cType="1" res="-5.4392583668231964e-02" rms="2.6560068130493164e-01" purity="8.1045061349868774e-02" nType="0">
        <Node pos="l" depth="1" NCoef="0" IVar="-1" Cut="0.0000000000000000e+00" cType="1" res="-8.2843005657196045e-03" rms="3.0695179104804993e-01" purity="1.1005733907222748e-01" nType="-99"/>
        <Node pos="r" depth="1" NCoef="0" IVar="4" Cut="5.5350154638290405e-01" cType="1" res="-7.5078070163726807e-02" rms="1.6757591068744659e-01" purity="2.9833290725946426e-02" nType="0">
          <Node pos="l" depth="2" NCoef="0" IVar="-1" Cut="0.0000000000000000e+00" cType="1" res="-1.0877145454287529e-02" rms="2.5922709703445435e-01" purity="7.7548794448375702e-02" nType="-99"/>
          <Node pos="r" depth="2" NCoef="0" IVar="-1" Cut="0.0000000000000000e+00" cType="1" res="-2.3776222020387650e-02" rms="1.5659832954406738e-01" purity="2.5670576840639114e-02" nType="-99"/>
        </Node>
      </Node>
    </BinaryTree>
    <BinaryTree type="DecisionTree" boostWeight="1.0000000000000000e+00" itree="38">
      <Node pos="s" depth="0" NCoef="0" IVar="3" Cut="4.9624943733215332e-01" cType="0" res="-5.1539108157157898e-02" rms="2.6557511091232300e-01" purity="8.1045061349868774e-02" nType="0">
        <Node pos="l" depth="1" NCoef="0" IVar="-1" Cut="0.0000000000000000e+00" cType="1" res="-7.7267372980713844e-03" rms="3.0370733141899109e-01" purity="1.0798320919275284e-01" nType="-99"/>
        <Node pos="r" depth="1" NCoef="0" IVar="2" Cut="4.9976828694343567e-01" cType="0" res="-7.0488445460796356e-02" rms="1.8717366456985474e-01" purity="3.7719398736953735e-02" nType="0">
          <Node pos="l" depth="2" NCoef="0" IVar="-1" Cut="0.0000000000000000e+00" cType="1" res="-2.2868309170007706e-03" rms="3.7773931026458740e-01" purity="1.7679800093173981e-01" nType="-99"/>
          <Node pos="r" depth="2" NCoef="0" IVar="-1" Cut="0.0000000000000000e+00" cType="1" res="-2.3177031427621841e-02" rms="1.7760939896106720e-01" purity="3.3345155417919159e-02" nType="-99"/>
        </Node>
      </Node>
    </BinaryTree>
    <BinaryTree type="DecisionTree" boostWeight="1.0000000000000000e+00" itree="39">
      <Node pos="s" depth="0" NCoef="0" IVar="0" Cut="1.0002998352050781e+01" cType="1" res="-4.8761956393718719e-02" rms="2.6554402709007263e-01" purity="8.1045061349868774e-02" nType="0">
        <Node pos="l" depth="1" NCoef="0" IVar="-1" Cut="0.0000000000000000e+00" cType="1" res="-6.2766103073954582e-03" rms="3.2293823361396790e-01" purity="1.2282291054725647e-01" nType="-99"/>
        <Node pos="r" depth="1" NCoef="0" IVar="2" Cut="6.5797734260559082e-01" cType="0" res="-6.4880736172199249e-02" rms="1.8124829232692719e-01" purity="3.5072397440671921e-02" nType="0">
          <Node pos="l" depth="2" NCoef="0" IVar="-1" Cut="0.0000000000000000e+00" cType="1" res="1.6604466363787651e-02" rms="4.8161646723747253e-01" purity="3.5532227158546448e-01" nType="-99"/>
          <Node pos="r" depth="2" NCoef="0" IVar="-1" Cut="0.0000000000000000e+00" cType="1" res="-2.1231848746538162e-02" rms="1.7837314307689667e-01" purity="3.3652655780315399e-02" nType="-99"/>
        </Node>
      </Node>
    </BinaryTree>
    <BinaryTree type="DecisionTree" boostWeight="1.0000000000000000e+00" itree="40">
      <Node pos="s" depth="0" NCoef="0" IVar="2" Cut="6.5797734260559082e-01" cType="0" res="-4.6150431036949158e-02" rms="2.6550501585006714e-01" purity="8.1045061349868774e-02" nType="0">
        <Node pos="l" depth="1" NCoef="0" IVar="-1" Cut="0.0000000000000000e+00" cType="1" res="3.1806174665689468e-02" rms="5.0286597013473511e-01" purity="4.4024598598480225e-01" nType="-99"/>
        <Node pos="r" depth="1" NCoef="0" IVar="2" Cut="4.0312984585762024e-01" cType="0" res="-4.6979643404483795e-02" rms="2.6398652791976929e-01" purity="7.9880602657794952e-02" nType="0">
          <Node pos="l" depth="2" NCoef="0" IVar="-1" Cut="0.0000000000000000e+00" cType="1" res="1.7196638509631157e-02" rms="4.2017608880996704e-01" purity="2.4046461284160614e-01" nType="-99"/>
          <Node pos="r" depth="2" NCoef="0" IVar="-1" Cut="0.0000000000000000e+00" cType="1" res="-1.5994822606444359e-02" rms="2.2802938520908356e-01" purity="5.7701587677001953e-02" nType="-99"/>
        </Node>
      </Node>
    </BinaryTree>
    <BinaryTree type="DecisionTree" boostWeight="1.0000000000000000e+00" itree="41">
      <Node pos="s" depth="0" NCoef="0" IVar="0" Cut="9.0044975280761719e+00" cType="1" res="-4.3761480599641800e-02" rms="2.6500248908996582e-01" purity="8.1045061349868774e-02" nType="0">
        <Node pos="l" depth="1" NCoef="0" IVar="-1" Cut="0.0000000000000000e+00" cType="1" res="-5.1208408549427986e-03" rms="3.2727515697479248e-01" purity="1.2706020474433899e-01" nType="-99"/>
        <Node pos="r" depth="1" NCoef="0" IVar="4" Cut="1.0532248020172119e+00" cType="1" res="-5.7421691715717316e-02" rms="1.9431032240390778e-01" purity="4.1036028414964676e-02" nType="0">
          <Node pos="l" depth="2" NCoef="0" IVar="-1" Cut="0.0000000000000000e+00" cType="1" res="-1.5758829191327095e-02" rms="2.1840669214725494e-01" purity="5.2666299045085907e-02" nType="-99"/>
          <Node pos="r" depth="2" NCoef="0" IVar="-1" Cut="0.0000000000000000e+00" cType="1" res="-2.4383634328842163e-02" rms="1.3172076642513275e-01" purity="1.7816215753555298e-02" nType="-99"/>
        </Node>
      </Node>
    </BinaryTree>
    <BinaryTree type="DecisionTree" boostWeight="1.0000000000000000e+00" itree="42">
      <Node pos="s" depth="0" NCoef="0" IVar="3" Cut="5.4122674465179443e-01" cType="0" res="-4.1422720998525620e-02" rms="2.6497343182563782e-01" purity="8.1045061349868774e-02" nType="0">
        <Node pos="l" depth="1" NCoef="0" IVar="-1" Cut="0.0000000000000000e+00" cType="1" res="-5.8139748871326447e-03" rms="3.0595496296882629e-01" purity="1.1034549027681351e-01" nType="-99"/>
        <Node pos="r" depth="1" NCoef="0" IVar="2" Cut="4.9976828694343567e-01" cType="0" res="-5.9124626219272614e-02" rms="1.9244183599948883e-01" purity="4.0171544998884201e-02" nType="0">
          <Node pos="l" depth="2" NCoef="0" IVar="-1" Cut="0.0000000000000000e+00" cType="1" res="8.1115565262734890e-04" rms="3.9265385270118713e-01" purity="1.9506540894508362e-01" nType="-99"/>
          <Node pos="r" depth="2" NCoef="0" IVar="-1" Cut="0.0000000000000000e+00" cType="1" res="-2.1207120269536972e-02" rms="1.8205104768276215e-01" purity="3.5205733031034470e-02" nType="-99"/>
        </Node>
      </Node>
    </BinaryTree>
    <BinaryTree type="DecisionTree" boostWeight="1.0000000000000000e+00" itree="43">
      <Node pos="s" depth="0" NCoef="0" IVar="0" Cut="1.1001499176025391e+01" cType="1" res="-3.9169669151306152e-02" rms="2.6493713259696960e-01" purity="8.1045061349868774e-02" nType="0">
        <Node pos="l" depth="1" NCoef="0" IVar="-1" Cut="0.0000000000000000e+00" cType="1" res="-5.4386211559176445e-03" rms="3.1386578083038330e-01" purity="1.1598017066717148e-01" nType="-99"/>
        <Node pos="r" depth="1" NCoef="0" IVar="1" Cut="9.0419661998748779e-01" cType="0" res="-5.6142177432775497e-02" rms="1.7407828569412231e-01" purity="3.2450214028358459e-02" nType="0">
          <Node pos="l" depth="2" NCoef="0" IVar="-1" Cut="0.0000000000000000e+00" cType="1" res="-1.4103647321462631e-02" rms="2.1867924928665161e-01" purity="5.3046878427267075e-02" nType="-99"/>
          <Node pos="r" depth="2" NCoef="0" IVar="-1" Cut="0.0000000000000000e+00" cType="1" res="-2.3205636069178581e-02" rms="1.4379702508449554e-01" purity="2.1362589672207832e-02" nType="-99"/>
        </Node>
      </Node>
    </BinaryTree>
    <BinaryTree type="DecisionTree" boostWeight="1.0000000000000000e+00" itree="44">
      <Node pos="s" depth="0" NCoef="0" IVar="3" Cut="3.4332665801048279e-01" cType="0" res="-3.7093635648488998e-02" rms="2.6491203904151917e-01" purity="8.1045061349868774e-02" nType="0">
        <Node pos="l" depth="1" NCoef="0" IVar="-1" Cut="0.0000000000000000e+00" cType="1" res="-6.3848234713077545e-03" rms="2.9069563746452332e-01" purity="9.8837375640869141e-02" nType="-99"/>
        <Node pos="r" depth="1" NCoef="0" IVar="9" Cut="2.7315614223480225e+00" cType="0" res="-6.1820693314075470e-02" rms="1.6721102595329285e-01" purity="2.9631508514285088e-02" nType="0">
          <Node pos="l" depth="2" NCoef="0" IVar="-1" Cut="0.0000000000000000e+00" cType="1" res="6.1136204749345779e-03" rms="4.7908729314804077e-01" purity="3.6199718713760376e-01" nType="-99"/>
          <Node pos="r" depth="2" NCoef="0" IVar="-1" Cut="0.0000000000000000e+00" cType="1" res="-2.3748209699988365e-02" rms="1.6625253856182098e-01" purity="2.9263390228152275e-02" nType="-99"/>
        </Node>
      </Node>
    </BinaryTree>
    <BinaryTree type="DecisionTree" boostWeight="1.0000000000000000e+00" itree="45">
      <Node pos="s" depth="0" NCoef="0" IVar="0" Cut="7.0074963569641113e+00" cType="1" res="-3.5076104104518890e-02" rms="2.6489046216011047e-01" purity="8.1045061349868774e-02" nType="0">
        <Node pos="l" depth="1" NCoef="0" IVar="-1" Cut="0.0000000000000000e+00" cType="1" res="-2.8647277504205704e-03" rms="3.3462718129158020e-01" purity="1.3377597928047180e-01" nType="-99"/>
        <Node pos="r" depth="1" NCoef="0" IVar="4" Cut="1.0532248020172119e+00" cType="1" res="-4.5711491256952286e-02" rms="2.1592818200588226e-01" purity="5.1752164959907532e-02" nType="0">
          <Node pos="l" depth="2" NCoef="0" IVar="-1" Cut="0.0000000000000000e+00" cType="1" res="-1.1117267422378063e-02" rms="2.4082002043724060e-01" purity="6.5636254847049713e-02" nType="-99"/>
          <Node pos="r" depth="2" NCoef="0" IVar="-1" Cut="0.0000000000000000e+00" cType="1" res="-2.1895106881856918e-02" rms="1.5748450160026550e-01" purity="2.6054617017507553e-02" nType="-99"/>
        </Node>
      </Node>
    </BinaryTree>
    <BinaryTree type="DecisionTree" boostWeight="1.0000000000000000e+00" itree="46">
      <Node pos="s" depth="0" NCoef="0" IVar="3" Cut="1.3808027505874634e+00" cType="0" res="-3.3185925334692001e-02" rms="2.6484668254852295e-01" purity="8.1045061349868774e-02" nType="0">
        <Node pos="l" depth="1" NCoef="0" IVar="-1" Cut="0.0000000000000000e+00" cType="1" res="-9.7800011280924082e-04" rms="3.3252352476119995e-01" purity="1.3336156308650970e-01" nType="-99"/>
        <Node pos="r" depth="1" NCoef="0" IVar="9" Cut="-2.4231369495391846e+00" cType="0" res="-4.0646087378263474e-02" rms="2.4244754016399384e-01" purity="6.6674910485744476e-02" nType="0">
          <Node pos="l" depth="2" NCoef="0" IVar="-1" Cut="0.0000000000000000e+00" cType="1" res="-1.1401207186281681e-02" rms="2.4625948071479797e-01" purity="6.9285504519939423e-02" nType="-99"/>
          <Node pos="r" depth="2" NCoef="0" IVar="-1" Cut="0.0000000000000000e+00" cType="1" res="-2.5006940588355064e-02" rms="1.7169633507728577e-01" purity="2.9732439666986465e-02" nType="-99"/>
        </Node>
      </Node>
    </BinaryTree>
    <BinaryTree type="DecisionTree" boostWeight="1.0000000000000000e+00" itree="47">
      <Node pos="s" depth="0" NCoef="0" IVar="0" Cut="1.0002998352050781e+01" cType="1" res="-3.1317245215177536e-02" rms="2.6482129096984863e-01" purity="8.1045061349868774e-02" nType="0">
        <Node pos="l" depth="1" NCoef="0" IVar="-1" Cut="0.0000000000000000e+00" cType="1" res="-3.5486188717186451e-03" rms="3.2212913036346436e-01" purity="1.2282291054725647e-01" nType="-99"/>
        <Node pos="r" depth="1" NCoef="0" IVar="2" Cut="6.5797734260559082e-01" cType="0" res="-4.6310301870107651e-02" rms="1.8079544603824615e-01" purity="3.5072397440671921e-02" nType="0">
          <Node pos="l" depth="2" NCoef="0" IVar="-1" Cut="0.0000000000000000e+00" cType="1" res="1.7547614872455597e-02" rms="4.8094746470451355e-01" purity="3.5532227158546448e-01" nType="-99"/>
          <Node pos="r" depth="2" NCoef="0" IVar="-1" Cut="0.0000000000000000e+00" cType="1" res="-1.8313722684979439e-02" rms="1.7797935009002686e-01" purity="3.3652655780315399e-02" nType="-99"/>
        </Node>
      </Node>
    </BinaryTree>
    <BinaryTree type="DecisionTree" boostWeight="1.0000000000000000e+00" itree="48">
      <Node pos="s" depth="0" NCoef="0" IVar="3" Cut="6.5067148208618164e-01" cType="0" res="-2.9623473063111305e-02" rms="2.6479092240333557e-01" purity="8.1045061349868774e-02" nType="0">
        <Node pos="l" depth="1" NCoef="0" IVar="-1" Cut="0.0000000000000000e+00" cType="1" res="-3.1832174863666296e-03" rms="3.1248742341995239e-01" purity="1.1577846109867096e-01" nType="-99"/>
        <Node pos="r" depth="1" NCoef="0" IVar="2" Cut="4.9976828694343567e-01" cType="0" res="-4.4002134352922440e-02" rms="2.0436529815196991e-01" purity="4.5801527798175812e-02" nType="0">
          <Node pos="l" depth="2" NCoef="0" IVar="-1" Cut="0.0000000000000000e+00" cType="1" res="1.0189981199800968e-02" rms="4.1748040914535522e-01" purity="2.3010058701038361e-01" nType="-99"/>
          <Node pos="r" depth="2" NCoef="0" IVar="-1" Cut="0.0000000000000000e+00" cType="1" res="-1.7963089048862457e-02" rms="1.9260196387767792e-01" purity="3.9776381105184555e-02" nType="-99"/>
        </Node>
      </Node>
    </BinaryTree>
    <BinaryTree type="DecisionTree" boostWeight="1.0000000000000000e+00" itree="49">
      <Node pos="s" depth="0" NCoef="0" IVar="0" Cut="1.2013493537902832e+01" cType="1" res="-2.7970127761363983e-02" rms="2.6473096013069153e-01" purity="8.1045061349868774e-02" nType="0">
        <Node pos="l" depth="1" NCoef="0" IVar="-1" Cut="0.0000000000000000e+00" cType="1" res="-3.9370409213006496e-03" rms="3.0604341626167297e-01" purity="1.1005733907222748e-01" nType="-99"/>
        <Node pos="r" depth="1" NCoef="0" IVar="4" Cut="5.5350154638290405e-01" cType="1" res="-4.6279311180114746e-02" rms="1.6713576018810272e-01" purity="2.9833290725946426e-02" nType="0">
          <Node pos="l" depth="2" NCoef="0" IVar="-1" Cut="0.0000000000000000e+00" cType="1" res="-3.8663842715322971e-03" rms="2.5810912251472473e-01" purity="7.7548794448375702e-02" nType="-99"/>
          <Node pos="r" depth="2" NCoef="0" IVar="-1" Cut="0.0000000000000000e+00" cType="1" res="-2.0044265314936638e-02" rms="1.5631888806819916e-01" purity="2.5670576840639114e-02" nType="-99"/>
        </Node>
      </Node>
    </BinaryTree>
    <BinaryTree type="DecisionTree" boostWeight="1.0000000000000000e+00" itree="50">
      <Node pos="s" depth="0" NCoef="0" IVar="3" Cut="4.3478047847747803e-01" cType="0" res="-2.6495639234781265e-02" rms="2.6470664143562317e-01" purity="8.1045061349868774e-02" nType="0">
        <Node pos="l" depth="1" NCoef="0" IVar="-1" Cut="0.0000000000000000e+00" cType="1" res="-3.8569441530853510e-03" rms="2.9794865846633911e-01" purity="1.0436512529850006e-01" nType="-99"/>
        <Node pos="r" depth="1" NCoef="0" IVar="2" Cut="3.5748362541198730e-01" cType="0" res="-4.6076819300651550e-02" rms="1.7948584258556366e-01" purity="3.4565687179565430e-02" nType="0">
          <Node pos="l" depth="2" NCoef="0" IVar="-1" Cut="0.0000000000000000e+00" cType="1" res="-6.1439443379640579e-03" rms="2.6991158723831177e-01" purity="8.1702165305614471e-02" nType="-99"/>
          <Node pos="r" depth="2" NCoef="0" IVar="-1" Cut="0.0000000000000000e+00" cType="1" res="-2.4419156834483147e-02" rms="1.4364627003669739e-01" purity="2.1369801834225655e-02" nType="-99"/>
        </Node>
      </Node>
    </BinaryTree>
    <BinaryTree type="DecisionTree" boostWeight="1.0000000000000000e+00" itree="51">
      <Node pos="s" depth="0" NCoef="0" IVar="2" Cut="6.5797734260559082e-01" cType="0" res="-2.5026347488164902e-02" rms="2.6466387510299683e-01" purity="8.1045061349868774e-02" nType="0">
        <Node pos="l" depth="1" NCoef="0" IVar="-1" Cut="0.0000000000000000e+00" cType="1" res="3.3854007720947266e-02" rms="5.0225728750228882e-01" purity="4.4024598598480225e-01" nType="-99"/>
        <Node pos="r" depth="1" NCoef="0" IVar="2" Cut="3.9852660894393921e-01" cType="0" res="-2.5812655687332153e-02" rms="2.6318228244781494e-01" purity="7.9880602657794952e-02" nType="0">
          <Node pos="l" depth="2" NCoef="0" IVar="-1" Cut="0.0000000000000000e+00" cType="1" res="2.0966822281479836e-02" rms="4.1554105281829834e-01" purity="2.3464849591255188e-01" nType="-99"/>
          <Node pos="r" depth="2" NCoef="0" IVar="-1" Cut="0.0000000000000000e+00" cType="1" res="-1.2705365195870399e-02" rms="2.2641140222549438e-01" purity="5.6940004229545593e-02" nType="-99"/>
        </Node>
      </Node>
    </BinaryTree>
    <BinaryTree type="DecisionTree" boostWeight="1.0000000000000000e+00" itree="52">
      <Node pos="s" depth="0" NCoef="0" IVar="0" Cut="7.0074963569641113e+00" cType="1" res="-2.3739291355013847e-02" rms="2.6419201493263245e-01" purity="8.1045061349868774e-02" nType="0">
        <Node pos="l" depth="1" NCoef="0" IVar="-1" Cut="0.0000000000000000e+00" cType="1" res="-1.0136604541912675e-03" rms="3.3382976055145264e-01" purity="1.3377597928047180e-01" nType="-99"/>
        <Node pos="r" depth="1" NCoef="0" IVar="4" Cut="1.0532248020172119e+00" cType="1" res="-3.3971760421991348e-02" rms="2.1533653140068054e-01" purity="5.1752164959907532e-02" nType="0">
          <Node pos="l" depth="2" NCoef="0" IVar="-1" Cut="0.0000000000000000e+00" cType="1" res="-8.2332156598567963e-03" rms="2.4012026190757751e-01" purity="6.5636254847049713e-02" nType="-99"/>
          <Node pos="r" depth="2" NCoef="0" IVar="-1" Cut="0.0000000000000000e+00" cType="1" res="-2.0267974585294724e-02" rms="1.5738674998283386e-01" purity="2.6054617017507553e-02" nType="-99"/>
        </Node>
      </Node>
    </BinaryTree>
    <BinaryTree type="DecisionTree" boostWeight="1.0000000000000000e+00" itree="53">
      <Node pos="s" depth="0" NCoef="0" IVar="3" Cut="3.4782436490058899e-01" cType="0" res="-2.2448593750596046e-02" rms="2.6414749026298523e-01" purity="8.1045061349868774e-02" nType="0">
        <Node pos="l" depth="1" NCoef="0" IVar="-1" Cut="0.0000000000000000e+00" cType="1" res="-3.5406292881816626e-03" rms="2.9021421074867249e-01" purity="9.9099151790142059e-02" nType="-99"/>
        <Node pos="r" depth="1" NCoef="0" IVar="9" Cut="2.7315614223480225e+00" cType="0" res="-4.5252807438373566e-02" rms="1.6765621304512024e-01" purity="2.9868023470044136e-02" nType="0">
          <Node pos="l" depth="2" NCoef="0" IVar="-1" Cut="0.0000000000000000e+00" cType="1" res="6.5720914863049984e-03" rms="4.7792845964431763e-01" purity="3.6115759611129761e-01" nType="-99"/>
          <Node pos="r" depth="2" NCoef="0" IVar="-1" Cut="0.0000000000000000e+00" cType="1" res="-2.0798781886696815e-02" rms="1.6673360764980316e-01" purity="2.9505454003810883e-02" nType="-99"/>
        </Node>
      </Node>
    </BinaryTree>
    <BinaryTree type="DecisionTree" boostWeight="1.0000000000000000e+00" itree="54">
      <Node pos="s" depth="0" NCoef="0" IVar="0" Cut="1.0002998352050781e+01" cType="1" res="-2.1203003823757172e-02" rms="2.6412361860275269e-01" purity="8.1045061349868774e-02" nType="0">
        <Node pos="l" depth="1" NCoef="0" IVar="-1" Cut="0.0000000000000000e+00" cType="1" res="-1.7146507743746042e-03" rms="3.2130080461502075e-01" purity="1.2282291054725647e-01" nType="-99"/>
        <Node pos="r" depth="1" NCoef="0" IVar="1" Cut="8.6936992406845093e-01" cType="0" res="-3.5644583404064178e-02" rms="1.8035890161991119e-01" purity="3.5072397440671921e-02" nType="0">
          <Node pos="l" depth="2" NCoef="0" IVar="-1" Cut="0.0000000000000000e+00" cType="1" res="-9.0447897091507912e-03" rms="2.2124364972114563e-01" purity="5.4571162909269333e-02" nType="-99"/>
          <Node pos="r" depth="2" NCoef="0" IVar="-1" Cut="0.0000000000000000e+00" cType="1" res="-1.9973563030362129e-02" rms="1.4960390329360962e-01" purity="2.3247759789228439e-02" nType="-99"/>
        </Node>
      </Node>
    </BinaryTree>
    <BinaryTree type="DecisionTree" boostWeight="1.0000000000000000e+00" itree="55">
      <Node pos="s" depth="0" NCoef="0" IVar="2" Cut="6.5797734260559082e-01" cType="0" res="-2.0048696547746658e-02" rms="2.6408889889717102e-01" purity="8.1045061349868774e-02" nType="0">
        <Node pos="l" depth="1" NCoef="0" IVar="-1" Cut="0.0000000000000000e+00" cType="1" res="3.2694812864065170e-02" rms="5.0137329101562500e-01" purity="4.4024598598480225e-01" nType="-99"/>
        <Node pos="r" depth="1" NCoef="0" IVar="2" Cut="4.0641787648200989e-01" cType="0" res="-2.0804390311241150e-02" rms="2.6263549923896790e-01" purity="7.9880602657794952e-02" nType="0">
          <Node pos="l" depth="2" NCoef="0" IVar="-1" Cut="0.0000000000000000e+00" cType="1" res="2.1928498521447182e-02" rms="4.2096975445747375e-01" purity="2.4389116466045380e-01" nType="-99"/>
          <Node pos="r" depth="2" NCoef="0" IVar="-1" Cut="0.0000000000000000e+00" cType="1" res="-1.1249573901295662e-02" rms="2.2875170409679413e-01" purity="5.8286584913730621e-02" nType="-99"/>
        </Node>
      </Node>
    </BinaryTree>
    <BinaryTree type="DecisionTree" boostWeight="1.0000000000000000e+00" itree="56">
      <Node pos="s" depth="0" NCoef="0" IVar="3" Cut="6.7316007614135742e-01" cType="0" res="-1.9018849357962608e-02" rms="2.6366090774536133e-01" purity="8.1045061349868774e-02" nType="0">
        <Node pos="l" depth="1" NCoef="0" IVar="-1" Cut="0.0000000000000000e+00" cType="1" res="-1.1303881183266640e-03" rms="3.1212019920349121e-01" purity="1.1664379388093948e-01" nType="-99"/>
        <Node pos="r" depth="1" NCoef="0" IVar="2" Cut="4.9976828694343567e-01" cType="0" res="-3.2225247472524643e-02" rms="2.0618627965450287e-01" purity="4.7047112137079239e-02" nType="0">
          <Node pos="l" depth="2" NCoef="0" IVar="-1" Cut="0.0000000000000000e+00" cType="1" res="1.0336583480238914e-02" rms="4.2147442698478699e-01" purity="2.3748968541622162e-01" nType="-99"/>
          <Node pos="r" depth="2" NCoef="0" IVar="-1" Cut="0.0000000000000000e+00" cType="1" res="-1.5103982761502266e-02" rms="1.9446860253810883e-01" purity="4.0815416723489761e-02" nType="-99"/>
        </Node>
      </Node>
    </BinaryTree>
    <BinaryTree type="DecisionTree" boostWeight="1.0000000000000000e+00" itree="57">
      <Node pos="s" depth="0" NCoef="0" IVar="0" Cut="1.0002998352050781e+01" cType="1" res="-1.7926890403032303e-02" rms="2.6360854506492615e-01" purity="8.1045061349868774e-02" nType="0">
        <Node pos="l" depth="1" NCoef="0" IVar="-1" Cut="0.0000000000000000e+00" cType="1" res="-1.1207676725462079e-03" rms="3.2070913910865784e-01" purity="1.2282291054725647e-01" nType="-99"/>
        <Node pos="r" depth="1" NCoef="0" IVar="1" Cut="9.2007541656494141e-01" cType="0" res="-3.1949732452630997e-02" rms="1.7999766767024994e-01" purity="3.5072397440671921e-02" nType="0">
          <Node pos="l" depth="2" NCoef="0" IVar="-1" Cut="0.0000000000000000e+00" cType="1" res="-7.4064312502741814e-03" rms="2.2529767453670502e-01" purity="5.7214874774217606e-02" nType="-99"/>
          <Node pos="r" depth="2" NCoef="0" IVar="-1" Cut="0.0000000000000000e+00" cType="1" res="-1.8625451251864433e-02" rms="1.5327490866184235e-01" purity="2.4514323100447655e-02" nType="-99"/>
        </Node>
      </Node>
    </BinaryTree>
    <BinaryTree type="DecisionTree" boostWeight="1.0000000000000000e+00" itree="58">
      <Node pos="s" depth="0" NCoef="0" IVar="3" Cut="1.3987936973571777e+00" cType="0" res="-1.6945114359259605e-02" rms="2.6357597112655640e-01" purity="8.1045061349868774e-02" nType="0">
        <Node pos="l" depth="1" NCoef="0" IVar="-1" Cut="0.0000000000000000e+00" cType="1" res="1.4484253479167819e-03" rms="3.3144745230674744e-01" purity="1.3377007842063904e-01" nType="-99"/>
        <Node pos="r" depth="1" NCoef="0" IVar="9" Cut="2.4574854373931885e+00" cType="1" res="-2.3697903379797935e-02" rms="2.4175423383712769e-01" purity="6.6930368542671204e-02" nType="0">
          <Node pos="l" depth="2" NCoef="0" IVar="-1" Cut="0.0000000000000000e+00" cType="1" res="-7.5583173893392086e-03" rms="2.4439860880374908e-01" purity="6.8833149969577789e-02" nType="-99"/>
          <Node pos="r" depth="2" NCoef="0" IVar="-1" Cut="0.0000000000000000e+00" cType="1" res="-1.7960876226425171e-02" rms="1.7461699247360229e-01" purity="3.1106643378734589e-02" nType="-99"/>
        </Node>
      </Node>
    </BinaryTree>
    <BinaryTree type="DecisionTree" boostWeight="1.0000000000000000e+00" itree="59">
      <Node pos="s" depth="0" NCoef="0" IVar="0" Cut="6.0089955329895020e+00" cType="1" res="-1.5973411500453949e-02" rms="2.6355922222137451e-01" purity="8.1045061349868774e-02" nType="0">
        <Node pos="l" depth="1" NCoef="0" IVar="-1" Cut="0.0000000000000000e+00" cType="1" res="8.7367091327905655e-04" rms="3.3495664596557617e-01" purity="1.3507151603698730e-01" nType="-99"/>
        <Node pos="r" depth="1" NCoef="0" IVar="4" Cut="1.0532248020172119e+00" cType="1" res="-2.4362161755561829e-02" rms="2.2719691693782806e-01" purity="5.8788642287254333e-02" nType="0">
          <Node pos="l" depth="2" NCoef="0" IVar="-1" Cut="0.0000000000000000e+00" cType="1" res="-3.8247623015195131e-03" rms="2.5258857011795044e-01" purity="7.4507527053356171e-02" nType="-99"/>
          <Node pos="r" depth="2" NCoef="0" IVar="-1" Cut="0.0000000000000000e+00" cType="1" res="-1.7716895788908005e-02" rms="1.7279125750064850e-01" purity="3.1866863369941711e-02" nType="-99"/>
        </Node>
      </Node>
    </BinaryTree>
    <BinaryTree type="DecisionTree" boostWeight="1.0000000000000000e+00" itree="60">
      <Node pos="s" depth="0" NCoef="0" IVar="3" Cut="4.7675928473472595e-01" cType="0" res="-1.5112007036805153e-02" rms="2.6349213719367981e-01" purity="8.1045061349868774e-02" nType="0">
        <Node pos="l" depth="1" NCoef="0" IVar="-1" Cut="0.0000000000000000e+00" cType="1" res="-1.2300412636250257e-03" rms="2.9976865649223328e-01" purity="1.0689926892518997e-01" nType="-99"/>
        <Node pos="r" depth="1" NCoef="0" IVar="3" Cut="3.0020797252655029e-01" cType="0" res="-3.2434847205877304e-02" rms="1.8402419984340668e-01" purity="3.6647465080022812e-02" nType="0">
          <Node pos="l" depth="2" NCoef="0" IVar="-1" Cut="0.0000000000000000e+00" cType="1" res="-8.8980663567781448e-03" rms="2.1229852735996246e-01" purity="5.0100013613700867e-02" nType="-99"/>
          <Node pos="r" depth="2" NCoef="0" IVar="-1" Cut="0.0000000000000000e+00" cType="1" res="-2.0278651267290115e-02" rms="1.6174951195716858e-01" purity="2.7554515749216080e-02" nType="-99"/>
        </Node>
      </Node>
    </BinaryTree>
    <BinaryTree type="DecisionTree" boostWeight="1.0000000000000000e+00" itree="61">
      <Node pos="s" depth="0" NCoef="0" IVar="0" Cut="1.2013493537902832e+01" cType="1" res="-1.4248228631913662e-02" rms="2.6345452666282654e-01" purity="8.1045061349868774e-02" nType="0">
        <Node pos="l" depth="1" NCoef="0" IVar="-1" Cut="0.0000000000000000e+00" cType="1" res="-1.0663855355232954e-03" rms="3.0460080504417419e-01" purity="1.1005733907222748e-01" nType="-99"/>
        <Node pos="r" depth="1" NCoef="0" IVar="4" Cut="5.5350154638290405e-01" cType="1" res="-3.1695105135440826e-02" rms="1.6635304689407349e-01" purity="2.9833290725946426e-02" nType="0">
          <Node pos="l" depth="2" NCoef="0" IVar="-1" Cut="0.0000000000000000e+00" cType="1" res="4.3068703234894201e-05" rms="2.5597497820854187e-01" purity="7.7548794448375702e-02" nType="-99"/>
          <Node pos="r" depth="2" NCoef="0" IVar="-1" Cut="0.0000000000000000e+00" cType="1" res="-1.7127050086855888e-02" rms="1.5580567717552185e-01" purity="2.5670576840639114e-02" nType="-99"/>
        </Node>
      </Node>
    </BinaryTree>
    <BinaryTree type="DecisionTree" boostWeight="1.0000000000000000e+00" itree="62">
      <Node pos="s" depth="0" NCoef="0" IVar="2" Cut="6.5797734260559082e-01" cType="0" res="-1.3482922688126564e-02" rms="2.6342487335205078e-01" purity="8.1045061349868774e-02" nType="0">
        <Node pos="l" depth="1" NCoef="0" IVar="-1" Cut="0.0000000000000000e+00" cType="1" res="3.1577490270137787e-02" rms="5.0038009881973267e-01" purity="4.4024598598480225e-01" nType="-99"/>
        <Node pos="r" depth="1" NCoef="0" IVar="2" Cut="4.4488772749900818e-01" cType="0" res="-1.4202558435499668e-02" rms="2.6200318336486816e-01" purity="7.9880602657794952e-02" nType="0">
          <Node pos="l" depth="2" NCoef="0" IVar="-1" Cut="0.0000000000000000e+00" cType="1" res="2.8622983023524284e-02" rms="4.4657891988754272e-01" purity="2.9099705815315247e-01" nType="-99"/>
          <Node pos="r" depth="2" NCoef="0" IVar="-1" Cut="0.0000000000000000e+00" cType="1" res="-8.2505177706480026e-03" rms="2.3828078806400299e-01" purity="6.4083233475685120e-02" nType="-99"/>
        </Node>
      </Node>
    </BinaryTree>
    <BinaryTree type="DecisionTree" boostWeight="1.0000000000000000e+00" itree="63">
      <Node pos="s" depth="0" NCoef="0" IVar="3" Cut="5.6071686744689941e-01" cType="0" res="-1.2788016349077225e-02" rms="2.6305341720581055e-01" purity="8.1045061349868774e-02" nType="0">
        <Node pos="l" depth="1" NCoef="0" IVar="-1" Cut="0.0000000000000000e+00" cType="1" res="-3.7661346141248941e-04" rms="3.0494514107704163e-01" purity="1.1139782518148422e-01" nType="-99"/>
        <Node pos="r" depth="1" NCoef="0" IVar="3" Cut="3.0011144280433655e-01" cType="0" res="-2.7508802711963654e-02" rms="1.9382810592651367e-01" purity="4.1186835616827011e-02" nType="0">
          <Node pos="l" depth="2" NCoef="0" IVar="-1" Cut="0.0000000000000000e+00" cType="1" res="-7.6233125291764736e-03" rms="2.2175319492816925e-01" purity="5.5243421345949173e-02" nType="-99"/>
          <Node pos="r" depth="2" NCoef="0" IVar="-1" Cut="0.0000000000000000e+00" cType="1" res="-1.9455818459391594e-02" rms="1.6174961626529694e-01" purity="2.7558824047446251e-02" nType="-99"/>
        </Node>
      </Node>
    </BinaryTree>
    <BinaryTree type="DecisionTree" boostWeight="1.0000000000000000e+00" itree="64">
      <Node pos="s" depth="0" NCoef="0" IVar="0" Cut="1.0002998352050781e+01" cType="1" res="-1.2036317959427834e-02" rms="2.6301449537277222e-01" purity="8.1045061349868774e-02" nType="0">
        <Node pos="l" depth="1" NCoef="0" IVar="-1" Cut="0.0000000000000000e+00" cType="1" res="5.9872378187719733e-05" rms="3.1999537348747253e-01" purity="1.2282291054725647e-01" nType="-99"/>
        <Node pos="r" depth="1" NCoef="0" IVar="1" Cut="8.0598807334899902e-01" cType="0" res="-2.5575641542673111e-02" rms="1.7964054644107819e-01" purity="3.5072397440671921e-02" nType="0">
          <Node pos="l" depth="2" NCoef="0" IVar="-1" Cut="0.0000000000000000e+00" cType="1" res="-7.2794356383383274e-03" rms="2.1317195892333984e-01" purity="5.0789188593626022e-02" nType="-99"/>
          <Node pos="r" depth="2" NCoef="0" IVar="-1" Cut="0.0000000000000000e+00" cType="1" res="-1.8499981611967087e-02" rms="1.4394119381904602e-01" purity="2.1488029509782791e-02" nType="-99"/>
        </Node>
      </Node>
    </BinaryTree>
    <BinaryTree type="DecisionTree" boostWeight="1.0000000000000000e+00" itree="65">
      <Node pos="s" depth="0" NCoef="0" IVar="0" Cut="6.0089955329895020e+00" cType="1" res="-1.1360745877027512e-02" rms="2.6298061013221741e-01" purity="8.1045061349868774e-02" nType="0">
        <Node pos="l" depth="1" NCoef="0" IVar="-1" Cut="0.0000000000000000e+00" cType="1" res="1.5880728606134653e-03" rms="3.3445370197296143e-01" purity="1.3507151603698730e-01" nType="-99"/>
        <Node pos="r" depth="1" NCoef="0" IVar="4" Cut="1.0532248020172119e+00" cType="1" res="-1.9256763160228729e-02" rms="2.2661526501178741e-01" purity="5.8788642287254333e-02" nType="0">
          <Node pos="l" depth="2" NCoef="0" IVar="-1" Cut="0.0000000000000000e+00" cType="1" res="-2.3475692141801119e-03" rms="2.5189170241355896e-01" purity="7.4507527053356171e-02" nType="-99"/>
          <Node pos="r" depth="2" NCoef="0" IVar="-1" Cut="0.0000000000000000e+00" cType="1" res="-1.6565289348363876e-02" rms="1.7274452745914459e-01" purity="3.1866863369941711e-02" nType="-99"/>
        </Node>
      </Node>
    </BinaryTree>
    <BinaryTree type="DecisionTree" boostWeight="1.0000000000000000e+00" itree="66">
      <Node pos="s" depth="0" NCoef="0" IVar="3" Cut="5.6521463394165039e-01" cType="0" res="-1.0740517638623714e-02" rms="2.6291486620903015e-01" purity="8.1045061349868774e-02" nType="0">
        <Node pos="l" depth="1" NCoef="0" IVar="-1" Cut="0.0000000000000000e+00" cType="1" res="3.9836573705542833e-05" rms="3.0508568882942200e-01" purity="1.1163368076086044e-01" nType="-99"/>
        <Node pos="r" depth="1" NCoef="0" IVar="2" Cut="4.9976828694343567e-01" cType="0" res="-2.4862809106707573e-02" rms="1.9430144131183624e-01" purity="4.1434668004512787e-02" nType="0">
          <Node pos="l" depth="2" NCoef="0" IVar="-1" Cut="0.0000000000000000e+00" cType="1" res="4.4780536554753780e-03" rms="3.9650699496269226e-01" purity="2.0406858623027802e-01" nType="-99"/>
          <Node pos="r" depth="2" NCoef="0" IVar="-1" Cut="0.0000000000000000e+00" cType="1" res="-1.3540531508624554e-02" rms="1.8394617736339569e-01" purity="3.6217086017131805e-02" nType="-99"/>
        </Node>
      </Node>
    </BinaryTree>
    <BinaryTree type="DecisionTree" boostWeight="1.0000000000000000e+00" itree="67">
      <Node pos="s" depth="0" NCoef="0" IVar="0" Cut="1.3011994361877441e+01" cType="1" res="-1.0106279514729977e-02" rms="2.6288011670112610e-01" purity="8.1045061349868774e-02" nType="0">
        <Node pos="l" depth="1" NCoef="0" IVar="-1" Cut="0.0000000000000000e+00" cType="1" res="-5.0406856462359428e-04" rms="2.9652217030525208e-01" purity="1.0438260436058044e-01" nType="-99"/>
        <Node pos="r" depth="1" NCoef="0" IVar="4" Cut="5.5932217836380005e-01" cType="1" res="-2.8830952942371368e-02" rms="1.5987148880958557e-01" purity="2.7668276801705360e-02" nType="0">
          <Node pos="l" depth="2" NCoef="0" IVar="-1" Cut="0.0000000000000000e+00" cType="1" res="-1.7320370534434915e-04" rms="2.4958887696266174e-01" purity="7.3971591889858246e-02" nType="-99"/>
          <Node pos="r" depth="2" NCoef="0" IVar="-1" Cut="0.0000000000000000e+00" cType="1" res="-1.7157208174467087e-02" rms="1.4702571928501129e-01" purity="2.2817183285951614e-02" nType="-99"/>
        </Node>
      </Node>
    </BinaryTree>
    <BinaryTree type="DecisionTree" boostWeight="1.0000000000000000e+00" itree="68">
      <Node pos="s" depth="0" NCoef="0" IVar="3" Cut="1.4887483119964600e+00" cType="0" res="-9.5635475590825081e-03" rms="2.6285135746002197e-01" purity="8.1045061349868774e-02" nType="0">
        <Node pos="l" depth="1" NCoef="0" IVar="-1" Cut="0.0000000000000000e+00" cType="1" res="2.7178982272744179e-03" rms="3.3215069770812988e-01" purity="1.3523626327514648e-01" nType="-99"/>
        <Node pos="r" depth="1" NCoef="0" IVar="9" Cut="-2.4533762931823730e+00" cType="0" res="-1.5430984087288380e-02" rms="2.4336169660091400e-01" purity="6.8316541612148285e-02" nType="0">
          <Node pos="l" depth="2" NCoef="0" IVar="-1" Cut="0.0000000000000000e+00" cType="1" res="-4.6641612425446510e-03" rms="2.4645373225212097e-01" purity="7.0556946098804474e-02" nType="-99"/>
          <Node pos="r" depth="2" NCoef="0" IVar="-1" Cut="0.0000000000000000e+00" cType="1" res="-2.1746369078755379e-02" rms="1.7139290273189545e-01" purity="2.9505833983421326e-02" nType="-99"/>
        </Node>
      </Node>
    </BinaryTree>
    <BinaryTree type="DecisionTree" boostWeight="1.0000000000000000e+00" itree="69">
      <Node pos="s" depth="0" NCoef="0" IVar="0" Cut="9.0044975280761719e+00" cType="1" res="-8.9723803102970123e-03" rms="2.6281297206878662e-01" purity="8.1045061349868774e-02" nType="0">
        <Node pos="l" depth="1" NCoef="0" IVar="-1" Cut="0.0000000000000000e+00" cType="1" res="8.7622599676251411e-04" rms="3.2465979456901550e-01" purity="1.2706020474433899e-01" nType="-99"/>
        <Node pos="r" depth="1" NCoef="0" IVar="4" Cut="1.0532248020172119e+00" cType="1" res="-2.0254231989383698e-02" rms="1.9288875162601471e-01" purity="4.1036028414964676e-02" nType="0">
          <Node pos="l" depth="2" NCoef="0" IVar="-1" Cut="0.0000000000000000e+00" cType="1" res="-6.2281889840960503e-03" rms="2.1684949100017548e-01" purity="5.2666299045085907e-02" nType="-99"/>
          <Node pos="r" depth="2" NCoef="0" IVar="-1" Cut="0.0000000000000000e+00" cType="1" res="-1.8959706649184227e-02" rms="1.3146820664405823e-01" purity="1.7816215753555298e-02" nType="-99"/>
        </Node>
      </Node>
    </BinaryTree>
    <BinaryTree type="DecisionTree" boostWeight="1.0000000000000000e+00" itree="70">
      <Node pos="s" depth="0" NCoef="0" IVar="2" Cut="6.5797734260559082e-01" cType="0" res="-8.4630381315946579e-03" rms="2.6277965307235718e-01" purity="8.1045061349868774e-02" nType="0">
        <Node pos="l" depth="1" NCoef="0" IVar="-1" Cut="0.0000000000000000e+00" cType="1" res="3.0703324824571609e-02" rms="4.9877485632896423e-01" purity="4.4024598598480225e-01" nType="-99"/>
        <Node pos="r" depth="1" NCoef="0" IVar="2" Cut="3.9721140265464783e-01" cType="0" res="-9.1544101014733315e-03" rms="2.6138591766357422e-01" purity="7.9880602657794952e-02" nType="0">
          <Node pos="l" depth="2" NCoef="0" IVar="-1" Cut="0.0000000000000000e+00" cType="1" res="2.1349946036934853e-02" rms="4.1169208288192749e-01" purity="2.3282445967197418e-01" nType="-99"/>
          <Node pos="r" depth="2" NCoef="0" IVar="-1" Cut="0.0000000000000000e+00" cType="1" res="-8.7749129161238670e-03" rms="2.2560875117778778e-01" purity="5.6701056659221649e-02" nType="-99"/>
        </Node>
      </Node>
    </BinaryTree>
    <BinaryTree type="DecisionTree" boostWeight="1.0000000000000000e+00" itree="71">
      <Node pos="s" depth="0" NCoef="0" IVar="3" Cut="4.7675928473472595e-01" cType="0" res="-8.0220745876431465e-03" rms="2.6239231228828430e-01" purity="8.1045061349868774e-02" nType="0">
        <Node pos="l" depth="1" NCoef="0" IVar="-1" Cut="0.0000000000000000e+00" cType="1" res="3.3076226827688515e-04" rms="2.9839617013931274e-01" purity="1.0689926892518997e-01" nType="-99"/>
        <Node pos="r" depth="1" NCoef="0" IVar="3" Cut="3.0020797252655029e-01" cType="0" res="-2.4006778374314308e-02" rms="1.8377609550952911e-01" purity="3.6647465080022812e-02" nType="0">
          <Node pos="l" depth="2" NCoef="0" IVar="-1" Cut="0.0000000000000000e+00" cType="1" res="-6.4848433248698711e-03" rms="2.1187181770801544e-01" purity="5.0100013613700867e-02" nType="-99"/>
          <Node pos="r" depth="2" NCoef="0" IVar="-1" Cut="0.0000000000000000e+00" cType="1" res="-1.7880169674754143e-02" rms="1.6172426939010620e-01" purity="2.7554515749216080e-02" nType="-99"/>
        </Node>
      </Node>
    </BinaryTree>
    <BinaryTree type="DecisionTree" boostWeight="1.0000000000000000e+00" itree="72">
      <Node pos="s" depth="0" NCoef="0" IVar="0" Cut="1.0002998352050781e+01" cType="1" res="-7.5325318612158298e-03" rms="2.6235112547874451e-01" purity="8.1045061349868774e-02" nType="0">
        <Node pos="l" depth="1" NCoef="0" IVar="-1" Cut="0.0000000000000000e+00" cType="1" res="8.5384020349010825e-04" rms="3.1921836733818054e-01" purity="1.2282291054725647e-01" nType="-99"/>
        <Node pos="r" depth="1" NCoef="0" IVar="1" Cut="8.9472270011901855e-01" cType="0" res="-1.9927622750401497e-02" rms="1.7928157746791840e-01" purity="3.5072397440671921e-02" nType="0">
          <Node pos="l" depth="2" NCoef="0" IVar="-1" Cut="0.0000000000000000e+00" cType="1" res="-4.0039150044322014e-03" rms="2.2213411331176758e-01" purity="5.6034296751022339e-02" nType="-99"/>
          <Node pos="r" depth="2" NCoef="0" IVar="-1" Cut="0.0000000000000000e+00" cType="1" res="-1.5661098062992096e-02" rms="1.5104846656322479e-01" purity="2.3845754563808441e-02" nType="-99"/>
        </Node>
      </Node>
    </BinaryTree>
    <BinaryTree type="DecisionTree" boostWeight="1.0000000000000000e+00" itree="73">
      <Node pos="s" depth="0" NCoef="0" IVar="3" Cut="9.7150945663452148e-01" cType="0" res="-7.0941853336989880e-03" rms="2.6231807470321655e-01" purity="8.1045061349868774e-02" nType="0">
        <Node pos="l" depth="1" NCoef="0" IVar="-1" Cut="0.0000000000000000e+00" cType="1" res="1.9546018447726965e-03" rms="3.1865957379341125e-01" purity="1.2386738508939743e-01" nType="-99"/>
        <Node pos="r" depth="1" NCoef="0" IVar="9" Cut="2.0280873775482178e+00" cType="1" res="-1.5502832829952240e-02" rms="2.2730582952499390e-01" purity="5.8889642357826233e-02" nType="0">
          <Node pos="l" depth="2" NCoef="0" IVar="-1" Cut="0.0000000000000000e+00" cType="1" res="-4.5806551352143288e-03" rms="2.3650273680686951e-01" purity="6.4405299723148346e-02" nType="-99"/>
          <Node pos="r" depth="2" NCoef="0" IVar="-1" Cut="0.0000000000000000e+00" cType="1" res="-1.2778755277395248e-02" rms="1.8898983299732208e-01" purity="3.8877803832292557e-02" nType="-99"/>
        </Node>
      </Node>
    </BinaryTree>
    <BinaryTree type="DecisionTree" boostWeight="1.0000000000000000e+00" itree="74">
      <Node pos="s" depth="0" NCoef="0" IVar="2" Cut="6.5797734260559082e-01" cType="0" res="-6.6699264571070671e-03" rms="2.6229000091552734e-01" purity="8.1045061349868774e-02" nType="0">
        <Node pos="l" depth="1" NCoef="0" IVar="-1" Cut="0.0000000000000000e+00" cType="1" res="2.8820673003792763e-02" rms="4.9767395853996277e-01" purity="4.4024598598480225e-01" nType="-99"/>
        <Node pos="r" depth="1" NCoef="0" IVar="2" Cut="3.7485283613204956e-01" cType="0" res="-7.3295151814818382e-03" rms="2.6092430949211121e-01" purity="7.9880602657794952e-02" nType="0">
          <Node pos="l" depth="2" NCoef="0" IVar="-1" Cut="0.0000000000000000e+00" cType="1" res="1.6730796545743942e-02" rms="3.9110055565834045e-01" purity="2.0421253144741058e-01" nType="-99"/>
          <Node pos="r" depth="2" NCoef="0" IVar="-1" Cut="0.0000000000000000e+00" cType="1" res="-9.6635520458221436e-03" rms="2.1748292446136475e-01" purity="5.2425108850002289e-02" nType="-99"/>
        </Node>
      </Node>
    </BinaryTree>
    <BinaryTree type="DecisionTree" boostWeight="1.0000000000000000e+00" itree="75">
      <Node pos="s" depth="0" NCoef="0" IVar="3" Cut="4.7675928473472595e-01" cType="0" res="-6.2401508912444115e-03" rms="2.6193425059318542e-01" purity="8.1045061349868774e-02" nType="0">
        <Node pos="l" depth="1" NCoef="0" IVar="-1" Cut="0.0000000000000000e+00" cType="1" res="6.7408639006316662e-04" rms="2.9783567786216736e-01" purity="1.0689926892518997e-01" nType="-99"/>
        <Node pos="r" depth="1" NCoef="0" IVar="3" Cut="3.0020797252655029e-01" cType="0" res="-2.1412556990981102e-02" rms="1.8367074429988861e-01" purity="3.6647465080022812e-02" nType="0">
          <Node pos="l" depth="2" NCoef="0" IVar="-1" Cut="0.0000000000000000e+00" cType="1" res="-5.7051675394177437e-03" rms="2.1171322464942932e-01" purity="5.0100013613700867e-02" nType="-99"/>
          <Node pos="r" depth="2" NCoef="0" IVar="-1" Cut="0.0000000000000000e+00" cType="1" res="-1.6961818560957909e-02" rms="1.6169621050357819e-01" purity="2.7554515749216080e-02" nType="-99"/>
        </Node>
      </Node>
    </BinaryTree>
    <BinaryTree type="DecisionTree" boostWeight="1.0000000000000000e+00" itree="76">
      <Node pos="s" depth="0" NCoef="0" IVar="0" Cut="6.0089955329895020e+00" cType="1" res="-5.8465078473091125e-03" rms="2.6189419627189636e-01" purity="8.1045061349868774e-02" nType="0">
        <Node pos="l" depth="1" NCoef="0" IVar="-1" Cut="0.0000000000000000e+00" cType="1" res="2.5854986160993576e-03" rms="3.3336660265922546e-01" purity="1.3507151603698730e-01" nType="-99"/>
        <Node pos="r" depth="1" NCoef="0" IVar="4" Cut="1.0532248020172119e+00" cType="1" res="-1.3337308540940285e-02" rms="2.2554329037666321e-01" purity="5.8788642287254333e-02" nType="0">
          <Node pos="l" depth="2" NCoef="0" IVar="-1" Cut="0.0000000000000000e+00" cType="1" res="-5.7913048658519983e-04" rms="2.5060176849365234e-01" purity="7.4507527053356171e-02" nType="-99"/>
          <Node pos="r" depth="2" NCoef="0" IVar="-1" Cut="0.0000000000000000e+00" cType="1" res="-1.4843399636447430e-02" rms="1.7256110906600952e-01" purity="3.1866863369941711e-02" nType="-99"/>
        </Node>
      </Node>
    </BinaryTree>
    <BinaryTree type="DecisionTree" boostWeight="1.0000000000000000e+00" itree="77">
      <Node pos="s" depth="0" NCoef="0" IVar="0" Cut="1.3011994361877441e+01" cType="1" res="-5.5127209052443504e-03" rms="2.6182779669761658e-01" purity="8.1045061349868774e-02" nType="0">
        <Node pos="l" depth="1" NCoef="0" IVar="-1" Cut="0.0000000000000000e+00" cType="1" res="5.6365883210673928e-04" rms="2.9537582397460938e-01" purity="1.0438260436058044e-01" nType="-99"/>
        <Node pos="r" depth="1" NCoef="0" IVar="5" Cut="1.2832760810852051e+00" cType="1" res="-2.2882942110300064e-02" rms="1.5926715731620789e-01" purity="2.7668276801705360e-02" nType="0">
          <Node pos="l" depth="2" NCoef="0" IVar="-1" Cut="0.0000000000000000e+00" cType="1" res="-1.1794317513704300e-02" rms="1.6382604837417603e-01" purity="2.9461773112416267e-02" nType="-99"/>
          <Node pos="r" depth="2" NCoef="0" IVar="-1" Cut="0.0000000000000000e+00" cType="1" res="-2.3915177211165428e-02" rms="1.1375467479228973e-01" purity="1.3468156568706036e-02" nType="-99"/>
        </Node>
      </Node>
    </BinaryTree>
    <BinaryTree type="DecisionTree" boostWeight="1.0000000000000000e+00" itree="78">
      <Node pos="s" depth="0" NCoef="0" IVar="2" Cut="6.5797734260559082e-01" cType="0" res="-5.2009336650371552e-03" rms="2.6180112361907959e-01" purity="8.1045061349868774e-02" nType="0">
        <Node pos="l" depth="1" NCoef="0" IVar="-1" Cut="0.0000000000000000e+00" cType="1" res="2.7492681518197060e-02" rms="4.9560651183128357e-01" purity="4.4024598598480225e-01" nType="-99"/>
        <Node pos="r" depth="1" NCoef="0" IVar="2" Cut="4.4751816987991333e-01" cType="0" res="-5.8360877446830273e-03" rms="2.6046288013458252e-01" purity="7.9880602657794952e-02" nType="0">
          <Node pos="l" depth="2" NCoef="0" IVar="-1" Cut="0.0000000000000000e+00" cType="1" res="2.5862609967589378e-02" rms="4.4604888558387756e-01" purity="2.9450368881225586e-01" nType="-99"/>
          <Node pos="r" depth="2" NCoef="0" IVar="-1" Cut="0.0000000000000000e+00" cType="1" res="-5.6448765099048615e-03" rms="2.3824581503868103e-01" purity="6.4440563321113586e-02" nType="-99"/>
        </Node>
      </Node>
    </BinaryTree>
    <BinaryTree type="DecisionTree" boostWeight="1.0000000000000000e+00" itree="79">
      <Node pos="s" depth="0" NCoef="0" IVar="3" Cut="6.4467447996139526e-01" cType="0" res="-4.9271462485194206e-03" rms="2.6149949431419373e-01" purity="8.1045061349868774e-02" nType="0">
        <Node pos="l" depth="1" NCoef="0" IVar="-1" Cut="0.0000000000000000e+00" cType="1" res="1.4840484363958240e-03" rms="3.0794888734817505e-01" purity="1.1549718677997589e-01" nType="-99"/>
        <Node pos="r" depth="1" NCoef="0" IVar="2" Cut="4.9976828694343567e-01" cType="0" res="-1.6392039135098457e-02" rms="2.0207698643207550e-01" purity="4.5502081513404846e-02" nType="0">
          <Node pos="l" depth="2" NCoef="0" IVar="-1" Cut="0.0000000000000000e+00" cType="1" res="6.8270661868155003e-03" rms="4.1164612770080566e-01" purity="2.2831831872463226e-01" nType="-99"/>
          <Node pos="r" depth="2" NCoef="0" IVar="-1" Cut="0.0000000000000000e+00" cType="1" res="-1.0085937567055225e-02" rms="1.9113214313983917e-01" purity="3.9535231888294220e-02" nType="-99"/>
        </Node>
      </Node>
    </BinaryTree>
    <BinaryTree type="DecisionTree" boostWeight="1.0000000000000000e+00" itree="80">
      <Node pos="s" depth="0" NCoef="0" IVar="0" Cut="7.0074963569641113e+00" cType="1" res="-4.5920978300273418e-03" rms="2.6146033406257629e-01" purity="8.1045061349868774e-02" nType="0">
        <Node pos="l" depth="1" NCoef="0" IVar="-1" Cut="0.0000000000000000e+00" cType="1" res="2.1752798929810524e-03" rms="3.3073657751083374e-01" purity="1.3377597928047180e-01" nType="-99"/>
        <Node pos="r" depth="1" NCoef="0" IVar="2" Cut="6.5797734260559082e-01" cType="0" res="-1.2905603274703026e-02" rms="2.1302071213722229e-01" purity="5.1752164959907532e-02" nType="0">
          <Node pos="l" depth="2" NCoef="0" IVar="-1" Cut="0.0000000000000000e+00" cType="1" res="2.2076632827520370e-02" rms="4.9374842643737793e-01" purity="4.2169126868247986e-01" nType="-99"/>
          <Node pos="r" depth="2" NCoef="0" IVar="-1" Cut="0.0000000000000000e+00" cType="1" res="-6.5665622241795063e-03" rms="2.1058346331119537e-01" purity="5.0083816051483154e-02" nType="-99"/>
        </Node>
      </Node>
    </BinaryTree>
    <BinaryTree type="DecisionTree" boostWeight="1.0000000000000000e+00" itree="81">
      <Node pos="s" depth="0" NCoef="0" IVar="3" Cut="1.4887483119964600e+00" cType="0" res="-4.2936936952173710e-03" rms="2.6143458485603333e-01" purity="8.1045061349868774e-02" nType="0">
        <Node pos="l" depth="1" NCoef="0" IVar="-1" Cut="0.0000000000000000e+00" cType="1" res="3.2756347209215164e-03" rms="3.3045232295989990e-01" purity="1.3523626327514648e-01" nType="-99"/>
        <Node pos="r" depth="1" NCoef="0" IVar="9" Cut="2.5119161605834961e+00" cType="1" res="-9.5924194902181625e-03" rms="2.4208542704582214e-01" purity="6.8316541612148285e-02" nType="0">
          <Node pos="l" depth="2" NCoef="0" IVar="-1" Cut="0.0000000000000000e+00" cType="1" res="-2.9956421349197626e-03" rms="2.4388705193996429e-01" purity="6.9704204797744751e-02" nType="-99"/>
          <Node pos="r" depth="2" NCoef="0" IVar="-1" Cut="0.0000000000000000e+00" cType="1" res="-1.7325991764664650e-02" rms="1.6455532610416412e-01" purity="2.7139494195580482e-02" nType="-99"/>
        </Node>
      </Node>
    </BinaryTree>
    <BinaryTree type="DecisionTree" boostWeight="1.0000000000000000e+00" itree="82">
      <Node pos="s" depth="0" NCoef="0" IVar="0" Cut="1.1001499176025391e+01" cType="1" res="-4.0106261149048805e-03" rms="2.6140448451042175e-01" purity="8.1045061349868774e-02" nType="0">
        <Node pos="l" depth="1" NCoef="0" IVar="-1" Cut="0.0000000000000000e+00" cType="1" res="1.3054314767941833e-03" rms="3.0980965495109558e-01" purity="1.1598017066717148e-01" nType="-99"/>
        <Node pos="r" depth="1" NCoef="0" IVar="1" Cut="8.0336737632751465e-01" cType="0" res="-1.6942817717790604e-02" rms="1.7200000584125519e-01" purity="3.2450214028358459e-02" nType="0">
          <Node pos="l" depth="2" NCoef="0" IVar="-1" Cut="0.0000000000000000e+00" cType="1" res="-4.8858183436095715e-03" rms="2.0485731959342957e-01" purity="4.7366425395011902e-02" nType="-99"/>
          <Node pos="r" depth="2" NCoef="0" IVar="-1" Cut="0.0000000000000000e+00" cType="1" res="-1.6537653282284737e-02" rms="1.3472129404544830e-01" purity="1.8810544162988663e-02" nType="-99"/>
        </Node>
      </Node>
    </BinaryTree>
    <BinaryTree type="DecisionTree" boostWeight="1.0000000000000000e+00" itree="83">
      <Node pos="s" depth="0" NCoef="0" IVar="3" Cut="4.0029788017272949e-01" cType="0" res="-3.7641867529600859e-03" rms="2.6137354969978333e-01" purity="8.1045061349868774e-02" nType="0">
        <Node pos="l" depth="1" NCoef="0" IVar="-1" Cut="0.0000000000000000e+00" cType="1" res="9.6753641264513135e-04" rms="2.9113003611564636e-01" purity="1.0222624242305756e-01" nType="-99"/>
        <Node pos="r" depth="1" NCoef="0" IVar="9" Cut="2.7335612773895264e+00" cType="0" res="-2.0319888368248940e-02" rms="1.7461085319519043e-01" purity="3.2818708568811417e-02" nType="0">
          <Node pos="l" depth="2" NCoef="0" IVar="-1" Cut="0.0000000000000000e+00" cType="1" res="7.3985508643090725e-03" rms="4.6059352159500122e-01" purity="3.2451558113098145e-01" nType="-99"/>
          <Node pos="r" depth="2" NCoef="0" IVar="-1" Cut="0.0000000000000000e+00" cType="1" res="-1.2385061010718346e-02" rms="1.7388856410980225e-01" purity="3.2515123486518860e-02" nType="-99"/>
        </Node>
      </Node>
    </BinaryTree>
    <BinaryTree type="DecisionTree" boostWeight="1.0000000000000000e+00" itree="84">
      <Node pos="s" depth="0" NCoef="0" IVar="0" Cut="3.0134932994842529e+00" cType="0" res="-3.5139457322657108e-03" rms="2.6133945584297180e-01" purity="8.1045061349868774e-02" nType="0">
        <Node pos="l" depth="1" NCoef="0" IVar="-1" Cut="0.0000000000000000e+00" cType="1" res="1.0966410627588630e-04" rms="2.6059082150459290e-01" purity="8.1477649509906769e-02" nType="-99"/>
        <Node pos="r" depth="1" NCoef="0" IVar="2" Cut="3.8841658830642700e-01" cType="1" res="-3.2800257205963135e-02" rms="2.6517593860626221e-01" purity="7.7735073864459991e-02" nType="0">
          <Node pos="l" depth="2" NCoef="0" IVar="-1" Cut="0.0000000000000000e+00" cType="1" res="-7.2156488895416260e-03" rms="2.6687186956405640e-01" purity="7.8945234417915344e-02" nType="-99"/>
          <Node pos="r" depth="2" NCoef="0" IVar="-1" Cut="0.0000000000000000e+00" cType="1" res="-1.5659900382161140e-02" rms="2.0062391459941864e-01" purity="4.2227815836668015e-02" nType="-99"/>
        </Node>
      </Node>
    </BinaryTree>
    <BinaryTree type="DecisionTree" boostWeight="1.0000000000000000e+00" itree="85">
      <Node pos="s" depth="0" NCoef="0" IVar="0" Cut="6.0089955329895020e+00" cType="1" res="-3.3600709866732359e-03" rms="2.6131761074066162e-01" purity="8.1045061349868774e-02" nType="0">
        <Node pos="l" depth="1" NCoef="0" IVar="-1" Cut="0.0000000000000000e+00" cType="1" res="2.8366001788526773e-03" rms="3.3279308676719666e-01" purity="1.3507151603698730e-01" nType="-99"/>
        <Node pos="r" depth="1" NCoef="0" IVar="4" Cut="1.0532248020172119e+00" cType="1" res="-1.0277754627168179e-02" rms="2.2501003742218018e-01" purity="5.8788642287254333e-02" nType="0">
          <Node pos="l" depth="2" NCoef="0" IVar="-1" Cut="0.0000000000000000e+00" cType="1" res="4.2808140278793871e-04" rms="2.4993266165256500e-01" purity="7.4507527053356171e-02" nType="-99"/>
          <Node pos="r" depth="2" NCoef="0" IVar="-1" Cut="0.0000000000000000e+00" cType="1" res="-1.3846831396222115e-02" rms="1.7251631617546082e-01" purity="3.1866863369941711e-02" nType="-99"/>
        </Node>
      </Node>
    </BinaryTree>
    <BinaryTree type="DecisionTree" boostWeight="1.0000000000000000e+00" itree="86">
